2284 100
set 0.20754358 1.8586289 0.106785715 2.935454 -2.6973772 0.6275977 0.31114772 -0.2683765 -4.2583523 -0.09154163 0.028943826 0.20021576 1.2241825 0.8368375 0.20142409 1.1897466 -0.89215267 0.41656753 -2.010169 -0.56077874 -0.51309085 1.3960929 2.7063296 -2.4159808 -2.1727161 1.3025994 2.0307379 -0.78993404 0.15576197 0.575547 -0.21587427 -2.0773058 1.212933 -0.89736485 -2.550011 0.819332 -0.33821705 -0.9289735 0.1474521 0.43726915 -1.8921688 1.1837425 -0.14947826 1.5454073 -1.7386461 0.22997135 -1.5175799 2.254407 2.7536795 0.80079 -0.6331074 -0.46460256 -2.510721 1.0489532 0.3932219 0.54325104 0.26875353 -0.1182221 0.047132242 2.4969316 -0.61342025 0.73602796 0.3285948 -0.73909426 1.249024 2.1084785 -1.577549 -1.3417239 -0.1779025 -0.8956549 0.75053823 -1.8504995 2.4331641 1.1095208 0.6779363 2.4102798 1.4814296 -1.8045725 0.7221681 -0.5723377 -1.2828362 -1.3271098 0.9877855 0.30280608 -1.32997 -1.626399 -0.021294268 -0.6023928 0.32696214 1.3318965 -1.7193804 -0.01577138 -1.0095459 -2.5466478 -0.73968965 0.7764598 0.6054357 0.8189278 0.0015028783 0.81390345
bag -1.5161467 0.02879591 0.17436947 2.5164106 -0.54911846 -1.4254881 -0.09796479 1.6223975 0.05742304 -0.43183875 -1.0768641 -0.69618344 -1.9012855 1.6697836 1.3792902 1.5385793 2.4676101 -0.83254623 -0.97711957 -0.9439036 0.7531085 -1.2637227 0.26277778 -2.0723877 0.39908007 -0.57629067 0.2936563 -0.7517336 1.1385653 0.7329882 -1.2116411 -0.87899125 -0.46291542 -2.473257 0.5740231 0.07846221 1.4236553 1.1396997 0.5496754 0.4024 2.2969937 -0.9314291 -2.222148 0.044594478 -1.1741407 1.3913316 -0.46439946 1.2984567 1.1050254 2.5242283 -0.2326094 -1.7443314 0.36718628 0.6217703 0.2557695 -1.039588 1.7818457 -0.42948514 0.083455 -0.9277014 -2.4412467 -0.73483443 -1.8714662 1.3700857 0.86028665 0.85118896 -0.95067346 -1.7437968 0.4798484 0.36578783 1.3418154 -0.24709143 2.0210981 0.87736 -0.7206707 -0.5810494 0.26476327 0.8923688 1.553452 -0.61110514 0.0003741954 1.241116 0.8758885 -2.0984263 3.0321949 -2.5786417 -1.5509462 -1.2599043 -0.99066865 -0.06918763 -0.98531306 1.2526754 -0.730959 -1.5571312 -1.3666737 -0.94979686 -1.8722314 -0.054756865 -0.4345855 -0.5275439
red 1.1121364 2.9157968 0.9065364 0.110329695 1.508282 -0.11658613 -0.55339044 -1.1996679 -0.33128166 -0.7780717 -1.9981612 3.0073652 2.6253169 0.27279383 2.295149 1.0667188 -1.5304277 0.10342309 -1.6709402 -0.058929797 -1.2616948 -1.7379117 -0.57602185 -1.868131 0.5496076 0.2530171 1.0771794 -0.86592567 -0.47897565 2.054991 0.070080094 -1.7386768 -0.15799496 -0.33773977 0.38354644 1.1927692 -0.94543934 2.0076008 -0.056035157 0.5928233 0.0491705 0.24421245 -0.5227194 0.4126786 2.0966153 -1.0939234 0.80687386 2.0821693 -1.0062504 2.9092162 -1.9804735 0.7359969 -2.4996655 -3.694878 -0.30639052 -0.12440734 0.660641 -0.4504943 -1.6903036 1.6559516 -0.40414277 -0.76703256 0.0750982 1.129531 -1.0191095 1.0538069 0.18885696 -0.2527641 -0.31900057 -0.63390446 0.95615566 0.45650068 -0.70221525 1.113503 -0.9111484 -0.17477648 0.9556434 -0.7339339 -0.93144715 0.32434854 0.018370386 -0.02274449 1.0012511 1.1010325 1.2478125 -0.4652935 -0.13684902 -0.35975477 0.8238531 -1.5962576 -1.326572 0.6119611 1.6372222 -0.349539 -0.7505408 -0.7578574 -1.614368 0.53282726 -0.13175403 0.27431208
heart -0.08034043 2.2132123 -1.0329913 0.2694381 1.0475551 -0.827837 0.08726627 2.6634467 0.9314119 -0.7765059 1.8281527 0.76584244 -0.81094855 0.16110136 0.7663008 -0.39245176 -1.5780066 0.10982594 0.9565332 1.4452355 0.75843567 -2.3678658 -0.3953429 4.485138 -1.2774812 2.1458993 1.4756929 -0.103545554 1.9154339 -0.14425771 -1.1092902 -0.5620899 -1.0144584 -0.67529565 -0.23343529 -0.43451887 2.276473 -0.8364547 -0.8506939 1.1606665 -1.0563784 0.75854695 -1.2262896 -2.2816906 1.9367056 -1.796677 -1.2856805 -1.0339065 0.60499746 0.6000016 -0.2842727 -0.7531748 -1.638675 -2.0264912 0.08371972 -0.2339665 -0.11948131 -0.7899741 -0.32342303 -0.39761445 0.92407835 0.11124659 1.8795897 0.2988925 0.11891445 -0.31330585 -1.167144 0.62821734 1.0898771 -1.2307193 0.84592146 0.9929219 -1.1758338 -0.5461946 -0.40329465 -1.6066605 0.78456676 0.4575814 2.201615 0.10923426 -0.17613485 0.14675364 0.29873702 -1.7136247 -1.046878 -0.6072447 1.5511662 2.8801372 -0.83670473 -0.7824964 -0.64114946 3.4438279 0.017029658 0.92529637 -0.5065928 -1.376261 -0.42298147 -1.0970136 1.2446483 0.35539308
retrospot -2.4934666 0.015880395 0.09510454 -0.8564047 0.55660987 1.6369162 1.7378434 -1.3046815 -0.8773008 -1.4337965 -1.2185376 -0.41777655 1.4088404 0.42049152 -0.7715943 -0.10967329 0.5126018 1.6034143 1.0126224 -2.2331288 -1.2574701 -0.56063336 3.039671 1.6146004 1.8989557 0.1789642 0.12728311 0.582291 -1.4015054 -1.8396078 0.9771182 0.35509944 -1.1790439 0.46170178 0.55250984 0.50560445 -2.347117 0.14393005 0.78853655 2.924805 -0.34686503 -0.110741384 -1.5019088 0.0018003684 -1.4705659 -1.8192834 -0.5746075 1.0951777 0.43301114 -0.5712926 0.6913446 -0.8115028 1.2399725 -0.6951234 -0.08234381 -2.089146 -0.24958812 -1.0929712 0.6875877 1.4782754 -0.064011894 -1.1117382 2.2298567 -0.42714795 -0.6997313 -0.6099718 1.0202922 0.6576332 -0.4723285 0.36401853 -0.82647884 -0.06929425 -0.8222525 -1.1675719 -0.16767633 -0.29869467 0.22650617 0.18589444 0.14641838 -2.2673528 -1.3586272 -3.1530046 0.21066523 -0.50690305 -1.1507427 0.36166233 0.27923864 1.3784395 -1.6174154 -2.2234588 0.97902346 -1.9131058 2.1312368 -0.039838526 0.34836775 -0.039591767 -0.26614413 1.4797995 -2.3534436 0.9538856
vintage -2.3610427 -0.4058039 0.38866007 -1.091282 -0.5702469 2.3479872 -0.09587506 -0.4079261 -0.33542684 -1.4581697 -1.210308 2.0874336 -0.034671493 0.9107745 -0.20471993 -1.4950818 1.287857 0.107456475 -0.14492854 -1.4143195 -2.7219844 -0.39190283 2.0764534 0.4010664 -1.1325008 1.6147927 0.32798246 1.743086 1.3577727 0.996227 2.2589982 1.9254963 -1.0514814 -1.3048251 0.292001 1.6082 0.2895511 0.775376 1.3064935 0.9075205 0.18851672 -0.86200637 -1.5898333 0.21207899 -1.508314 -0.9761657 1.847929 -0.48047465 -1.7590992 1.2002616 0.25704962 -2.3061981 2.2369773 -0.08630827 -0.9241303 -1.1149101 1.6631906 -3.2457368 -1.8071378 0.83105063 2.3963118 -0.103995554 0.056261633 -0.9380566 -0.95169383 0.86764985 0.2517095 0.14033169 -2.1132321 -1.084501 1.6000218 1.0841768 0.86073446 0.9028851 0.14528593 -0.9337933 1.5475817 0.39280358 -1.0175148 -0.9490525 0.5941666 0.23427789 2.5122285 -1.3275772 -0.55698794 -0.85840446 -1.4574587 1.9856281 -1.2402438 -0.75050205 0.92433876 -1.250786 0.19400796 -1.2395117 0.1834115 -1.1467054 0.67238694 2.1967018 0.3518056 0.053138115
design 1.0572113 0.9312374 2.6363547 -0.812702 0.05231095 -0.92371625 -2.3783436 -1.2888892 -1.6293776 -0.48749152 -0.92578375 0.15861665 2.3075233 1.3234755 1.1859865 0.002721414 1.332553 1.411276 -0.71577907 0.2949957 -0.18586525 -0.3364815 2.5374296 -0.71811974 3.4303784 -1.1748621 -0.15983866 0.97939473 -3.9550924 -0.23506296 0.54661 2.0982316 1.1564361 0.19219112 -1.8232726 0.23091623 0.51614636 -2.532735 2.0108564 0.98725486 1.0345044 -2.0967658 0.051887535 -0.6932482 0.66605145 -0.15515736 -0.33826384 0.566371 -0.33746338 1.4440166 -0.7897802 0.75135195 -1.6753712 0.37861428 -0.4050993 -1.0355519 -0.4053409 -0.91760653 1.2385805 0.4750942 0.024348011 -3.1639388 1.1023786 -1.2873659 -1.4160159 1.1654577 -1.4344007 0.20239846 1.401338 -1.2422348 -0.837278 1.5847753 -0.35198095 0.05382218 -0.28129008 -2.9107847 2.4692504 1.4284822 -0.678007 1.7847035 0.12543966 -1.4801565 0.48704526 1.5054387 -2.0646746 -1.4165548 -0.18641035 -0.25696284 0.5012422 0.5244882 1.5348431 -0.7252309 -1.5059814 1.8986512 -1.3027803 0.58518285 1.7488548 1.3513789 -1.5591048 1.3453386
pink -0.11150457 1.1360774 2.9798756 0.16036922 -0.49002713 1.4993213 0.33856037 -3.1456354 -0.8222393 -1.6920434 -1.05198 1.3148849 2.7142954 0.541803 2.0416856 1.0868311 0.12120618 -0.19502011 -1.1041046 1.1743006 -0.19701442 -0.8488864 0.18915619 -0.8442897 0.9756005 1.9011972 0.65027565 -1.1330374 -0.619652 3.3000264 0.08276455 0.879909 -1.2150729 -0.053207956 -0.5670542 0.8872216 -0.3052023 1.9171882 1.625968 -0.22938302 1.5211321 -1.5504707 2.0519962 0.14954689 1.2889737 -0.66767824 0.20342186 1.3076386 1.0916581 0.9626221 -1.5627688 -0.7012993 -0.77133566 -2.1462395 0.719725 -0.32510152 -1.6677536 0.28641713 -0.38522443 2.7856398 0.6471774 -0.34997594 0.6720597 -0.3291455 -1.3150622 0.7886815 -0.6866182 0.46361026 1.5572758 -0.726961 -2.0723782 0.725338 1.233651 -0.056508847 -1.9600067 0.3200108 1.294142 -0.3985521 -1.2925531 -1.5593393 0.6827273 -1.6608495 0.37913412 0.7160501 -0.7605764 -0.94286305 1.0869666 0.6011894 2.750922 -2.4995515 -0.62145746 0.48796672 0.44871265 1.3870271 0.9852625 0.7001216 -2.269939 0.3529933 0.3564851 -0.6862785
christmas -1.3387793 2.6355217 0.4415874 1.2130368 2.4735672 -1.1064185 1.9224404 -1.3275635 0.5750769 -0.25723666 -0.2835781 -0.52283937 3.4362733 -0.8602513 2.5181901 1.507151 -1.1044711 -2.2940478 0.3933565 0.51316196 0.44257715 1.3686416 1.3464893 1.7194681 1.2120433 0.7188504 0.810354 -0.3291509 -0.26726484 -0.3969866 1.0250413 -0.79303765 -0.7096733 1.7218136 -1.5239645 1.0271214 -1.7784424 0.06818516 0.9858266 -1.1439326 -0.32402545 1.0793734 -0.42171174 1.8892878 -0.11199564 -0.3405127 -2.1289268 2.522705 1.5895095 -0.1182442 0.9168462 2.1213856 -2.1933296 -1.8168446 0.096606486 -1.2956735 0.31146216 3.2506866 -0.0019719223 -0.5924774 -2.4425395 1.3598243 2.720426 1.1564826 -1.2675407 -0.1622004 -1.0119011 0.31490347 -0.74753064 -2.3868437 0.885311 -0.48955187 0.5308695 1.6137973 -0.9267582 -0.96700937 -2.4111547 -0.5132226 0.55701315 0.03202122 0.23517391 -0.25454196 1.336112 -1.0061287 1.2413887 -0.20738526 -0.35480732 0.4537523 -1.018705 0.4152269 -0.4630101 0.5467004 0.96538216 0.5115271 0.6006665 -0.4260801 1.0842316 -2.032382 -1.0404427 -0.25817102
box 1.1873704 -0.8947244 -4.1625733 1.7448715 0.1656505 -2.4165032 -1.4291916 1.1441644 -1.9139466 -0.55166924 -1.0807465 -0.6372614 -1.6993868 -1.0459043 0.5530281 2.1617708 1.4978311 -3.05219 0.8550178 2.366887 -0.7892301 -1.711649 1.1599159 -0.90321755 -0.7742553 0.19732878 -0.47449833 1.3027316 -0.17255907 0.042522445 1.0407841 0.62522155 -0.9745171 0.009577487 -1.9490147 0.14452761 -0.0013258895 2.2308412 0.010636613 1.1389585 0.2758097 0.8111434 0.069051474 0.15684585 0.930054 2.5022693 -3.571198 -1.4454553 2.481192 3.7104378 -1.1817727 1.1134857 -0.37632954 0.06688004 -0.9850528 -1.967967 1.5241675 -0.48786423 1.0650892 0.47255072 -1.6450003 -1.0617539 0.7146101 -0.39015844 1.2125986 -0.84084004 -2.792574 -1.927337 -0.09154517 0.5885209 0.060064115 0.9991128 0.82531494 -0.17165713 -0.45191088 -1.1895691 -1.3476509 -1.0991207 1.5349497 -1.6301994 1.4006106 -1.3744525 -0.56942415 -1.0320143 0.78063065 -3.7720184 0.51786 -0.21681015 0.5315826 0.359141 -2.9009988 0.6715815 0.28055143 0.3639628 0.25729564 -1.0193032 0.12638171 0.7254283 -0.02442937 0.7147745
cake -0.49961212 -0.31176108 1.9762284 0.056049768 -1.7510291 -0.054941595 -1.3990588 0.7338119 0.37901306 0.5850883 1.1593603 0.18015209 0.62539464 -0.142082 0.24437428 2.000902 0.55016184 -0.59601164 1.4219537 -1.096106 -1.0436382 0.37334892 2.301614 0.18475436 -0.047247767 -1.2829188 2.2483015 -2.5066094 3.4344375 1.5239354 -0.92726105 0.68573534 -1.7281371 1.1619525 0.94332516 -1.4123418 1.0377235 1.3268149 -0.47183457 0.26396596 -0.4864267 2.62688 -1.1906713 -0.630619 -0.8928246 -1.8357048 -2.620623 0.9793245 -1.2173253 0.22878449 0.5200334 -0.0467943 -0.8565342 1.1096215 1.1654215 -0.58856255 -1.3553566 -0.99304867 2.2521906 -1.0712415 -0.8243074 -2.0962846 2.0118399 1.14417 -1.7452307 0.5239987 -0.9882515 -0.7349259 1.2572542 0.2881673 0.14147323 3.118041 -1.2300929 0.943885 0.22975452 1.1846032 0.9174811 -0.95960736 1.12542 -1.2060164 -0.31540406 0.4992255 2.3218691 1.1592209 0.02177569 -2.1261537 -1.9955137 1.2929505 0.377636 1.5635443 2.0344393 2.6046731 1.5199623 4.280659 -0.50402343 -0.6870147 1.5898578 -1.0412048 0.59646 -0.4083068
jumbo 0.089411564 1.7074583 -0.8060196 -0.87195104 0.3879665 0.09939028 0.03338101 -0.65624815 0.16585423 0.481559 -0.39978352 -0.37139124 -0.014509594 -0.7645264 2.1361225 -3.3520715 -0.10862972 -0.1360104 -0.040454894 -0.20115785 -2.2342465 0.5306657 -2.2821746 -1.8359795 -0.7799643 -2.8531055 -0.9404727 -1.1771594 0.9223295 0.18544541 -1.4772868 -1.7853833 -0.123176225 -1.2840545 0.6749598 -0.17648333 1.937056 -0.9458584 -0.21568276 1.751427 -2.192363 1.0641165 1.429533 1.9546951 -2.142531 0.3008022 -0.5212246 0.40099826 0.8628221 0.9012865 0.95985943 0.4528668 -0.53483516 1.5006346 -1.6823467 -2.463479 1.3766313 -0.6176011 -1.092179 0.16898838 -1.5338819 1.073915 -0.5717752 -0.8661045 -0.10645847 0.6593602 -1.5618844 1.4429216 0.57561344 -1.4952855 1.2330581 1.8017354 1.9581058 -0.09497172 0.7842759 -0.13842948 -0.4979643 2.0175083 0.74715346 0.7179871 -1.5535413 -1.0572897 -1.1739142 -0.6227141 -0.30830696 -0.72458285 -2.383648 -0.14791332 0.5124847 0.31472224 -1.8353336 -1.4218621 -1.1618197 -1.4958246 2.8092394 -0.21483658 -1.8551012 0.19217493 -1.2237377 0.7596283
metal -0.45539543 -0.07693563 2.1073494 -0.5872801 1.5100747 1.7174664 -0.52156806 2.5280452 0.34943667 -2.2183578 0.1812979 -0.78463125 -3.4848504 -1.0554129 -1.3742343 -0.90847546 -0.6188904 0.41511422 1.8619043 1.6158174 0.47091123 0.73213553 -2.4006672 1.1721777 -0.9098848 -0.6045543 -0.44703546 0.36388016 1.1003335 0.18999618 -0.65995026 -0.07502552 0.5873206 -1.2471823 -0.85428596 -2.2476633 -1.5195711 -0.5959454 0.77348053 -0.5985909 0.21322738 2.3019068 -0.08828192 -1.4033941 -2.6783347 -1.1164962 0.4485733 -1.1154492 0.11783041 1.2532575 0.80624926 -1.3211695 -0.5096129 -1.4475392 0.68065524 -0.23256609 0.1713346 2.0169291 1.3281262 2.9343226 -0.33165008 0.5576082 2.1741285 0.5367993 -2.582042 -0.21803586 -0.09810755 -0.24773422 -2.0067494 0.2786892 0.18098003 0.6843353 0.16848348 -2.765534 2.273641 0.25498366 -1.3140181 0.5114664 -1.40659 -1.0036591 -2.727485 1.7474207 0.31990826 2.808117 -0.36572322 0.45581424 2.132181 0.74605864 -0.44193545 0.87468994 -0.2867215 -0.122119024 1.9966855 -0.72408694 0.030250862 0.10492725 0.4202058 1.2083783 0.051282685 0.76174176
white -1.5812639 1.9133873 -0.12126154 0.640281 -0.9987601 -1.0994737 -0.54135597 -1.9392815 0.5445922 -0.2615294 0.18766887 3.9114487 -1.9800595 0.6166473 0.7600478 2.4307415 1.3619218 -0.21902114 -0.8362788 -1.2903094 0.08070007 -0.45676124 0.3990558 0.44708344 1.075436 1.3341532 -0.8363801 -1.1670583 1.7793854 1.0891072 2.3557587 1.0528104 0.7596007 -1.56065 2.0756238 -1.0014256 -0.644371 0.24233001 2.3049474 1.6174803 -0.86447954 0.3235252 -0.20743105 -0.073675744 -0.8096173 -0.85889727 -0.1132949 1.0088722 2.290233 -1.6254163 0.9784345 0.5694637 -1.2073609 -1.9392555 0.7524766 0.5318983 -0.14753851 0.7471047 -0.45186627 2.2032907 2.3432086 -1.0582068 0.3801367 1.7169634 -0.38346478 0.3079729 -0.80195355 1.8739728 0.874367 -1.3889977 -0.3857825 -1.010193 -2.5896163 -1.540743 0.092118025 1.3937101 0.2199519 2.0406828 -0.4913309 0.06808026 -0.70470744 -0.10947459 1.6499863 0.11020649 -0.84602773 -2.0427766 2.8820255 1.3540876 1.1935978 -0.5996252 0.8851509 -1.15416 -0.30748138 0.2905359 0.9762257 0.20349209 -0.7461608 0.75869447 -2.6654625 1.759245
blue -0.56675136 1.6955218 1.6481892 -2.1760736 -0.6067207 -0.74646455 1.9137489 -4.141756 -0.3725192 -0.8381678 -1.0992843 0.40453747 0.9306923 -1.4698979 1.9178646 -1.8486788 0.24212936 -0.37409875 -1.356067 -1.7243749 -0.023643369 1.3403723 -0.44371542 -1.0032258 -0.143036 1.3189207 1.4731694 -1.3052547 -0.61520463 2.9375207 -2.451842 -1.7702549 -1.355748 -1.0960187 -1.2932773 0.096794926 0.5399001 3.371462 0.9195744 1.2708884 1.0562226 -0.032926794 0.22357939 0.06140289 0.8601052 -0.065696634 0.29002976 0.61668766 -0.09106998 -0.62419873 0.3453007 -0.81818575 2.1669016 -1.6015737 0.21230571 -0.6796557 0.802724 0.124922134 -1.6482098 2.853609 -0.90370834 -1.0345759 0.32704493 0.41939405 -0.84938 0.82664615 0.048490476 1.0166942 -0.42483127 0.9175469 -1.585519 -0.06894661 0.9583881 -1.452848 -3.2845526 0.33368775 1.1057397 0.07429171 0.082449794 -1.2207271 0.44707146 -0.94288236 -0.1256927 -0.5877622 1.1611935 0.9966851 2.0658247 0.15794809 1.9562411 -1.2749653 -0.27571785 -0.6111576 2.2989314 0.5053546 2.1798954 -0.80045575 -1.9008639 -0.10661451 1.4763937 0.054878317
lunch -0.92805344 2.7072134 2.229373 0.21891822 -0.22530569 -0.2510614 0.49737397 -2.1800776 0.64193255 1.3714888 -0.7865783 -0.94661224 -0.3999634 -2.0998645 0.9255509 -2.3631241 -0.112364486 0.54677504 -1.5554416 0.8897544 -2.3039231 3.3071742 0.017259337 0.9602902 -0.06336365 -2.3237112 -0.7378304 -2.553537 0.7593419 -0.24822971 -0.9197079 -0.32646465 1.5970526 0.63024086 0.988213 -0.93292534 0.78522897 -1.7827452 -1.1583356 0.19111905 -2.2801955 1.5761548 1.7147616 -0.5270511 -1.0554448 1.1077534 0.061700597 1.6382588 1.3896693 -0.6815147 2.233131 -0.5557907 -0.59478843 0.64678675 -2.3593671 -0.80622023 1.4138128 -2.5202844 0.9877252 1.2986135 0.23702946 0.37958157 -0.5500836 -1.3122381 -0.94113046 -0.16900374 0.18980393 1.9573199 -0.6303613 -0.046186622 0.3168594 1.0374811 0.53742635 -0.48704612 0.29053494 1.8624691 0.55438906 0.93812263 0.40616903 0.80381256 -3.360337 -1.0692195 -0.8366671 -1.4321163 -1.4642107 1.0916573 -1.8844209 -1.7849226 3.3393967 0.8279353 -0.79429 -1.3528132 -1.3975606 -2.2566798 0.4451072 -0.5525569 -0.082927264 1.2617111 0.46313533 -1.0163746
hanging -0.99137557 -0.2582636 -0.28364873 -0.43966714 -2.0820565 0.2477731 0.678143 1.4535587 -0.16718249 1.467302 -0.857938 1.0600722 -1.7920462 0.17833605 -3.5758977 2.1871164 -1.6392627 0.94973207 0.9533119 -1.691042 0.05287094 0.15593465 0.53695613 1.3897682 -0.88237834 -0.28544605 0.74973875 -1.0654477 -1.2729667 -0.6999037 0.12347357 -0.28908888 -0.9124012 -0.031773824 -1.2521453 -0.984309 -0.067662045 0.2691709 -0.45116323 -0.75410306 1.6208355 0.75263447 1.5270783 -0.1357529 0.41887307 -2.727946 -2.5656457 -1.247779 -0.09137225 2.7333262 -3.19788 1.5262948 0.31408662 -2.3325014 1.518545 -0.2171119 -1.7657632 -2.1855881 -1.0383649 0.84214336 -0.28382343 0.034076877 2.8405905 1.1282983 0.7019163 2.1338496 0.48731816 2.9087572 0.669728 -1.027148 0.5012485 0.20210785 -2.0474765 -0.84768885 -0.24941884 -1.625527 0.48238334 -0.29255062 0.43077204 -0.9922247 0.38843322 -2.7235456 3.0636759 -0.30600247 -0.51052314 0.10314991 -0.032303195 0.44926307 -0.87816083 1.5763518 0.57757497 0.32970488 0.60203856 1.6185858 2.0820866 -0.049734205 0.18171729 1.9068307 -0.011502757 2.1308265
sign 1.1844172 0.6399969 0.46920046 -2.776009 2.1799436 -2.9457989 1.731692 0.7861229 -0.2174638 -1.5544229 -0.2458285 -2.075499 0.20270355 -0.3896726 -0.0079114465 -1.7172225 2.038835 -0.020651279 2.0022876 0.077883266 4.2345095 -0.45930326 -1.6379315 1.0613967 -0.21940336 0.10136056 1.607198 -2.8021314 0.8516393 -1.2107462 0.4603393 2.090207 -0.30783477 -0.48429048 0.3351571 1.0484194 -1.386298 -0.5610869 1.2608238 -0.9262656 -1.0895169 -2.1286135 1.7776233 0.4184604 -0.71985304 -0.88068295 -0.17024168 -1.6724275 0.7014653 2.1622765 -0.64305943 2.6698866 1.0381095 -1.8587523 1.6083658 -0.38011587 1.3996916 1.0131809 0.028101835 1.4390026 -2.2947311 -0.4710111 -1.5473782 -0.6683581 2.3512497 2.1462078 0.65510255 -0.7926825 0.3885116 0.3902075 -0.37564778 -1.9830151 -0.47747132 0.0837056 2.0547593 0.5543215 2.0493393 2.416818 0.43472576 2.5418057 0.7347948 1.7437291 0.267559 -0.8006497 1.8518463 -0.43296427 3.4625819 -0.9519702 2.124319 0.054525066 0.45019913 0.53285605 0.85328597 -1.38521 -1.3192735 1.155065 0.7469182 -0.20611219 1.0561776 -1.4455605
holder 2.0769517 -1.7847235 -1.7896445 -0.8814091 0.920841 1.3555905 -0.4659291 1.279393 1.8534687 -1.8271024 -1.6333148 -0.16491358 -0.2947965 1.1980155 -0.11847511 0.8811771 -2.1008742 1.4108837 2.6516879 1.3242584 1.440916 -0.68467665 0.8939123 -0.34835395 0.234016 1.7250221 0.057083998 0.6156699 0.9678816 -1.8104856 2.0419087 0.47661728 -0.109443754 1.401346 0.084751315 -1.214674 0.47453156 0.9261812 0.52187806 -2.0824482 -0.48996624 0.83050716 1.1457824 0.9772086 -1.068516 0.36819187 -1.4142631 -1.9224324 2.263193 1.426889 -2.9855087 -1.540106 -1.3809999 -0.5652826 3.8946476 1.786409 -1.7971702 1.4422512 -0.9966511 1.8527039 0.8740347 -0.8071214 2.8253484 0.77981937 1.3733035 2.3181279 1.0087712 2.580416 -0.70183647 -0.66434747 1.4686666 0.8742892 -1.0792953 2.0282428 0.8308523 -0.31637755 -1.8008528 -0.66841835 0.018379724 -1.1570303 -0.7754451 -0.30241516 -0.25841412 1.6088388 0.88304615 -0.0469069 0.70127773 -0.37632123 -0.8633535 -2.4226418 1.2547061 0.16966927 2.459269 2.1873252 1.432929 -0.6696544 1.3112866 -1.6144247 1.6362432 1.0253375
pack 1.8750656 3.2471056 0.24946862 1.9336274 -1.8777401 1.3363143 0.6139292 0.0015953438 -0.34260377 0.29682788 -0.010974603 1.0972304 0.2520091 0.5513861 1.1712042 0.38159084 1.3183753 -1.385021 -0.20512366 -1.0035893 -0.79691523 0.38181263 1.1194094 -0.0040886896 -1.2388085 -1.0301253 -0.333578 -1.3358794 0.49849498 0.024525696 -0.25261056 -2.8672957 2.473364 -1.9484943 -3.3405604 2.0192287 -1.2416586 -0.6403819 -0.38701978 -1.7596911 -0.7330879 0.74233276 -1.6733238 2.5041888 -2.1284657 1.5025883 -0.9248944 -1.2041965 0.20629878 -1.595382 -1.045912 -1.8190367 -1.0111065 -1.5259262 -1.4955078 0.22459236 1.5320135 -0.126716 1.0386513 -0.22299312 -1.6017116 -1.2185111 -1.282501 0.74297136 1.1146349 0.95093113 -1.5513177 -0.12498543 -0.5613031 -0.94662124 0.2855065 1.4268497 1.1996325 0.87430334 1.1929646 0.3238608 -0.073297456 1.0214477 1.8978679 -0.6284742 -1.6103185 -1.3504186 -0.46176222 -1.6457351 1.7775189 -1.9913121 -0.3569558 -1.8553294 1.0265543 0.5873819 -1.4850087 -0.4805901 -1.8219709 -0.5264427 -2.3298693 -0.88653576 -2.3975608 0.7802437 1.4118574 1.872633
t-light 1.312187 -2.921531 0.32621327 2.3111222 -0.013119377 1.8028585 -1.0662525 0.3853595 0.9417247 -0.26460555 -0.26905242 1.0756947 0.11111767 0.9794665 -1.5776415 0.036541753 0.41261286 1.8865222 1.0199263 -0.50753534 1.4300407 -0.4562847 -1.1387143 0.86961657 -0.20006925 -0.4206253 0.8496314 -0.3723352 -1.2286685 -1.7746983 3.1710947 -1.83045 0.7705082 0.23485932 -1.5927097 -0.51282233 1.2615974 3.1976323 -0.9920205 -0.4344981 1.8958038 1.0649865 -0.69059247 1.5803754 -0.3501489 -2.7986934 -3.0913107 -0.49193034 0.2435324 1.1439759 -0.08679389 -0.31276196 -1.0373378 -0.9224081 0.85793 2.409294 1.6343569 1.3393881 -0.6681441 0.08782356 1.333299 1.1027985 2.6875389 -1.4355105 -2.6799169 1.7013037 -0.16971242 0.36729172 -1.517584 -1.6037116 -1.1833231 0.22592868 -3.5016809 0.38100722 0.4112067 2.8234315 -1.0987614 1.1007024 -0.95090526 -2.1023352 -1.6445068 1.5413898 1.3674307 -0.49975944 0.26323947 2.5360887 1.0394721 1.1365871 -1.7025708 0.7409155 -1.0826741 0.1321309 0.23080973 0.7712548 0.82076675 -0.12849276 0.617674 -2.9823298 -0.34956878 -0.07235192
paper -0.29655182 1.8459729 0.0756773 1.9741324 -1.6281116 0.061300952 1.3181368 1.2447782 -0.54979247 0.88270766 0.047176573 0.40752575 1.9453828 0.67357415 -0.38532832 0.8480268 1.1372981 -0.03575856 -0.75906795 1.0149214 0.87273955 0.31746364 0.56345296 -0.23301491 -0.5788573 -2.7817929 0.841745 -1.6913918 1.3946415 0.37841463 0.8775354 0.2547398 2.9993594 -0.7903882 0.4096214 -1.8784693 0.7497454 -0.48649937 -1.2799163 -0.93607676 0.05616009 1.1145281 1.0111113 2.1168199 -1.6109543 -1.9477181 0.9376211 -0.66922224 -2.0368679 -0.47825575 0.23432396 1.4929261 1.2581923 -0.39242828 -0.42892775 -3.9144928 0.5880115 -0.02652235 0.85903484 -2.220464 -0.48300558 0.7876686 -0.063451216 2.3902416 -0.24105181 -0.026371093 -0.49072504 1.6696352 -1.3247936 0.10533527 0.82944787 2.3366907 1.1773292 1.457368 0.4279085 -0.8716549 -1.0638772 1.5286669 -0.100943744 0.25857383 -1.1405139 -1.2961048 1.4851573 0.40549266 -0.103696525 -1.3029704 0.07837924 -0.17898819 -1.254244 1.3310078 -0.8663918 0.72231793 1.9884092 1.0131066 0.12737834 -3.0948222 -1.7668468 1.1434759 -2.1679425 -0.8975352
small 0.043320853 0.94922787 -0.85228455 1.2457019 -1.287963 0.83081764 -0.37403777 2.6794035 -0.41239315 -0.2758176 0.0684221 -0.28655243 0.24832045 0.6254504 -0.37615642 1.3869528 -0.39120096 2.5965552 0.5445742 0.56762403 -0.8124127 3.3240802 -3.7580097 0.39288843 0.7415614 0.5533585 -1.5323882 0.3041221 0.5300487 -1.7322762 -0.2384642 2.8594882 1.160403 0.51919067 0.0327175 -0.10426389 1.6736269 2.2213058 -1.6985939 1.0313216 -0.5401098 0.77258706 -0.325557 -0.14776441 1.4390678 -2.3378742 -0.98490864 2.142539 1.1348976 0.44123977 -0.25743383 0.38841462 -0.35609713 -0.761557 0.69138604 1.719177 0.742659 -1.1777611 2.292137 -0.89722764 -0.052582655 -0.11174204 0.4475799 0.37883198 1.4830041 1.4744252 -1.0045843 1.8599205 -2.8147483 -1.1081808 1.3141633 -0.066855446 -1.1470592 1.3943214 -0.33624965 0.9488189 0.56168664 -0.36712828 0.88323754 0.2758467 -2.2030694 -0.5170548 2.7026916 -1.1538197 0.99235547 0.37153772 1.8876746 -1.3298962 0.53552675 1.4742477 -0.38284543 -0.32269198 1.7298255 2.007877 2.0064826 -0.8272904 -1.4890012 0.5700684 -0.0105777765 1.3802042
card 0.14023677 -0.7031482 2.4838107 -0.44578716 -1.8519404 -1.1948444 -2.5401187 -0.09382128 0.07604825 0.9922141 -0.6374721 0.785404 -0.86491376 1.4187905 0.17869923 1.245775 1.3159575 -0.29297438 0.52281874 -1.0674182 1.3926723 -0.05009726 1.5733435 0.5985393 0.01731563 -0.1560832 0.49192172 -0.31685144 -0.34864244 -1.3614844 0.46180427 -2.1449096 0.089147985 -3.373304 -1.5928015 -1.0833211 -0.16494538 0.74565566 -1.0526514 -1.3638146 2.6302686 -1.1553551 0.600121 1.9349439 0.06411937 -1.1908957 -2.0768945 0.54130965 -0.8216685 1.504182 0.29038787 2.7108777 -0.19189459 2.1894307 -2.115348 2.4008744 0.18286996 1.8617035 -0.00087881106 2.5568347 0.19070531 1.2267814 -0.39240852 2.9834647 -1.6452827 2.682387 -0.6012899 -0.90076935 2.259028 -1.075854 -0.47163847 -0.02711206 0.5591555 -1.2778547 3.026902 1.6103393 0.47735316 -1.218607 -0.849635 -0.13399242 -1.4866755 2.5931623 2.5097835 0.08389399 -1.7874036 -0.9713449 -2.1360037 1.4541317 -1.141619 1.6278534 -0.27287608 -0.43699664 0.31456774 0.6870811 -1.5482577 3.019111 -0.683913 0.8248687 -0.3754344 2.4678762
decoration 1.09105 0.022965755 1.0141226 1.1356614 -3.0531762 1.7862494 0.34173384 1.0051994 -1.5927058 -2.5794566 1.6406033 1.7646108 -0.14919686 0.6896725 -1.8007586 2.622231 -0.15486783 1.5796641 1.3201063 0.07159835 -0.12277932 1.2405511 -3.1569703 1.314123 -1.3597201 2.2008557 -0.4764249 -1.3930501 1.3304839 -1.0185646 2.4120643 1.2324963 0.17262661 -0.4571508 0.14364617 -2.3479145 0.40150592 0.80149615 1.7414433 0.5650825 -0.6335923 -0.79943717 0.85192704 0.85069054 0.92522657 -1.8026397 -1.4081097 -0.66458124 1.6282635 1.726186 -0.21291836 2.9359949 -0.70444953 -1.1441737 -0.3593236 -0.92007524 -0.59754866 3.6424088 2.4538732 0.09491399 -0.583516 0.78983015 0.6906526 0.16624013 -0.7158512 2.806722 -1.3591279 0.24089919 -0.9470459 -1.5499882 -0.62770116 -0.33453438 -0.6440926 1.2443224 -0.075616814 -1.1100394 -0.93537194 2.5493865 -1.1347748 -0.47497636 -0.441949 1.7374035 0.3310943 1.019644 0.41631842 0.56294626 -0.81866944 0.22090489 0.64668554 1.4744891 0.088138305 -0.63187283 -0.40450823 0.31727004 1.7604626 0.2727742 -0.51133716 -2.5821493 0.6691597 -1.8870854
wooden -0.7323918 2.0110154 3.0382178 -1.5680081 -0.17374267 0.8091098 0.92648107 -1.1386738 -1.9620267 0.2383722 -1.9106988 0.07116959 0.121041894 0.022506285 -3.2605894 -0.75383437 0.6519377 3.2480116 1.4044163 -0.7834086 -2.9593592 0.7148578 -0.27433926 1.1861256 -1.4415119 -0.31823084 -2.5394313 -1.5497029 0.44353196 1.7228899 0.25419897 -1.5488482 0.17142905 -0.5522858 0.8279642 -1.0348891 2.6417117 0.9892641 0.29144633 -1.0139819 0.40288523 -0.47021103 3.7474575 0.21318994 1.3105583 -2.2162828 1.4018074 -0.78485394 1.7745844 0.30011788 -0.36672074 -1.0825939 -0.49781638 0.22636244 -2.3179827 -1.1206948 -1.9560091 -0.106608264 0.45049796 0.40648893 -0.1350173 -0.28704023 0.82891893 1.461937 -1.0940679 0.765339 2.250122 -1.0978876 -0.6825927 -0.3069373 -1.5943671 -0.58793086 -0.19253442 -3.0558677 0.37778136 0.4204303 -0.9028888 1.3436998 1.589282 0.16433361 0.3292369 0.24866721 -0.4673416 0.52269465 -0.8601093 -0.3668797 -1.1236393 2.21134 -1.2991315 0.06946634 0.7582563 0.6207651 2.649689 1.6968251 -1.2744843 -2.873905 0.41222897 -0.19390254 -1.916386 0.75578564
polkadot -0.9224904 -1.7866714 -1.4958928 0.6396686 1.2388576 1.8494419 0.096308485 1.1268953 -0.93670875 -1.3156533 -1.2107688 1.1918157 0.15479773 -0.8553055 0.30569494 -0.77265114 0.860732 0.28010577 1.6909853 -1.3546312 0.9902788 -0.17218535 1.8527102 -0.5864062 0.23496012 -0.62584776 -1.2624929 -0.4939931 0.60283494 1.0987025 -0.7844664 3.312624 -0.8239833 -0.5201345 -0.47700894 -0.79612035 -0.5353941 -1.5575798 1.2657157 1.9852988 0.5558839 -0.45170817 -0.54079974 -1.2457169 -0.3543214 -0.3876529 0.46825856 -1.4012456 0.6276943 -1.1974069 -1.3100941 1.03973 -0.33398888 0.7443947 0.05063373 -1.8484969 1.8719752 -2.4019074 0.8308985 -2.1093566 0.6339576 -1.4598774 -2.1110253 -3.032072 -0.077236995 -0.58691293 -0.5129252 1.0758678 -1.030248 -0.27172828 0.82834226 1.3427237 -0.6082887 -0.44739562 0.9154069 -3.6464002 0.9581814 1.1840993 1.2616631 0.6656341 -1.2672867 -0.7803259 1.5165697 1.4531606 0.9524071 0.32197285 -0.054126743 4.152255 -1.4419463 1.1539887 1.6702536 -0.4137025 -0.23124306 -1.9076995 -1.031404 0.50957966 -0.28891852 1.5365002 0.257506 -0.3865481
glass 2.035699 -0.5508136 -0.54216063 -0.85617256 1.4487469 1.0268393 -1.9331877 -0.83449525 1.3124758 -0.31580356 -0.016509414 -0.93042654 -0.30505487 -0.94598186 0.8867873 0.6943601 0.65952104 -1.2392617 0.50570107 0.60369706 0.3025738 1.3136435 -0.08537572 1.0914769 -1.632944 -1.4695796 -0.9273023 -1.0210793 0.34452477 -0.7535795 2.0393577 -2.5032308 -0.8728027 -0.6574239 -0.50912887 -3.0199826 -1.0706421 1.0205122 1.444176 0.102795854 -0.4194691 -0.114789456 -2.5387821 0.13386738 0.42391813 2.4057662 -1.246819 -1.5789106 0.67277443 0.8565878 -1.173227 -0.9177659 -0.7275734 -2.627803 0.15424733 0.34631467 0.39615434 -0.14950007 -0.7965631 2.7592752 0.35905614 -0.15079212 2.4616249 -0.3233448 0.6489567 1.8992047 -0.53862613 1.2505841 -0.13827178 -0.033308312 4.584369 2.20104 0.10739808 -1.075943 0.3618539 -1.8954704 0.29549974 -0.032815013 0.43026727 -2.8409028 -3.495552 0.14109804 3.3372424 1.755604 -0.31013697 -1.6249932 -0.9580014 -0.99067235 0.10598368 -0.9766798 -1.538862 1.1155797 0.8606373 -0.87620485 0.72311157 2.4212236 0.30736777 0.5978597 -4.1706815 0.6485267
cases -0.900563 -1.0578163 -0.38642195 1.6503658 -0.75405574 -0.5816504 2.020709 1.3486885 -1.2090974 0.4865052 0.21591997 0.008015385 0.49530587 1.4163724 -1.9569837 1.9786205 1.7917259 -0.16275796 0.9350339 1.1009283 1.1398243 0.9627111 1.0910226 -1.9492378 0.38407406 -3.4678802 1.2731152 -1.349084 0.5526237 -1.422879 1.9292964 -0.037584215 1.7099756 -1.807866 -0.80810195 -2.45318 1.4677565 -2.0970967 -0.6771687 -0.34970063 -0.80306333 1.1863825 1.2496852 -1.4215678 1.2158303 -0.8968293 -1.1975256 -0.10910947 -1.2882807 1.5167202 -0.4367911 -0.6158389 0.7986569 0.2548248 -1.9246724 -2.1209183 0.38497183 -0.34136894 0.196385 -1.0170418 2.4836173 -2.5252457 -0.95639783 2.2624755 -0.9034415 -0.2881282 -0.8862316 -2.9159198 0.2078458 0.7820234 1.4292705 -0.86948967 2.8903656 1.3826061 -1.1008228 -2.2460759 -2.657781 0.3176929 -2.0313156 -1.43309 0.8713246 -0.32178363 -0.4809862 -0.04622793 -1.5511597 -1.6350669 -0.74936545 -0.03684766 -0.037636258 1.1297656 -0.44634545 0.51247066 0.53099495 -0.70299315 0.46390224 -2.5859084 -0.45681098 -1.339393 0.13726051 0.09497521
tea -2.0948877 -0.43046543 1.5507208 -1.2077631 1.0651028 -2.2203257 0.5423411 0.83669215 -2.3339183 1.3726748 -0.8966403 1.8837527 2.3455865 0.18632847 0.9969197 -1.3932307 2.7626436 -1.6252385 0.30864665 -1.564052 0.7968047 -0.8357661 0.30949023 -0.18263078 0.92618185 1.104054 1.9295563 0.17066629 0.82936555 1.0389428 -4.886113 0.45915413 0.307567 0.04280204 2.5560002 -1.6480142 -0.9457953 -0.022979364 -0.7987372 1.920291 -2.5682645 -0.96088815 0.2282777 -0.5717529 -1.0588067 0.50144255 -0.07244832 0.3455065 -0.4740207 -1.3885658 1.0611995 -1.2821467 -0.79021996 1.299578 -0.1343684 -1.76999 2.0979345 -2.5647874 2.11267 -2.005097 -0.26061267 -1.378129 -1.5863185 4.42697 -1.069673 0.29154837 -0.38818538 -0.46671712 -1.3835249 -1.0487062 0.61258364 1.4710926 -1.4015818 -0.47651517 -1.1337912 0.36632144 0.22451776 1.1168597 -0.3871913 1.4416294 -1.5085884 0.35087955 -1.3948009 -0.17615668 -0.16756044 -1.0219283 -0.448903 2.127841 1.5605528 0.26819304 0.45039478 1.7760744 1.6878152 0.41579622 0.69781077 0.461357 0.5690617 -0.78286123 -0.80965847 0.8951502
bottle -0.3831679 0.38804606 -0.32029644 1.3156368 -1.066839 1.3174924 0.38661245 1.3064061 0.3952507 -2.4831324 -1.5830394 -0.51134247 -1.2448305 -2.6962817 -1.3883692 -2.0187047 -1.8859117 0.021040203 1.9052029 -0.8415925 0.3064295 -1.1526881 -0.4588711 1.6283196 1.041824 -0.4180051 0.10195011 -0.7037469 -0.92689174 -0.7658917 1.5801408 -0.6691734 2.314534 -1.7283418 -0.43953443 -2.4600818 1.7097673 0.5339786 -0.24246453 0.92717975 -1.6651891 -1.1406366 1.1935428 0.5163864 0.07218303 -0.73165804 2.2943432 1.610101 0.15401596 -0.1801332 -2.1294982 1.9237864 0.68301326 0.8163905 1.1629589 0.15349011 0.43570974 -1.0660034 0.30198634 0.8593584 -0.7722307 -0.13805984 -0.7044465 0.015242703 -2.211019 0.75398403 -1.2613056 -0.3981511 -1.4394745 -2.472748 -0.47229442 -0.18726848 2.4504256 0.37857458 3.8028784 1.4639679 0.13388854 1.2554567 0.6119715 1.252934 -0.08213419 -0.59500366 0.75714946 -0.6659155 1.055682 -1.726791 2.0708075 -0.9927699 1.8801794 0.7912828 -0.57616013 0.28165957 1.3427291 0.049248233 -0.48392344 0.6883942 -3.8270502 0.65028256 -0.9133251 0.6640439
and -1.8171327 -1.9825538 0.4960906 2.6991491 -0.14330201 1.0014575 -1.0539796 0.74741286 1.1974545 -2.5648394 -0.5651816 0.10954515 2.5327241 -0.100254476 -0.39673522 -0.8603312 -2.356419 1.2272768 1.3935962 1.1102144 -0.065527104 -0.7266322 0.9570581 -0.83272374 -1.6443746 0.033938218 0.6781246 1.822733 -0.85439825 1.6019363 1.1271472 2.0462353 -0.33662358 -2.063561 -2.362556 0.7808339 1.5434983 -3.1521788 -0.25222114 -1.9746011 -0.06847973 -1.2285333 1.3338306 0.25420755 2.7599976 1.9629064 -0.9892744 1.5696421 0.5118229 -1.7577791 0.088929385 0.84546715 1.008886 -0.52625024 0.84753454 1.9216899 -1.2521188 0.8003676 0.86075294 2.6184862 -2.4719656 -1.18105 1.2825235 -0.86933726 -0.13046165 -0.96060187 -2.5065603 1.4549428 -1.835149 0.6181373 4.080007 1.4726404 -2.2433267 1.4903096 2.3818994 -2.3133607 -2.1794379 1.1871167 1.8205012 2.4143844 0.91842496 0.8835073 1.3163533 -1.8905946 -1.564432 0.45067227 -0.69115853 0.7419502 -1.0517634 0.76739895 2.1767874 -0.32751742 -0.6470824 -0.82620746 0.1491904 -1.8671571 0.4281917 0.7997641 -1.3242154 -0.23001717
spaceboy -1.395695 0.35202926 -0.26601171 -0.6593944 1.2723769 0.6089817 2.7471054 -1.4057558 0.47204107 0.9417446 0.68086547 -0.6503163 1.4490051 1.3287781 2.9933116 0.59067756 1.982985 0.33858958 -0.46346888 -1.6157824 0.29534173 -0.38914105 1.7493392 -1.410533 0.6101776 -0.12380632 0.54367393 -1.3749641 -1.487137 1.3796623 -0.22780597 1.4370661 0.06800514 1.0148568 0.78117365 -0.44426963 -1.5003042 0.15802065 0.96337706 0.88812697 -1.389699 -0.33324662 0.01678691 -1.1805537 0.88483566 -1.1901064 2.075461 0.8201474 0.14360687 -0.48337758 -0.5321123 -1.7311754 0.811521 0.13513084 -0.8508128 -0.4667287 -0.55628353 -3.0461912 0.5500996 0.89182115 -0.37790182 -0.82714355 -0.7523931 0.00030517194 -1.8442556 -0.6104915 1.184292 -0.8974782 -2.4838662 2.2922425 1.8666966 1.0181696 -0.10280258 -0.11102011 -2.5098453 -0.21511123 0.709922 1.0923159 -0.7400979 -1.2067782 0.48581755 -2.4489677 -0.0362642 1.0608904 -0.7846119 2.6535814 0.13943855 0.760697 -0.0006130183 -0.67378104 -0.92275393 -1.0235544 0.84597015 -0.91022474 0.32115284 -1.1139164 2.4519305 1.0760658 -0.8443072 -2.580136
hot 1.006479 -1.9280766 -0.20307738 1.7460185 -0.75044614 -0.3772327 0.7204737 2.9681864 -0.6615617 -2.146573 -0.49414873 2.1943107 -2.649639 1.6535999 -3.4368746 -1.019453 -0.940624 -0.746123 0.6350584 0.94025457 -0.6046917 -0.08911624 -0.21548873 -0.09040018 -0.12086849 -1.2323194 1.5630811 -2.3087518 0.38548157 0.21752878 0.34609476 -2.3955886 1.0956514 -0.94358253 1.2806001 -0.45843437 -1.7781072 1.8220568 0.7694728 0.43155235 0.70239806 -0.8547833 -0.64603585 0.92323315 2.0726259 -2.0346482 -1.837242 -1.7574848 0.06599712 -0.9319503 -1.1107637 0.5628672 0.31558746 -1.3106382 0.48194867 1.4352146 -0.76949036 -0.50278103 0.62948024 -0.46204075 -1.3939976 -0.16211483 0.5851463 0.83146536 -0.46909443 0.28630906 -1.7128781 -0.46735087 -0.5499743 -0.011097742 0.8257196 1.171766 -2.7143686 -0.10899392 1.9079593 -0.73719215 -0.53620815 -0.69591767 0.7743889 -0.46457285 -0.8078354 -0.8838092 2.1044126 -1.996131 1.5767008 -0.6084544 -0.013412158 0.7107849 2.9608784 1.1072329 -1.0007684 -1.7295543 -0.4377874 -0.69587606 -1.6461806 1.6814494 -2.8290255 -0.18594658 1.2269506 0.9243452
water -0.32292 -3.0670495 -1.3594823 0.5745169 -1.8829893 -0.42888048 -2.746884 1.6237812 0.16965783 -2.6504815 -0.21640772 -0.44918662 0.9728779 2.2712734 -2.234244 -1.3897434 -1.7714332 1.4482255 -1.4628515 0.7013001 0.7471482 1.3735743 -0.5826852 0.9017776 -0.38314542 -2.0610442 1.5208637 -2.5245476 0.7035293 -1.5193025 -0.5988557 -1.364037 2.553367 -1.184682 -0.63645184 0.4045118 -1.2623354 -0.4314337 1.2132852 0.8075803 2.095951 -1.354997 2.689262 -1.902962 0.46012565 0.30397505 -0.12638943 0.011363092 -0.4264502 -0.18685411 -1.5163139 -0.36718166 1.1061776 0.26509517 1.6870351 -0.11522521 0.83292896 0.84013706 0.46818888 -2.399221 -0.07069572 -0.5175843 0.7416211 0.0022348003 -0.54632956 2.0148668 -1.2960155 1.0169936 -0.9037124 0.376247 0.7971242 0.25845456 1.9121943 0.63100517 1.7489127 1.0735439 -0.4012671 0.029381188 -1.4506658 1.7364562 -1.4163642 0.7780279 1.5653433 0.08047291 1.1638914 -1.002125 0.7546627 2.1051965 0.8212432 1.3331602 -0.80721426 -0.98110133 1.1998856 0.35895336 -2.270354 0.7123573 -3.915833 -0.007661317 -1.3210342 1.564749
with -0.38821343 -0.9350163 0.5798227 1.220989 -1.3513882 0.563906 0.45232832 0.43014795 0.0112633165 -3.2495828 2.2686214 3.2913098 -0.5427672 -0.7963248 -2.4907284 3.5258439 0.82163244 3.2079413 -1.744853 1.0676324 -1.0221896 0.9296581 1.1883849 -1.0582123 0.2688185 -0.6958385 -0.45336953 0.040339824 0.81811976 0.53921115 0.06020462 1.6203561 -0.2977567 -0.69222534 3.5419445 0.0124915615 -0.7344554 2.5039093 0.77908105 -0.24902731 0.97690153 0.7178228 -0.50310576 -0.62557137 0.39232147 0.26682553 0.8097985 0.2622182 3.603775 2.465453 0.49378306 -0.57422626 0.3004206 -3.202567 0.30354542 1.6816478 -2.381512 0.71367395 -0.99232394 -0.6317358 1.1404762 0.12118413 0.017852273 -0.1693157 -1.3801228 2.6064126 1.0179204 -3.180251 -1.9446789 -2.0430827 0.69277686 2.5318968 -0.098746955 -0.7960015 -1.5084931 -0.73284936 0.23684865 0.23899856 0.44296944 0.17470473 -1.1883495 1.0902501 -1.0202324 1.2423738 -0.0401405 2.6611874 -1.0040462 -0.4299924 2.5744557 2.9006507 1.049007 -1.6710992 2.6447232 2.3793302 -3.4128447 -1.0282673 1.697493 2.7275205 0.26227576 -2.3262424
large 0.07241063 2.5496154 -1.4955753 1.04117 -0.62528574 1.1112158 0.04068216 1.0300294 0.13384071 -1.126812 0.15774012 -1.5386114 1.2030054 0.5864597 -0.52989495 1.3689606 -0.8835484 1.81055 -0.62895346 0.79464966 -1.8497134 1.7923484 -2.374149 1.0760689 0.23913586 0.5024733 -1.656886 -1.684439 -0.21872814 -1.0287334 -0.03931394 2.2605536 1.1462287 -0.34959728 1.5359749 -0.78013253 0.9724527 1.0702461 -1.2272466 0.45811585 -0.18762946 1.0390116 -0.2275301 1.2422389 1.5011256 -2.846555 -0.31882697 0.854629 1.4331417 1.1547208 -0.87477285 1.1760335 -0.7339251 -1.0193791 0.032712672 -0.5849363 1.4892275 -0.13203672 -0.6071799 -0.30476105 0.6967683 -0.5595462 -0.41789174 0.25423652 2.2462645 1.5702397 -0.88761103 1.4326844 -2.4099793 -2.1533494 1.9744498 1.5567244 -0.9285356 2.4234626 -0.7782053 0.24730197 1.0787508 -0.107137114 -0.56175727 -0.33099732 -2.3520923 -0.50630456 2.7279434 -1.3694894 1.588856 0.54052716 1.9541781 0.31550166 -0.6211596 1.3191957 -1.9396152 -0.4936757 1.3577622 1.9260269 2.7803698 -1.0520301 0.011722866 0.9973141 -0.82873505 1.4338201
pantry -3.4807758 0.21664272 0.29296896 -2.1963882 0.9694187 0.22122812 2.9355216 1.3252465 -0.44580978 0.5064924 1.3564413 -1.7372727 0.20209251 -1.9099607 1.162037 0.4861765 1.9079332 0.9093806 -0.9186787 -0.5052337 -0.6688234 -0.7378715 0.6458373 -2.6560936 -1.5315778 1.7209511 1.2280629 -0.8926072 -1.5590543 -1.9309936 0.10749303 1.8423735 2.0474148 0.6776188 -1.6637654 -0.85937935 -3.3895752 -2.2992709 -1.7480012 -0.18029152 -1.2404734 -0.008015325 -1.5347623 -1.3787565 -0.11176953 -2.975356 2.7165074 1.8398902 -0.88162917 -2.1626818 -0.6550214 -1.7554961 2.647917 -1.026096 -2.0077288 -0.751553 -1.6055111 -2.8101246 -0.019117784 -0.46435386 -0.18834724 -1.8152468 1.0955328 1.3001856 -0.0055398983 -0.57919955 -0.04901285 -1.6034209 -2.6334121 1.152804 1.0186346 0.52080035 0.45860144 -0.84829736 -1.0953039 1.9374663 -0.4266287 0.26156676 -1.5715231 0.83720726 1.4958231 0.39587584 -0.8966524 1.0601726 -0.9160776 1.6737559 0.9819041 -0.7845099 -0.58227766 -1.7800233 -1.407785 -0.00949257 0.46476635 -0.57852477 1.0414331 -1.2367637 0.6549975 1.2115875 -1.4930422 -2.1237574
home -1.4823273 0.8998247 -1.0176119 0.17968711 0.15527523 1.8982025 -0.6241665 1.2006196 1.0106698 1.0335585 0.5809483 0.68438905 -0.6159631 -0.69024396 0.093028046 -0.17150858 -1.8581374 -0.04003256 0.8813403 -0.29521665 1.9979154 -0.8806157 -0.20868185 0.88314813 0.27463743 1.0449297 1.3862652 -0.92714214 0.6970023 2.1431062 2.0735617 1.064183 0.8013062 0.04670202 -0.2417307 2.0688572 -2.5102506 3.8126059 0.93423814 -1.0308326 -0.74914116 0.1224261 -1.0144272 -2.951106 -0.3213183 -0.71198136 -0.84838533 -1.349497 0.27879497 1.2260854 0.35111156 0.44694072 0.04418756 -0.9607553 -0.60231334 -0.5436742 -0.5997078 1.1812302 -0.49571076 0.73149866 1.3629847 0.028639285 0.6856084 -0.6745167 -2.1614318 -1.4951054 -0.22975807 1.4649763 -1.3958977 2.9083 -0.43386137 1.0375295 -2.162277 -0.674942 -1.2773067 -0.6224111 0.2496314 0.7474088 0.71177185 -0.062044803 -0.10387321 0.007123937 1.7197367 0.2995791 0.5411298 0.6589976 0.48098528 0.23464546 0.6430587 -0.31478393 0.79957765 -0.94017553 0.070536576 1.2394586 -1.6012745 0.41277057 2.4838998 -2.9967532 -2.2910097 0.11468011
tin 1.080738 1.3825815 -3.4882457 -0.8202863 -0.74739456 -0.8901005 -0.36179703 -1.4727073 -2.0746007 0.61143064 2.077935 -2.1510055 -0.80389506 0.0012628973 -0.08241122 0.100992635 2.8712313 -2.1869926 2.7747123 1.7110703 -0.60060143 0.28328305 0.28043783 -0.3187043 -3.1774576 -0.13368869 -2.056473 -0.20559762 2.7338521 -3.323209 0.38149464 -1.3628426 0.014909287 -2.5322056 -0.8140278 1.7203969 0.25631574 1.1069555 -1.2450712 -1.0277225 -0.93564063 1.7257774 0.50184906 1.611848 0.22517571 0.110875055 -0.99833184 -0.40387002 1.1575807 2.1861267 0.68045175 0.23932183 0.26963127 1.981486 0.31461897 -1.3432285 0.31775576 -2.4613423 -1.6105108 -0.31397793 -0.50431544 0.5889311 -1.0355998 1.1812655 0.13041842 -0.5064594 -1.0580019 0.020852884 2.849541 -0.9181264 2.329036 -0.5807724 3.7477205 1.6695112 -2.299379 -0.3448829 -1.4337399 0.7480864 -1.9774354 -2.0902205 0.46633312 -0.65817034 -0.7489491 0.21143565 2.388753 -1.5560253 -0.021760654 0.99704564 -1.8014632 0.2496569 -0.24662521 0.14219286 -2.840995 0.7076959 1.255179 2.8573754 -3.3579824 -1.0722764 1.4891673 1.2227365
rose 0.94405234 1.4482052 -0.72036195 -2.4300194 1.0799952 -0.6360535 1.17195 -1.1021513 1.2147129 -0.5950383 -1.9445283 -0.6637801 1.2920965 -1.6269993 1.6866187 0.18220122 0.8342461 0.15285638 2.3370407 2.4779675 -0.39815807 2.8433423 -0.51456374 1.1255369 2.3805315 0.46198058 1.3372968 -0.5333986 1.3792051 -0.48600328 2.2930992 -0.3182184 -0.27633783 -1.2410892 1.426874 -0.23327395 0.7094437 0.65199876 0.6173534 1.1769351 -0.5466448 1.5422317 -1.4145777 -3.1385572 -1.2353827 -2.0309558 -0.8702156 0.0021398286 -0.5549255 0.021562638 0.5745497 -2.1878278 -0.48909873 0.48098284 0.01829668 -2.1152742 0.23538019 -0.527179 -1.0669042 -1.6236583 -0.94876593 -0.24860144 -1.0472178 -3.2216024 -0.28633308 -0.14396219 -3.0750163 1.6244162 0.44386843 -0.36647594 0.42345256 1.4057499 -0.9048175 0.22253104 -1.8718446 -1.663141 -0.4626308 0.2729183 3.1602201 -0.679782 -2.154272 -1.5973258 -1.3299001 1.5176587 0.97881913 -0.75661814 0.0070485915 3.1752841 -1.8165969 -1.7681687 1.5294052 -1.5286305 3.397986 -1.5032101 0.18508364 -0.9537503 0.10543256 -2.2541728 -0.62265927 -0.75399995
paisley -2.8019876 1.4766924 -0.7191061 0.63685024 1.298844 0.055242494 2.4172285 -0.20179217 0.4014876 0.40132183 -1.5308456 -2.895265 1.6793609 -0.10481784 1.4796716 -0.39850196 2.4742992 -0.4842809 -0.19686179 0.41119736 1.370692 -1.0882673 -1.2705146 -2.1502934 2.385751 -2.099565 1.2258472 -0.37309876 -1.5226889 1.5640804 -2.5143766 3.656269 0.029583968 -0.091511175 0.013897415 2.1952593 2.0755482 -0.5646892 -0.11544396 -0.54832184 -1.8041288 -1.1457556 0.22612754 1.42984 -2.3648934 1.7466289 1.0141131 0.9059038 2.529436 -1.7072277 1.1336825 -0.21976528 -0.87419575 -0.73659503 -0.4046846 -1.9812938 2.2569013 -0.9802385 -2.6877894 0.013159539 -0.5636171 -0.96739894 0.9711008 0.62910193 0.36396116 -2.83803 -1.1271976 1.1627458 -1.1963401 -1.2599298 1.8114295 0.62252253 0.26160553 -0.6507872 -0.4322402 -1.6119634 0.73089 1.0627261 -0.44515297 -0.028416473 -0.09236832 -1.5519642 1.2244054 -2.6098197 1.4993402 0.023809856 -0.39118904 2.207256 -1.6816584 0.8485597 0.4897235 1.1904774 -0.5920587 -2.2733533 -2.9034064 -0.32505554 -0.291887 0.2057307 0.027131623 0.26642844
ceramic -1.4546252 1.2163751 -0.9856603 -1.4065478 2.0928648 2.2531214 1.1165192 0.430832 0.9332837 0.21609177 0.4886656 -0.88715947 -0.78503346 0.16358875 -1.4500226 0.049248252 0.6814013 -0.2701958 0.93218005 1.0832622 0.08695189 -1.6880908 -1.7637573 0.93028694 -0.37549493 -1.8305337 0.47376922 -2.1592526 1.6717749 -3.493597 1.9944057 0.81755435 1.0175418 1.5105275 1.0697657 -2.0367634 -0.13850147 -0.12253071 2.4512916 -1.3744543 0.59485596 1.0936996 0.07660935 -3.4247952 1.0084891 -2.9916832 1.579083 1.8956374 -0.7000526 4.229043 -1.5202243 0.32311398 2.689781 -1.3867619 -1.2341808 0.97535956 -1.8623756 0.019023577 2.9561272 2.717471 -0.7659212 0.42875826 1.1543096 -0.53682584 -1.1256812 -0.5355173 -1.6144089 -1.5600674 -1.649362 -0.7536348 1.6677907 1.364698 -1.0815821 -0.28051168 -1.3059449 1.4084255 -0.17660528 0.13344671 -0.3166985 -2.5378747 0.214267 0.16614634 -0.7972143 -0.040329676 -2.5426328 -3.0816047 -0.18252914 -1.0951488 -0.7358603 -0.90162456 -0.87100226 -0.27115843 -1.154768 1.5413921 -1.5068508 -2.0824082 -3.4538279 1.0400724 -2.9107423 -0.12705544
regency -1.8470764 -1.65184 -2.1821406 1.3081665 1.0268253 -0.43064365 -0.3385786 -0.11083335 -0.37040567 -1.0187491 1.5917943 -0.33496654 0.7717022 -1.9308845 -0.84432006 1.3299047 2.2514877 0.042936716 1.2113647 -2.3098552 0.832642 -1.080058 -0.8068467 -1.6329509 -1.6867658 0.27620348 -0.42240614 0.7785562 0.38193744 -2.8628187 -1.1830528 2.3247595 0.41532338 -1.386074 -0.9305038 -1.128239 -0.4927332 -4.4262996 -0.1790143 -0.32554588 -0.8892223 -0.12582357 -1.0975696 -0.28399578 0.43641928 -1.743233 1.581675 0.7106137 -0.8980412 -3.1313376 0.3688292 2.036675 2.092675 0.12403144 -1.2753986 0.9967798 -0.049718186 -2.2581134 -0.65239424 0.38858008 0.13606395 -1.2092698 0.13321653 -0.16991642 -2.2710056 0.49457932 0.24067351 -0.15232153 -0.3201003 -0.5754217 2.9868667 0.03357283 0.5756913 0.38139084 -1.1005512 -3.4768088 0.116514765 -1.2607667 -0.68978244 -0.5637948 0.30473533 2.1780572 0.19624326 0.75514835 -0.96400607 -0.42465016 -0.36542314 0.71932256 -0.5434179 1.0753318 0.9068896 -0.24138886 -0.6454298 0.8573341 1.9737741 -0.41600958 -2.8804047 1.8522187 0.44824296 0.31318665
green 3.0772443 1.8430102 3.505311 0.18296222 0.5750023 -0.2101087 1.0782924 -1.8613064 -0.840289 -0.40710777 0.26145434 1.61691 1.9401414 0.7847726 -0.5401141 1.7285525 0.9936498 0.45883563 0.2976404 -1.7845285 -1.7604247 -0.3446455 -0.56634384 0.05366225 0.8712733 1.6102748 1.1890402 0.22289278 0.19886358 2.0068934 -0.9990245 -0.25923344 -1.6578918 1.0418774 -1.5022787 2.1743903 -0.8938494 2.274417 1.7438977 -3.1787722 -0.6540874 1.5173823 1.3339474 0.0059532714 2.0477397 -0.7827572 -1.0844214 -0.089067824 1.1870258 0.7950776 -1.0988867 -0.89244497 -0.78327715 -3.4462965 0.8220101 1.6273329 0.26251018 -0.19735263 -0.24886444 4.4798512 -0.43477464 -0.17089026 -0.05886401 0.7989527 -0.35609162 0.9366512 -0.61552495 1.4658295 1.8758153 -0.98788625 -1.1595855 0.386602 1.0444272 -1.0219822 -1.4216981 0.8144929 0.07002046 -2.6665382 -3.2674892 -1.9979985 0.40883616 0.36259833 0.44549927 -0.4704059 -2.3210015 -0.8217617 1.6461331 1.1004277 1.5983711 -1.8862131 -0.2102766 -0.59976083 -0.07793851 2.0614882 0.17612056 0.5381118 -1.3107454 0.36184555 -0.20887007 -1.7977312
dolly -0.72448725 1.0229712 -0.34608033 -2.3454442 1.6724889 0.2372921 1.4548306 -0.8718571 1.633402 2.402233 -0.06791791 0.9935733 2.01963 1.1469123 4.0384817 0.84045345 2.1508024 0.39842376 -0.0338086 -0.93861824 0.22292748 -0.64995533 2.5674646 -0.38243937 -0.18725955 -1.2346488 -0.11747112 0.39715996 -0.93333036 2.0076656 -0.11560642 0.76937556 0.26176438 0.24104775 0.6889284 0.6120916 0.037034303 1.2977787 0.7680566 2.3918386 -1.9465041 1.2209336 0.4431062 -0.64416754 -0.18535846 -0.25659138 0.77842987 1.958561 0.045701127 -0.37402156 -0.3928007 -2.3545692 -0.67610115 -1.9873914 -0.06367168 -0.29966772 0.29930526 -2.4823914 -0.420483 -0.3206311 -1.0244206 -2.3329258 -1.0677998 1.411826 -2.3994179 -0.54353255 1.0347848 -1.4434925 -1.8616701 2.8106985 1.8835957 0.87017834 0.18378414 -0.25091743 -2.0301814 -0.7893263 0.4744613 -0.41962928 -0.20013171 -0.24490745 0.4743758 -2.5699513 -1.4264115 1.435375 0.6896021 1.3081689 -1.1972507 0.5239185 0.27570418 -1.4731008 -0.15764396 -0.44341934 -1.0525388 -1.3199368 -0.8387689 -2.393852 1.8642228 1.3088462 -2.3810978 -3.7752264
doormat -1.4022509 0.19211628 -0.19443491 -0.6953046 1.1426753 1.010116 -1.9677355 1.5518476 -0.3728791 1.7489338 0.8241856 -0.8997631 0.3502621 1.4386777 -1.8871436 0.437151 0.4533717 -0.72813964 1.0263095 0.9747853 0.864342 -0.53845614 -0.4883772 -0.3928859 0.4986414 -2.7277489 -0.3846752 -1.008681 2.7155688 -1.2560394 0.8568277 -1.1856992 1.811227 -2.2417703 0.77073354 -0.28513426 -0.343765 0.2859795 0.8633076 -1.6607748 -0.5088758 -1.3083024 -0.1939023 -1.0776806 -0.8125395 -0.3246636 -1.1997976 1.0469726 0.8178444 2.092327 1.4767474 1.0268893 -0.5628829 0.7761822 -0.3948335 0.120210685 0.08675617 -0.6963804 -1.8028659 0.5248937 0.42557475 1.6961503 -2.3808377 1.8358735 -0.27664164 0.7714445 0.03444607 -0.13318507 1.0318241 -0.145152 1.3428547 -1.1257674 2.5694537 -0.1231992 -0.10883816 -0.8731051 -0.8675369 1.5539626 -0.00019737892 0.7148659 -0.31909817 0.06791084 -1.1119626 -2.3890295 -0.6567412 -2.4189117 -1.2193491 -0.65598243 1.672723 0.85221124 -1.4994428 -1.8023533 -1.8621658 0.57547075 0.173968 2.024154 -3.29286 -0.42189863 0.30347067 2.4359763
mug 2.734986 -0.967653 2.3516986 -1.3378145 0.054868594 2.0553188 0.78371906 0.82107615 1.3765383 0.50693345 0.42462403 -1.8897913 0.12290052 -1.2787033 -0.052884158 -0.890057 1.5759615 0.2225318 -1.0130752 -0.27282986 -2.163948 1.3006914 1.5064708 -0.4611793 -0.6914107 -3.01358 1.0737525 0.16887984 0.056210607 -1.7916148 -3.6998606 -1.2811227 3.6684783 -2.3349533 -0.8169586 -1.968125 -1.4645889 0.2695987 -1.1548638 -1.9448053 0.9752341 0.9974611 -0.6151123 0.4888376 0.67194635 -0.67273486 -2.2729363 2.9441001 0.30263534 -0.806332 -0.60041034 -1.4597738 -0.86368334 0.8370853 1.5877409 -1.0687892 1.6726736 -0.15901402 0.1693402 1.9893292 -1.8553306 1.8346119 -1.3285198 0.8472504 0.94237745 -0.21068923 0.5552577 -2.5253086 1.2906274 0.11677362 -0.79307836 1.0063157 3.2968576 -1.3855993 2.2928855 0.6537856 0.20081274 -0.0357446 1.544683 -0.04965808 0.7985495 0.80589306 -0.10686882 -0.3194206 1.4018905 -0.09710821 -0.6932868 0.2950496 -0.711224 0.5172081 -0.71932185 0.5976293 -2.6461947 0.3223472 0.08591957 1.0842906 -3.5623333 -0.6391352 1.5957884 -1.1300876
ivory 1.7823558 0.24462324 2.5735354 0.84462786 0.99288756 1.5216856 2.732756 -3.3229558 -0.8474778 0.45606914 -1.9152161 1.7836679 0.5783663 0.62363803 1.5001702 1.9690279 -2.174946 -0.15513122 0.73222965 -1.0555811 0.88839674 -1.5164092 0.9554223 -0.46245885 0.6094216 1.0621524 -1.1978792 0.3843112 -2.305247 1.1298993 0.7136438 0.17186382 0.23296764 -0.32453042 -0.78185517 1.2870984 0.995016 3.2069657 0.14596444 0.19268268 0.05952948 -0.33847567 -0.10385217 -2.4118378 0.15957972 0.078662306 -1.1531543 0.33810386 -0.3590075 -0.4871023 -0.45961526 -1.0137604 -1.2890167 -1.9584295 0.37921214 0.024430593 -0.48651257 0.65546995 -0.4396932 3.3257184 0.58816785 -3.0204725 2.5556123 0.96934146 0.09003927 2.9696553 -0.14350449 1.6198493 -0.7186185 -0.7222842 -2.3506696 -1.1209553 -1.9911063 0.8652312 0.1810878 1.0422001 -1.403702 -1.1551594 -2.5437438 -1.4995673 -0.8156684 -0.370137 0.1892651 2.6251578 -1.4986703 1.106321 3.5033958 -0.5690989 0.72016406 -1.4922297 0.28482664 0.8876595 1.0597787 1.2376394 0.13838434 -0.122443974 -3.5025334 -1.1863406 0.51854515 1.0705807
mini 0.22143735 -0.4382524 1.3908716 1.9226015 -0.07006397 -1.1050524 2.6311033 0.77134085 1.1175944 0.2981648 -0.018761221 -1.4634172 -1.0142598 2.463505 0.67432296 1.3101114 -0.15375003 -1.4244922 0.69971526 1.4798534 0.35511297 1.9118763 -0.32757765 0.91218275 -1.9934937 -0.39280945 -1.4184757 -2.8768325 0.92105925 -1.5321692 0.09552128 0.88195544 0.86053044 1.9761544 -1.9002502 0.8774453 -0.7824434 0.89450735 -0.9938149 -0.12353871 -0.78317076 2.2851794 0.32431403 -2.4871302 0.041818183 0.019974915 -0.019068098 0.09436879 -0.16608195 -0.67329913 0.18326457 0.4865495 -1.9823118 -0.5518528 -0.4603657 -0.86195415 -0.9469291 0.008533828 1.6782639 1.5256966 1.0451603 0.17967701 4.695934 -1.448914 -0.99867487 0.48934504 1.3276986 1.2861022 0.6624318 -2.1478806 0.53881425 0.92776346 -0.993423 -1.3628843 -1.5779985 4.5378747 -0.3672518 0.45893 1.9856386 -2.177763 0.8319974 1.7831984 -0.78387 -0.2748565 2.3167486 -2.4620595 -0.052523088 -0.7766021 -1.9216344 3.2078235 1.6357485 1.4445188 -1.817718 1.1027806 -0.9225817 0.106405966 0.103080176 1.5309218 -1.116626 -0.5051331
cream 1.4320207 1.2328075 -1.9157346 1.2800726 -0.2965628 0.3201279 1.1607261 0.68282783 -1.0292804 3.1184137 3.1264384 0.59185195 0.66967326 0.6706059 -0.21859469 2.0430555 0.27471906 -0.82840765 -0.05017763 0.44074652 -1.3210196 0.23824067 -1.7084252 -1.4460845 -0.70839596 -1.2868941 0.5193863 0.14641832 1.5291334 -0.40068135 0.893277 -0.9558217 1.3159608 -2.1116023 -0.72396237 1.0149778 -0.3258553 0.92853427 0.8511973 -1.3962462 0.92447096 2.4882207 1.4223119 -0.5904139 -0.316361 0.35547715 -1.0867195 3.777661 0.55879265 -0.57212543 1.7447547 -0.57597506 0.6469245 -0.62217295 3.244169 -1.572462 -0.25089997 -0.3040723 -0.61571354 3.4031134 0.02343657 0.3063199 -0.7783124 -1.5636765 -2.5883188 0.3959255 -0.019692026 1.7829494 -1.0510942 -4.8796587 0.651089 0.37353843 0.35653874 -0.95150805 -2.907326 -2.009362 -1.3427582 -1.6979809 -4.4177704 1.2113233 -0.9065294 -0.54097885 0.032961782 -0.43636018 -0.8691645 0.2443532 2.2353022 -0.27753878 -0.15973674 1.2609855 0.6418458 -1.6684858 2.7037444 2.7885695 1.6583027 -0.23309472 -0.30461618 0.9577555 1.2569276 0.9891841
bunting 1.7099153 0.17578836 -0.33026546 -0.44784617 -1.1350435 0.59027034 -2.0402253 1.4787225 -0.36903012 -0.7742912 -0.89600134 -0.08732361 0.50544584 1.1004916 -0.39670172 -0.08354501 -1.3216584 -1.1951455 -1.2184353 0.604254 1.5818452 -0.27982044 -0.26387918 -0.79995024 -1.142034 -2.6122625 0.23161837 -1.068735 2.5846288 0.98559374 -2.1788504 1.036675 -0.25758657 -1.9488562 0.15690808 1.5668668 -0.45321977 -0.034574416 -0.16794538 0.30244797 0.25120595 -0.49499866 -0.74002093 2.1062925 -0.69145787 -1.5024558 0.36209404 0.13113156 2.1606755 0.053983685 0.8204608 -2.0337262 -1.5756041 1.0898528 -1.365723 -0.36286032 1.4890649 0.79204917 0.21304257 -1.4274795 -0.44470096 1.2604051 0.6809426 -0.34411466 0.2251811 0.5749928 -2.2265043 -0.31292558 0.63781184 -1.0794905 0.56356156 -1.3400989 1.3327136 -0.33056778 0.18168189 -0.45475683 0.1412497 0.68728364 2.120504 0.65567935 -0.8158784 -0.39958647 -0.65009 -0.3685705 0.58614445 -2.3108685 -2.807901 0.15204103 0.09771713 -0.13215296 -0.86690676 1.4097319 0.1718296 -0.9208796 -1.7056731 -0.38913453 -1.8929465 -0.86120653 -0.41623434 0.39112493
love 0.19471511 -1.1682587 -2.1859171 1.5162845 -0.7565817 3.280974 3.6739051 -0.3248608 1.9490082 -0.23878045 -1.7059615 0.35673636 0.85119104 -0.2666032 -1.0137206 0.01750838 0.23724839 0.55809265 1.6571019 -2.1796365 0.6729404 1.3662033 0.95484924 1.1892827 2.5362804 1.5903994 -1.0586895 -1.0619695 -1.5742631 -2.4691145 1.7184372 -0.85841966 0.9296394 -0.548651 -1.3134177 -1.2847115 -1.1880668 1.3334091 1.9910374 -0.21491136 -0.6823126 0.7082526 1.2153168 -1.85085 0.34306288 -0.9213949 -0.6208004 0.63171154 -0.4813948 -2.1692362 0.9444564 -1.4025166 -0.6612116 -2.4638274 0.8105014 -1.5043172 -1.1325643 -1.9513196 1.142088 1.1998854 0.10281912 -1.0207766 0.6759364 0.9293003 -3.0531826 0.9298364 0.026922809 2.4964635 -0.8966855 1.3548661 -1.7341796 1.2324898 -2.5843623 -0.93069804 -0.59215283 -0.7761514 1.1778743 -1.1550224 1.9794835 -0.9523283 -0.7831955 0.24439523 1.5718153 -0.9683571 -1.0225112 -0.60562575 -0.3474345 0.39758673 -3.0429204 0.45229834 0.2069862 -1.9310523 2.4603183 1.7024412 0.88105315 -2.0509584 2.4571698 0.78434986 -2.9662578 -0.51549274
girl -2.9047005 -1.0394876 1.3715754 0.32327557 1.9629275 1.3836309 2.981323 -1.6925845 -0.0717124 0.09525665 -0.002245902 -1.7217368 0.86831796 1.6265256 3.4544396 0.805361 0.0985564 0.5245204 -0.8240472 -0.26533625 -0.6347207 0.13219985 0.55837995 -2.1660206 1.278156 0.1558542 -0.688536 -0.31509262 -0.11246456 1.2492288 0.5272877 1.7341319 0.42869818 1.5717913 0.15304013 0.68342113 -2.04768 -0.6178619 2.7662053 -0.30626738 -0.30252948 -0.101324305 -0.10228124 -0.35919625 0.5157091 -1.0801315 0.91902924 1.1046134 0.39459988 -1.0921748 -0.33563069 -0.66182995 0.8151378 1.3524876 -1.2155052 0.35157102 -0.81518686 -4.9409943 1.2903196 1.6961522 -0.013760221 0.06509091 -2.129109 -1.4648429 -2.1357253 -0.5165823 0.8420003 -0.66414356 -3.5020835 1.8372006 1.5123034 -0.25352064 0.62114644 0.6273837 -1.3563702 -1.1298882 1.3651056 0.9847213 0.8461267 -1.0075542 0.91849786 -1.6547984 0.5290656 1.5310566 -0.65409666 2.7872725 -0.13902007 0.3817371 -0.18143906 -1.8934568 -0.9523052 -1.8981149 1.7963654 0.84647423 -1.307419 0.46628815 2.059784 1.2307947 0.54174185 -1.2182194
assorted 1.0182272 1.2597808 0.44102526 -2.6778266 -1.3530542 0.8096903 1.9527196 0.5231082 1.2395604 0.10501583 -0.47974774 1.1772645 1.9315376 0.41182098 0.47674388 0.98788255 3.8126755 0.34728342 0.09034873 0.70585024 0.33285475 -1.4235991 0.5734031 3.2347882 -1.6462731 -0.8930093 3.3738225 -2.066211 -0.4801843 1.9324393 -0.6913742 -0.86513287 -0.530473 -0.52158415 -0.65867555 2.0618172 -2.0791261 0.7925416 1.1541369 -0.38362885 0.1929739 -0.44835305 -1.0301378 0.2699449 0.18949406 0.12391401 -0.43297794 -2.2588274 0.6559808 1.493035 -0.7819764 -2.9543881 -2.5167193 -1.4009672 -1.4476999 1.0663745 -0.7611949 -1.5405395 1.1250136 0.7886639 0.32949346 -0.66152465 -0.9722135 -0.36265853 1.944425 2.0014226 -3.4821415 -1.0123786 -0.02439927 -0.2272932 1.0204039 0.15192696 -0.6570393 -0.9205823 0.120803915 -2.7919776 3.4506624 -1.6201463 -2.5691597 -0.20801412 0.6120562 -1.2962162 -1.6906992 0.14179203 -1.8026268 0.80968106 1.0281106 -0.33639634 -0.34947005 -1.5374889 3.1631618 0.104809865 0.85435605 0.16487864 1.3719426 -1.5120816 2.3882902 -0.6153275 0.06472559 -0.057329345
party -1.4569758 1.5674012 -0.983483 1.6624156 0.3330847 -0.3356419 -0.18539926 1.0573132 -0.61819094 -0.21807683 0.018900787 -0.75713766 1.683244 0.5297657 0.87241524 -1.9313589 -1.9269216 0.8489166 0.8179825 1.1261842 0.19044086 0.56682754 0.6682607 -1.4465705 -1.7218429 -1.3482068 0.09653368 -2.9274945 0.63155085 0.46327555 -3.194035 0.42474377 0.33045143 -0.17356247 0.8641305 -0.9898271 0.52663153 -1.1051637 0.31901112 2.2678661 0.82405347 -0.31682634 1.281523 -0.7337774 -1.2456484 -1.5489107 0.07916107 -1.4799062 0.6121215 -2.2327514 -0.11031879 0.71401805 1.133419 -1.3039443 0.064695954 -1.2675413 0.3216306 0.89863104 -0.4500416 0.8191892 -1.0934827 0.29860592 -0.29929447 -0.48916242 1.4333527 0.8023479 -1.0433601 -0.35917434 -0.93953323 -1.4650643 1.7211386 0.2142401 0.101136185 -0.6928828 2.6267033 -1.0420471 -2.2617285 0.8133551 -0.566567 -2.9021242 -2.524458 1.447898 -0.85640043 -2.292184 -0.8555211 -2.9016192 -0.86338264 1.4816437 1.1468292 -0.5196139 0.31192845 -1.1733431 -2.7387147 -1.472725 -0.106100686 -1.1008532 0.09312329 0.18591434 -0.9974019 -2.3225474
clock 2.3577275 -0.6186735 -2.2689264 -0.34823114 -1.7106723 0.103622034 0.7250942 3.1293895 2.0336812 -1.5680302 -1.2900192 -1.994553 -0.120174296 -1.5735837 0.2273448 -0.29590067 1.1384488 0.8460188 1.4501411 1.0694768 1.5211287 0.64394027 -2.6573431 0.95427215 -1.5144875 0.91621774 0.3205004 -0.5340153 0.9428706 -1.34426 2.413437 -0.6729992 -0.7416099 -0.4123641 1.9914248 -0.8656341 -1.0064354 -0.98273593 -0.17452699 2.1372583 -1.0665919 -0.13317008 -0.009687471 -1.7537619 1.9564707 -0.1008238 -4.021927 -2.069967 -0.51555395 -1.4419718 2.1260808 0.8563519 1.9649704 1.8331307 0.49895394 -1.6743203 0.69309944 -0.27960455 -0.35789725 -1.4921443 0.6714312 0.85213727 -0.2562852 -0.2590003 1.1069057 -0.7463141 -1.1274796 -0.20399286 -0.8086955 -1.3732618 0.34459567 -0.07832008 -0.85708934 -0.66525537 0.81259185 -0.4579981 0.77108866 1.15769 -0.17446071 1.6604153 -0.37859982 0.4908025 1.3194685 0.43220082 -0.40898862 -1.2323947 -2.0779028 -0.17299704 -1.3631731 0.43836564 1.550819 0.24820803 -1.2104204 -1.8961704 0.4205104 -0.9403499 -2.3252041 -0.5452747 0.14767684 1.4792688
feltcraft -1.789557 0.1462972 0.12010443 -1.7665331 0.38445017 0.7003809 -2.963696 -0.11872235 -1.4649149 -0.71059626 0.023790048 0.23569696 0.76268744 1.758053 -0.89234346 -2.9074373 0.24717538 -0.11631099 0.69424945 1.0543346 -0.94450974 -1.7593384 -1.1193464 0.637415 -0.79762435 -3.9522178 -0.57896507 0.21502794 1.5981284 -0.08115744 0.4821981 -0.31904212 -1.5266088 -0.2848666 1.4019202 -0.5002523 1.6575289 -1.9971535 1.7033899 2.740695 -0.46613213 -0.6923433 0.59278506 3.0069666 -1.7014626 -0.58687866 -0.9966745 0.6261834 -0.1273214 0.509834 -0.7242373 -2.0871818 1.721432 -0.6566561 0.7681568 0.8526626 0.2728681 -0.45617795 -0.82094276 -2.622487 -0.29992214 0.2580023 -1.9861642 -0.44693917 -0.45568377 2.0580163 -0.80456686 3.7065787 -0.7753959 0.3983049 1.1149083 1.5536524 2.1282444 -3.166756 2.1973252 -0.512952 3.356713 0.14747004 0.30889586 0.24835992 -0.835059 -2.199909 -0.3960133 0.07155658 0.3497702 -1.0923975 -2.3446355 1.2328744 1.0761068 0.788544 -0.087688975 -1.6738445 -2.750796 -1.4334455 0.76604635 0.6046891 0.82337654 0.77641684 0.8239596 0.46052536
black -0.90722096 -0.8016281 -2.1616442 1.6827646 0.7180474 0.06645542 1.9491115 -1.2495741 -0.30859435 -1.3007915 -0.7878841 1.4154702 -0.20686577 0.5411455 2.119296 -1.0812654 0.41110164 2.490586 -1.3534689 -2.6803274 -2.8192544 -1.4611475 1.993425 -0.3087127 1.5027997 0.5828331 0.48411474 -0.33705133 -1.3756378 1.6675224 -0.39255282 0.10137008 0.40750358 -0.97809815 0.16976433 -1.0048316 1.0079387 2.123132 2.1763244 0.5922525 -0.15723826 -0.26064432 1.4042768 0.9164198 1.1206733 -1.353389 0.96281534 0.60964984 0.036025856 1.0499134 0.10135783 0.86247534 0.85803616 -0.7635699 0.87585986 1.5819606 -1.5201885 -0.82105386 -3.50663 1.3237287 -1.8022277 -0.34151685 1.00058 0.03702407 -1.4019072 0.52233887 -1.2828559 0.0795999 0.08629783 -2.248106 -0.6921581 0.8728936 0.38456658 0.6634738 0.7769046 -0.92932063 -1.0379288 -0.71522427 -0.47082514 -0.6741837 1.1417892 -3.7463043 0.8038831 2.9289734 0.27625757 1.7059002 1.5465916 -1.6902633 1.2392865 0.21299772 -0.0038568866 0.8245998 0.28063497 1.9489615 1.5126923 0.5310107 0.15382695 2.3707986 -2.6054132 -0.11561341
wicker 0.8908958 -1.135891 -0.6565465 1.5402564 -0.85642123 2.1595833 1.0337367 -0.028265553 -0.62676215 -0.34521312 -2.6054044 -1.552081 -1.8236032 -1.094709 0.12749803 -1.1078241 -1.4325943 -0.50164694 -0.42895842 -1.7974342 -0.44875458 -1.2517841 -1.3067428 0.40356952 -1.6734717 -0.42900306 0.2860525 -2.2719922 -1.7228076 -2.6658633 0.819628 -1.0825152 -0.94789547 0.35303703 0.5478847 -1.058072 -1.1312891 1.9813116 0.1308127 -0.3138619 2.3933933 -0.07506692 0.42353782 0.99563193 0.74517304 -1.6418725 0.3713012 -0.31210354 -1.8703898 3.33169 -1.3772995 0.98671544 1.2073661 -1.6314942 1.3753024 0.13365123 -0.80157936 2.2123628 -0.8176894 -0.20720384 -0.5586682 0.79463285 1.3419402 -2.230323 -0.8462895 -1.1575719 1.1428889 -0.081914656 0.12921378 1.1320963 -1.3530945 0.369794 -0.69663143 -0.14057651 0.33164814 -0.9294276 -1.582425 -2.068149 2.0400376 -1.5016356 0.54041094 0.17901435 0.8602165 2.5743644 0.6541247 1.026061 -1.7423648 1.7753986 -1.2537446 -0.42240202 0.007542733 -0.84471667 2.0248034 2.7670245 -1.012819 -1.3350873 -1.2287357 -2.6782367 -0.75415707 -0.49403998
bowl 1.9055916 -2.4191597 0.5184191 2.4193282 -0.5958673 -0.6294833 -0.33724406 -0.4615791 0.854034 2.9228215 -0.4718798 -1.6499574 0.29231372 -1.601643 -0.13393678 1.289063 1.733833 0.9478947 1.5868999 -0.48896104 -0.26159027 -0.5968896 0.15223132 0.5603793 -2.779005 -0.73485816 2.1708913 1.8626504 -1.4901813 -1.6345167 -0.39410228 0.33924198 0.72773045 0.01927526 0.78762114 1.0405909 1.7890357 -0.9865371 -0.9816622 0.83749074 0.97103775 1.9226046 -0.4587952 -1.7388415 0.046513434 0.94399285 -4.735789 0.006547825 1.4306184 -0.039692976 -0.9123675 1.1015792 -0.20049043 -0.3935483 2.7351916 -1.1899962 2.3204036 -0.08417589 -0.20478657 2.3607557 -1.6832415 1.3625231 0.5930714 1.8926678 0.8040947 0.6585399 -2.0714235 -2.275002 -0.12426326 1.4335511 -0.7762243 -1.2072209 -0.8929152 -0.26596043 0.6981358 2.330307 -1.1442083 1.6053948 2.4503796 -0.19593936 2.0009058 0.29808202 0.4427841 0.66021425 2.2694242 -1.3567346 0.70741904 1.2211379 1.0332938 -0.09171317 -0.71756226 2.016949 -1.5533556 0.9982978 -3.0949123 1.4908766 -2.918704 -1.494409 3.3669307 2.8804598
garden 1.6752849 -1.7270927 -1.1390408 1.6680363 -1.7612344 2.0084636 0.8102305 0.56851435 1.7288138 0.37816727 -0.42585045 0.9270193 -1.823614 0.5315863 -2.3309448 -0.73334116 -1.5741735 -0.5900796 0.9135045 -0.28558224 1.1447896 -1.0006989 -1.0975963 -0.17170033 -1.5896504 2.2664187 -0.5437767 -0.14667483 0.5436499 3.8693912 -3.5844288 1.6565229 1.1365831 1.8886836 1.2756667 0.3482058 0.7573432 -0.6822693 -0.3105698 1.3953981 -2.7946994 -1.8433704 0.23724854 -1.4149995 0.22224948 -2.8335829 -0.12173079 0.5919927 0.16842774 2.3587635 -1.6647996 -0.87435454 1.0304797 -2.4501224 0.17550217 -0.09912043 -0.48040128 -1.6727585 0.43518576 0.46080104 -1.0936651 0.8751752 2.0299816 -0.105432674 -1.3786132 -2.6035252 -1.7803019 1.1148024 -2.7182643 2.5067086 1.0791639 0.049733408 0.16743332 0.1327901 -0.4542441 -3.0101388 -1.7305655 1.6236259 -0.72188294 1.6525235 1.1317747 -2.5387306 -0.040200707 0.4226029 0.70744723 -1.5389925 1.0640166 0.1747056 -1.4475144 2.2339234 1.9332969 0.30225405 -0.057849765 -1.1758642 -1.5682504 -1.3231206 0.2757297 -0.14554672 2.5628936 -1.2652586
kit 0.9992904 3.4293354 -1.9964215 -1.2742499 -0.23291928 -3.7316067 -1.216345 2.9833076 -1.5723765 -1.2168729 -2.1804056 0.3881955 0.18977164 3.2255716 -0.31651798 -0.49653745 -2.461881 -2.0924234 -0.8182199 -1.7428714 0.12759754 1.9119328 -0.31595042 0.191253 -1.8127874 -1.474201 -1.7604141 2.7159257 2.4792745 0.69411165 -0.36086643 -0.3644643 0.8276505 0.4047636 -0.6806387 2.5779746 2.179404 2.5884829 0.19104846 -0.20978908 0.68174183 1.267508 -0.46060646 3.1237373 1.4487296 1.335049 1.0784583 -0.39325207 -0.9528103 -1.5008423 -0.99188316 0.9095875 -0.45473024 -1.608672 -1.962233 -0.20609282 -0.841163 0.6723703 -2.183231 -2.4154224 1.8019371 0.05272961 -2.928245 2.5434554 -0.75085145 -0.07778653 -0.53254277 -1.0124624 -0.637193 -0.9026108 -2.12131 -0.57789063 2.3161201 0.61932445 -0.7625841 -1.7617321 0.058000147 -2.1452706 -0.23409577 0.6607479 1.3008738 0.6820287 -2.6372309 -0.29081374 1.7748595 -2.9785817 0.55078685 0.2881965 -1.6445231 -2.185552 -0.28557953 -0.2824635 0.00012240064 1.2777817 0.44048014 -1.0829775 1.4001203 -0.5983962 -2.0458622 -0.0048897415
tins -0.047489636 -0.8114257 -0.043470837 -0.17160931 0.42854404 -0.41582128 2.7764518 -1.7936716 -0.69142944 -0.8813177 1.9470558 -3.1972518 1.392991 -1.1302236 -1.7025622 -1.869209 4.4469514 -1.5341172 -0.03970712 -2.697883 1.2188232 0.203791 0.60531706 -2.4627802 -0.81781924 -0.30597013 2.278902 -1.1854057 0.43746763 -2.6324213 -0.31384522 -1.9679916 2.0594928 0.6003967 -1.7027041 -0.59803873 0.51728994 -0.58437705 1.4932073 -0.3066022 -1.0021627 -0.5265056 -0.14591943 -0.45754284 2.358027 -0.033535764 0.66332376 0.030209884 0.16248102 0.7657176 0.101793155 1.0493695 1.6883117 -0.930253 -0.9573568 0.47273567 0.10691934 -3.08091 0.17521772 0.9607986 0.27143285 0.057525445 -0.8103209 2.5324044 -0.27717227 -0.29880875 1.770586 -2.857828 -0.5785109 -1.5784454 0.8861474 -1.1252024 2.3879087 1.4265794 -1.2286533 -0.47218066 -3.0082612 -0.46009883 -2.016585 -1.0148635 1.5387185 -0.39547977 -1.9236853 -1.3856184 1.0191184 -3.045803 -0.56238973 -0.50875866 0.3286266 -1.5728787 -1.7671038 0.0032590518 -0.50906104 0.47797012 -1.1172127 1.3262017 -0.32786933 0.32023528 -3.9231708 0.03329893
woodland -0.8396825 -0.2961502 -1.1145227 -0.5502618 1.8088272 2.8736956 1.672757 -1.5916208 -1.0607423 0.2941951 -0.046617486 -0.26274088 1.0411763 -0.44916356 2.4189565 0.48200625 1.4843705 -0.5256649 -2.1071997 -1.5406541 -1.0838572 -1.167329 0.23277178 -0.944911 0.56024414 -1.0788981 -1.2777386 -1.3564528 -3.089506 0.5441661 0.690763 -0.03209933 0.06048834 -0.13350391 0.48005125 0.3841048 -0.99914515 0.046039686 0.22690617 1.7091078 -0.85306 -0.0150738675 0.79536015 0.77300435 -1.1814742 -0.7309834 1.6828603 -0.25162616 -0.90886444 2.055209 0.9952279 -2.090562 0.54122853 -0.8683968 -0.32280368 -0.1334097 0.016925305 -1.1110977 -0.30177206 0.5407831 1.5445683 -1.1772424 -0.5996542 -2.0252569 -0.68935907 -0.37189558 -0.29274032 1.0587382 0.15666011 1.2218543 -1.2468363 -0.96993774 -2.7213562 -1.2768162 -0.767007 -2.9410975 -1.0440705 1.3085223 0.8496571 0.25121728 0.49978763 -1.3710928 0.13052079 1.0620546 0.007448255 2.18596 -1.8436247 1.9011474 -0.40963495 -2.545553 1.6386687 -2.0439835 1.7494873 -0.59919155 0.88129854 0.45269126 2.309163 0.28618097 -0.97277164 -2.639855
wrap -0.9290865 1.2488755 0.64742374 0.0012943181 -2.3311825 -3.9987051 -0.70108914 0.467479 -0.29015365 0.07960394 1.4400299 -1.1968715 -0.1705827 0.64516395 -0.16937771 0.65977037 1.8821017 -2.949316 0.19754009 0.26839215 0.47559285 -0.2392664 -1.1729678 -1.1237805 -0.772413 -0.8197197 0.100421794 0.22488122 2.298791 -1.0443008 -2.1021416 -1.0899931 0.7711443 -0.90227026 0.4439832 -0.70357674 1.7409108 -0.0032988687 -0.20912643 -2.4389513 0.5498193 -0.5544821 -0.22445174 -0.033052526 -2.043715 0.08053919 -0.17791767 0.93471456 0.085725024 1.6131556 -0.27091658 -0.55910647 1.3604136 2.4095335 -1.0703752 -1.3615357 2.2070613 0.17723422 -0.011009173 -0.94103384 -2.1844566 0.827638 -2.2010808 2.7060404 1.3403293 0.0057855654 -0.017920984 -0.7186469 0.36827326 0.67247266 0.7973288 0.7883119 3.0304182 0.09114286 1.3556447 1.3786933 -1.3035717 1.5014235 -0.59506136 -0.5494958 -0.12836245 0.68894666 0.86648875 -2.1803198 2.0222197 -2.8978586 -1.6707611 -0.51730967 0.2870056 2.4344435 0.5731661 0.49770442 0.48505253 -1.1343946 0.07121491 0.4777049 -1.4872538 0.69983304 -0.5132933 0.73489004
fairy 0.40197185 -1.3492355 0.0042802636 1.2045885 -0.5808585 2.8736744 1.0687634 -2.4629545 0.09250052 0.02907707 -0.5234712 1.4692788 0.29916993 -0.10809275 -0.691021 0.37648547 1.2493889 0.015931733 -0.8541859 -2.4644215 0.33493298 0.6859976 -0.9445737 -0.97071505 -3.0163429 -0.560702 -0.28806317 -1.1974608 -2.7794065 -1.3498889 0.48713017 1.8886244 0.39410472 0.81417966 -1.3884169 1.4821595 -0.5749993 -2.4603908 0.65765923 -1.9008516 1.6305081 3.7412019 0.6402198 -1.8931895 -0.20793667 -0.06840332 -0.6465354 -0.8817776 -0.19915585 -1.8897041 -3.3195841 -2.0539203 1.0163498 1.0921171 -0.07239902 -0.00600438 -2.989461 -1.4684817 -2.0577934 1.0582055 1.0104582 0.1584908 2.7082288 1.6539879 -1.9944961 1.050793 -0.60486746 -2.131033 -2.9987693 0.66464764 0.67625093 1.8493593 -1.1011422 -0.13114645 -2.3325818 -0.89680105 -1.6393054 2.2141335 0.9580584 -1.3926027 2.6322653 0.75097275 -1.2907485 0.5323489 0.67137355 -0.3320028 -0.6327158 0.67765677 -2.7606242 2.679805 -0.71200836 -1.2563652 1.3497804 0.3703208 -0.11496384 -1.4392705 -0.016670233 2.1223688 0.066553816 0.7181069
frame 2.9554608 -4.1618824 -2.0770805 0.6664642 0.38341072 1.092746 1.4678539 -1.6112208 -1.6458952 -0.8407697 -0.28744212 0.0029229592 -1.4881494 -0.0009810481 -0.08947702 1.2652738 0.09308767 -0.8408721 -0.41207027 -0.30136326 -1.3246292 -1.4766886 -2.4472826 1.336713 -2.8038716 3.1671102 2.507487 -0.6922578 -0.6490675 -1.4014269 1.7034389 -1.8907901 1.9483674 -0.79142416 2.4308121 0.27792013 -0.2286903 -0.02632888 0.45572457 -0.6635438 1.9701893 -2.7743096 -1.6678996 -0.15174861 -0.48711222 0.93218327 -2.920019 1.7483752 -0.48743108 0.7395875 1.5416234 -0.9025681 0.04596412 1.021795 -0.0278155 1.9386117 0.21526852 2.4562953 -1.5621195 -1.2224506 -2.5864775 1.7220656 2.7049565 -0.5422702 -1.1134542 0.49056697 -0.6923846 -0.09633727 1.3767605 -0.40442368 -2.5910752 -2.3067002 -0.7451042 2.2109053 1.6484183 -1.4826267 -1.2346085 1.2229369 1.4152676 0.751713 -0.7192308 -0.54482764 0.42498022 2.0312917 -1.6918259 -0.13489793 0.74689114 1.5265237 -0.751227 1.5751863 -1.5797149 2.1026218 0.77798396 0.91898036 -0.63564134 0.32880008 -1.948348 -2.405482 1.9701421 1.4236308
antique 0.46096745 -1.3648303 -0.28843597 -0.037499703 0.6889592 1.7536973 0.5214001 3.6925554 0.6912121 0.41980007 -0.98170006 -0.014541023 -2.4304028 -0.13409208 0.14593586 -1.333103 -3.5689514 -0.120851904 -0.6407699 -0.6357916 0.1855881 -1.0047129 -0.9605331 -0.69935066 -1.3051398 3.4216287 2.9367433 -0.535182 -0.7288514 -1.4808202 0.34390086 1.9813771 -0.34622404 1.1059525 -2.5843055 0.37379408 -1.7530953 0.31068525 -0.9308597 1.3611932 -0.8447912 -0.60318154 -1.0604327 1.0883583 1.8334067 -3.067221 0.8698281 2.760317 -0.65984786 1.7040339 -0.7768194 3.656279 0.9556368 -2.05353 1.641013 1.3636525 -1.4204103 -0.75938493 -1.7216306 -0.6924178 0.3122945 3.3614185 3.7593975 -1.4443471 2.9381742 2.35359 1.5886971 1.265039 -1.0075619 -0.8099991 -0.30110642 1.1812406 -1.0155579 -0.89229906 2.867742 -0.017422674 -1.733761 -1.201164 1.771639 -1.7919155 -0.07347297 -0.72378755 0.062801704 1.1079265 -0.5970482 2.0159147 0.40820402 -3.4622982 1.9234623 1.375392 -0.04181706 0.9507599 2.7616153 1.9398575 2.7590146 -3.6273007 -1.4668052 -0.39904493 -0.42699188 -0.1256809
drawer 1.4240382 -1.4758116 -1.3171662 -0.56206656 1.1763105 0.63137347 0.6623077 1.7109133 -1.0971373 -0.8734559 -1.7411569 0.18670887 0.7619557 -2.0648696 -3.666109 0.56621003 -0.9643693 -0.2867611 -0.42713383 -1.6677009 -0.35926443 2.0703673 -1.3818715 2.415542 -0.2003265 1.4515555 0.014189946 2.2765825 0.65114474 -0.01818231 -2.336098 0.27372828 -1.4804622 0.098988414 1.9570643 -2.1680403 -0.19380899 -2.3951395 -0.14171143 -0.1916021 -0.7351058 -1.1617286 0.98599267 1.062495 2.808973 -0.81596315 -3.4136338 1.2218491 0.29391947 0.71518266 -0.46481517 0.57600904 1.3508003 1.2316414 0.46310085 -1.7581458 2.7199888 -0.08525379 -1.6912273 -1.5266774 -0.8351822 0.108373284 -1.3157561 -0.67009187 3.4537506 1.2110926 -1.1246741 0.8787142 -0.85303915 0.14976782 0.18395361 2.1928163 0.09816695 2.091271 1.9975684 0.83748424 -0.18269908 3.2231603 1.9722507 -1.0917535 0.37598294 0.64613897 0.9612554 -0.4175015 2.4375997 -0.2642142 3.101339 2.8396897 -1.793066 0.59221 1.3869442 2.6630838 -2.8324609 0.14507823 -0.58300465 -0.7246451 -1.8193737 -0.66780674 0.29583606 3.2973878
charlotte -0.61752635 0.9750249 0.99590683 0.05779447 -0.5567324 -1.1225739 1.5095361 -1.4293262 0.4357811 2.1264317 0.053437416 -0.42626378 0.05553744 0.13502 2.3537989 -2.0606785 -0.9813376 -0.56625557 -0.23901139 -0.17162196 -1.264433 1.3647991 -0.6929418 -1.4871906 -0.28560087 -3.9876475 -0.73678505 -1.4672663 0.23785914 0.09148339 -1.896553 -0.6497712 1.3334138 0.0006411078 0.3380375 -0.38865742 1.6764568 -0.4290839 0.12899199 1.7498025 -1.1926057 1.3776346 0.30850056 1.7514707 -0.3559353 0.45226994 -1.5619701 2.2337575 0.8356765 -1.2900385 0.9221516 0.24985719 -0.37193468 0.07120257 -1.8612455 -0.82526815 1.4199014 -0.6072713 0.09313952 0.66799676 -1.3160937 0.91955715 -0.23053806 -0.053348836 0.28462434 -0.65001327 0.40394813 1.3208961 -0.9684641 -1.1575155 0.6980969 1.9316688 1.6633981 0.15951537 0.53248113 0.71141636 -0.8042864 1.0709287 -0.39464098 0.98510206 -1.6626188 -0.50801146 0.111262694 -0.63146025 0.10181492 0.44564515 -1.9222534 -0.25725976 2.1280906 -0.64074033 -2.262684 -1.0405264 -1.4193019 -2.0893967 1.9315172 0.57798487 -0.2716123 1.6378448 -0.27278155 -0.44592443
silver -1.8232076 0.46895295 -2.4485722 -0.8959373 2.0051448 1.4804816 -0.3074395 1.6735622 0.27685106 0.0124357315 0.10122607 -0.9249219 -1.0152946 -1.6744 0.6130709 2.0883482 -0.6117123 2.5178955 1.1618108 -0.12951972 -0.88621783 1.8444467 2.5353603 -0.6234414 0.6583451 2.0929267 1.4864037 -0.38400793 1.3618585 0.067334585 1.982137 -0.12654823 0.026944362 -0.6450243 0.15599802 -0.30799955 2.3868165 -1.322966 2.376654 -3.1016157 -1.3883718 -0.25312477 -1.2169371 0.41902086 0.2469984 -2.686622 0.09187843 -0.91197896 1.1839278 -1.1065656 -1.5012625 0.48280245 -1.2448813 -1.5976385 -0.52635545 0.025181398 1.492067 -1.2471732 -0.01712042 5.341722 1.2727565 1.1548563 -0.39882678 -0.29520574 -0.11762859 1.0769169 -1.5104641 1.3843391 -0.13789587 -1.754754 -1.5979824 -0.7182519 -3.313512 -1.6620657 0.2765445 -2.7735493 0.3346186 -2.8226786 -0.28665087 -1.9697478 0.09346048 0.47377625 1.6819658 1.5758835 1.760969 0.07629464 -0.18440102 0.3201499 -0.23690206 -1.5281316 -0.13430029 -1.3015857 0.8901856 0.765528 2.1519415 -1.0338641 -0.45644107 2.013778 -0.82859856 0.4318384
colour -1.8157841 3.4077191 1.7222733 -0.095791236 0.6873166 -0.81989145 0.07852487 0.22559577 0.6365107 0.4836174 0.6348996 0.67059565 -1.0287844 1.0510502 1.4915909 1.9194652 1.8757831 -0.45137513 2.2460115 -0.41111818 0.87071425 -0.8479038 0.7827152 1.0645585 1.8726662 1.3515369 1.0505184 1.6388092 -1.3194711 -2.6412032 0.5403142 0.3085514 0.51800996 -1.5952793 -2.8016512 -0.13478976 2.9552054 -2.2427285 -1.4604827 -0.110944614 -0.9348325 1.5749258 2.583216 1.1492715 1.7813977 -0.95484316 -1.4890898 2.056515 -0.53431594 -1.0271841 1.3009709 1.8358375 -0.99666166 -0.00045804377 -0.833004 0.0954268 -0.8160806 -2.9576612 1.7535726 -2.4860148 1.9867247 1.168602 -1.1620421 0.6293684 -2.9696996 2.5256906 2.0226362 -1.2041496 -1.6066431 -1.6316456 -3.0101721 1.8618913 -1.1737081 -0.5800069 1.9531274 -0.043450635 0.08896553 0.14505965 -0.7826534 -1.9806021 -0.16562961 1.1235824 0.6233631 -0.3250913 1.6292275 0.974447 1.5023592 -2.7494473 0.7470975 1.4282963 2.0830278 0.37270117 -1.086946 2.5111687 -0.88301474 -0.26129475 1.1740097 -2.1246681 -1.2574365 -0.2637916
childrens -0.45708683 -0.91860443 0.80786014 0.33645168 0.38950324 -2.224483 0.22440213 1.6400275 -2.3295884 1.7764772 1.1414242 2.4810107 -0.8311033 -0.688338 0.18107754 0.6693199 0.18651676 -1.3663446 2.2289445 2.4397018 0.41418323 -0.41915575 -0.45151782 -1.0794903 -1.4138477 -3.4001102 -0.41721138 0.48984236 4.0778394 -1.11945 0.22877875 -0.39883092 0.73497945 -0.01224575 -2.132004 -0.5110225 1.4459876 -0.15612437 -0.690044 -0.15319076 0.12502697 1.235705 -0.9321518 -1.7077799 -1.5680987 -1.0004915 -2.9544644 0.90127426 0.5318976 -2.1627195 -1.1964585 0.0075395918 0.5493371 -0.5253387 -1.258901 -0.7698383 1.2576183 -2.3926222 2.7797427 -1.1771405 0.521475 -2.4309022 -2.2520425 -2.294475 0.48195216 0.3297337 0.5709693 -0.34851268 -0.97218794 -0.4005755 1.6057816 1.1346154 1.6312935 1.7371771 -0.00442845 -0.5047564 0.5497802 0.533514 -0.5538327 -0.045139555 -0.8750522 -0.059118763 -2.241255 -0.49462935 -1.570101 -0.23027565 -1.1894705 -1.7495182 1.8867888 2.3646452 1.8330952 0.23023339 -2.650626 -1.1429489 1.0232662 -0.6242543 -1.9002047 -0.1623421 1.2436565 0.3142303
wall 1.7330744 -2.9196372 1.3826206 1.9525162 1.4873346 -1.09484 -0.56518877 2.2148592 1.7560879 0.45748276 -0.56214875 1.0057302 -3.6246033 -1.3236758 -1.9595307 -1.1278876 -0.00789057 0.8217844 -1.4384866 -0.8549819 0.47629008 0.7298824 -0.20328295 0.4718199 0.09391784 -0.35668942 -0.1659146 -1.3049415 1.4611776 -2.341704 -0.47256047 -0.17520207 2.5593927 -1.314184 0.4873096 0.44360036 -2.0785909 -0.62212235 -0.01738867 1.662013 0.24210878 -0.17762583 0.6355736 0.5124521 2.2280552 -1.65813 0.15749882 0.2553084 -0.8693907 2.042667 -3.349806 -0.014769248 -0.1515427 1.5185943 1.4248886 1.764399 2.7791033 3.2579217 0.43331844 -2.6150084 0.013567284 -0.5261946 1.0000771 -0.4257569 1.4272166 0.30869317 -1.8557491 0.53474575 2.09939 0.91235596 -3.0094218 -0.66809916 -1.2311138 -0.30113852 3.1509695 0.5987565 -0.58295643 -0.40452543 -0.19560854 0.9521223 2.0282893 -0.3461224 -0.52816224 2.3079317 -2.1772773 -1.2758123 -0.7491574 2.1211338 -0.501333 3.1301863 -0.4149796 -2.8472934 -0.42576674 2.594803 0.6791219 3.5125608 -1.5278888 -0.58973205 0.5056163 0.7810414
birthday -0.204007 0.53220254 -0.28384882 0.7135719 0.65713453 -1.4786179 1.2430437 1.4537692 0.009764126 -0.23447335 -0.06805619 2.7043664 1.180719 -2.2177742 0.5619886 0.6931465 -0.18289025 -1.0084441 -1.0532101 -1.8201213 0.55269754 -1.5599958 0.27668443 -2.0952342 2.2923987 0.7181566 -0.7428217 0.69042856 1.8620701 -1.9240127 -0.5462425 0.38325536 0.3679398 0.18643984 0.81453645 1.8498195 -0.28739038 -3.7688758 1.5445656 -3.3840947 -2.0618207 -1.5322624 0.79653114 -2.172534 -2.051171 -2.0329 0.5804333 -0.18005934 -1.5301278 -0.35025072 -0.35829157 1.0652506 -0.7954194 1.0615336 1.0382874 -1.0672667 0.43748584 0.052862585 0.237445 1.7671101 0.51308966 -0.98631513 -0.31280166 -1.6527691 0.51028997 2.1437185 -2.2911603 0.67864734 -0.7904941 0.86172646 -0.3441693 -1.7660573 3.2347016 1.9833788 0.9408338 -2.6534235 -1.1416519 -1.1053774 0.5988067 0.30245584 -1.7890704 -0.059132613 -2.3300095 -2.3786771 -0.3957545 -0.8811722 0.39049506 -0.660036 2.9838388 -0.813817 0.61901575 -2.9882338 -0.6693888 -1.5876228 -0.69837546 -0.710092 1.8964101 1.1975285 -1.8834516 1.3917059
strawberry -1.5860229 0.5839655 -1.5120225 -0.7289698 1.4269469 2.532813 0.70456433 -2.7942448 -1.1998652 0.8808202 -1.4062173 -0.69035673 1.5215648 -2.5448518 1.9135685 -0.38565582 1.3117312 0.020387357 -2.76933 -1.7271978 -1.2473739 -0.9208205 1.1645017 1.5510538 1.3872572 0.69515276 0.112813614 0.4343039 -2.7951796 0.5706724 -0.36208296 1.6891177 -2.4387727 0.036623187 -0.46054834 -0.7550567 -1.3811215 -0.34986964 1.413202 0.58753866 -1.7425317 0.24299821 -0.5700454 -2.1308436 -0.4666232 -1.0238687 0.103088 1.0679303 1.1565888 -0.855952 0.7336845 -0.23225074 -1.038545 -1.7414107 -0.029522028 0.15684703 -0.04923781 -2.994132 1.4116758 1.2210689 0.7681953 -1.09332 0.07598132 -0.92384374 -1.8283075 -0.75237453 0.45086005 -0.23504238 -0.8787065 2.319763 1.2691089 -0.5620185 -1.3694146 -1.1043298 -3.1025283 -1.0282838 2.3772476 0.3119257 0.53251153 -0.027216684 -0.5575504 -2.076181 -2.024755 1.0247025 -0.1692096 1.9824907 -0.55777186 0.42643714 1.2486851 -0.54048645 -0.62241757 -0.79369134 -1.5691414 0.24997787 1.544824 -0.79010063 2.6693544 0.82542413 0.19269282 -0.6383863
star -0.46897137 2.1804063 0.11594365 -0.09573673 1.0559984 -0.33895877 -0.721016 2.9561055 1.0664054 -0.19800802 2.2252955 1.4451283 -0.15113378 0.75823015 0.67097193 -0.8193458 -0.78886735 -0.9824061 0.36304417 -2.026427 -0.5487433 -1.0833517 -0.63456863 4.4053164 -2.3036563 1.4119902 1.1131752 0.3705993 2.9208696 1.8319091 -0.2075168 -0.9483955 -2.5953228 -0.6099003 -0.753499 1.0809134 -0.08671416 -0.4953584 0.0460727 1.3472807 -1.1405464 2.7669852 -2.0988233 0.22533894 -0.6668549 -0.9033737 -2.5875504 -2.5821478 0.23766801 1.1371473 -2.0677323 -0.522143 -2.586576 -1.0560726 -0.61169827 0.11580789 0.03127571 -0.6278829 -0.24418224 0.64292634 0.4764011 2.4031575 1.9673928 2.5329416 -0.2596765 0.93630135 -1.1577822 0.5103511 0.42847615 -0.2439169 0.817946 -0.936435 -1.1026285 -0.76941216 0.4759715 0.63438845 1.3319633 -0.40628132 0.670837 0.47829154 1.3291316 -0.57959026 0.0023324236 -2.059816 -1.0998262 -1.1298761 1.9982809 0.49608272 -1.9945579 -2.7291021 0.9135149 2.188584 -0.5316926 0.7994093 1.8347334 -2.1003783 -0.06906074 -0.052756283 -1.5676197 0.8530331
wood 1.4193538 -0.1775244 1.68434 -3.5380852 2.3549027 -0.2581896 -2.6594725 -1.6393876 -0.7068929 -0.94656444 0.1484442 0.8091967 -1.534871 1.1275021 -2.0938745 1.7464819 1.7832787 2.538681 -1.9926574 -0.6951904 -2.2219293 -2.2437663 -0.57752246 2.673855 -2.2057865 -0.5220597 0.3673816 -1.5594065 2.051873 -1.0948668 0.8095693 -1.8625112 3.7296293 -0.39335388 0.2713211 -4.201664 1.3322418 1.2020477 1.7001336 1.5298682 2.0426924 0.034985002 -1.8614639 0.55364865 1.0003293 -1.8103204 1.4425763 0.26899853 0.4193539 1.9114258 0.22704686 -1.2983505 -1.5019677 -0.6589107 -0.78391874 2.7523541 -2.8034317 3.9472923 0.07170661 -0.5441245 2.3589618 1.1518855 -0.30240834 1.0339984 -1.4589082 1.6070154 2.1297119 0.07486162 0.8154726 -0.9224949 -0.61427605 0.9912183 -1.8008691 -0.4971474 -1.3659906 -0.1524027 -1.3468281 -0.18851376 1.6989052 -1.7314469 0.7003628 1.2876555 -2.6467447 1.175044 0.5005776 -1.2055475 -1.7033266 3.1196933 -0.8908532 -0.5083951 -0.21882994 0.17236999 2.633663 1.7977252 0.138245 -1.1021683 -3.46641 -3.438274 0.36263627 -1.0100652
bird -2.7361455 1.2240459 0.10415779 1.2281437 2.6566494 -0.3298124 0.99021363 0.109936856 3.26222 1.5916952 0.55764884 1.0295362 -0.36222553 -1.4480911 1.6048622 0.36055622 -2.3992844 -0.7616944 2.6115491 0.1916758 0.17751221 -0.090343915 1.7211828 0.06164879 -3.5241513 0.48291618 3.1574144 -2.3173878 0.6944745 -1.4343424 -0.21707866 -0.52919036 -0.6786746 0.47876814 -1.2461166 -2.0038269 -1.7549063 -1.686088 2.2969108 2.080163 0.34446976 0.44045392 -0.54755956 -5.4272037 -2.067419 -0.33183092 -2.0112195 -0.4002489 0.55866015 -0.40899515 -1.2235878 0.11361567 0.8546182 -0.47608507 2.027889 0.46650413 0.3634655 0.74184877 0.001599005 0.5866209 1.5137775 1.0501688 1.3071368 1.6015637 -0.89810073 -3.458074 -1.1131208 0.20195924 0.63999104 -2.0752685 2.0861409 -2.0293682 -2.5176034 -0.16622436 0.3075564 3.501711 -1.9336617 1.1045547 3.300449 -1.1248996 2.0869749 0.70767415 -1.8856565 1.4289602 0.40800467 -1.304598 1.1615041 2.0855684 -0.7963258 -1.8594515 0.4532491 2.103257 1.4743508 1.1368212 0.70236415 0.5313342 -0.71063244 0.4625229 1.8165805 -0.8884837
skull -0.3861657 -0.012833601 0.40027958 -1.876254 3.8350549 1.1586447 0.3124556 -1.4449172 -1.1999555 -1.2027156 -1.1226804 -1.6783621 1.374439 -1.4268204 2.237702 -1.1810517 1.0810837 0.7563945 -0.48612368 0.017066812 -0.4903578 -1.8747883 1.6583425 1.5599531 -0.50395703 -0.33170086 2.8180416 -1.1362091 -3.1038256 0.58443165 0.28696638 -0.5386517 -1.4174045 0.6592035 1.4402871 -0.90133816 -2.1281774 -1.3270922 0.873965 0.24518791 -0.6635284 -1.4749463 1.0142106 -0.8709863 0.051447988 -0.4134954 2.4952102 1.8624655 0.037505027 0.41688588 -0.37472898 -1.517863 0.6907893 -2.0427766 -0.50551474 -0.04145771 -1.3356973 -2.4675972 -1.2043254 -1.2933568 1.4012961 -0.24118657 0.9043861 -1.6309162 -2.51323 -1.6570389 -0.29198176 0.14417315 -0.94206506 1.2275215 1.4339991 -0.7135316 0.2715551 -1.8540628 -2.049581 -0.21435277 1.2581242 1.6932888 1.0738072 -0.06161807 0.8028726 -2.1133287 -1.3473129 1.1803172 -0.89468056 1.0934155 -0.30947226 0.9368485 -0.57465744 -1.3706003 -1.0028608 -1.2185143 0.7976975 1.3754696 0.4734943 -1.1047635 1.6928387 -0.66895914 0.4452744 -1.1523628
zinc -0.7081717 1.2770696 0.07112744 -2.501166 0.018786747 0.9167376 2.479158 -0.6552951 -0.21352763 1.5823755 0.12698357 2.5090938 -1.2942561 0.86084235 -0.27668843 0.768114 0.45872784 1.7049088 0.33549723 0.36858764 1.4023592 1.2209793 0.20824037 -0.35528454 -1.7963307 0.97549635 -2.0432703 -2.2693117 -0.46634403 1.60082 2.1715114 -0.7674433 -1.1905404 -1.8628685 -1.179071 0.1774292 -0.39487213 1.9719837 0.31843856 -1.2780737 -0.07952893 1.4740561 -1.5037147 0.6264089 -1.3774635 0.8440646 -1.9646863 0.0022655283 1.129287 3.9398718 -1.8068854 -0.7621261 -1.3456032 -2.044861 1.7800678 1.753201 -0.28643426 1.1181384 -0.5483082 2.9206471 3.8228724 1.1976738 1.3495975 1.1411672 -1.5574946 -0.86170137 0.8334023 0.5536554 0.03867813 -3.2161863 -2.2583642 0.19792548 -0.7556023 -3.753231 1.7995167 -1.7755035 -1.4223825 0.511556 0.7592917 0.0031301905 0.074106745 1.3856965 0.98904955 1.4843894 0.7174155 1.1729221 -0.72152036 -1.6177487 0.7879911 -2.1377223 1.8272345 -1.0061157 2.6682177 1.3673098 -1.6179916 0.68592656 1.4488419 -0.47458094 -0.48226634 1.362887
union 0.7178895 0.09921513 -1.0893493 -1.1529945 2.2173955 -1.2502794 2.339618 -0.7465234 -2.151593 -1.3784558 -2.6611996 1.7018896 2.8014715 1.0601207 1.1161686 -0.12260974 -1.664094 1.208438 1.8173486 -1.4291109 2.429787 -2.0438142 -2.1276546 1.8009727 3.2279124 -1.1692533 3.2574484 -1.8155298 -0.59661406 -0.61723554 -2.4625013 -0.3091431 -0.7063346 -2.1583939 1.9457961 0.66811454 1.9647934 1.9836712 0.8628909 -4.0214605 -0.03004074 0.4611472 0.13126929 -0.30363128 -1.1026102 1.5732137 -0.313266 2.3633478 0.520143 -4.1550484 -1.2098674 1.6238234 0.55063605 1.9509485 -1.8616234 -2.612508 -2.0560696 -2.2542267 -2.52328 0.15194482 -0.70260215 0.67659867 -0.5519114 1.9404231 -2.5709682 -0.9840383 -0.23421136 1.380746 -0.62511694 0.665728 1.2881212 2.572552 -0.16290553 -2.165463 0.33208302 -0.16504623 0.9243637 -2.7578115 1.6511669 3.144225 2.394484 -0.9761241 -0.4981534 -2.3852754 0.9336171 -2.193623 1.771405 2.7644703 1.8900421 0.13985065 -1.6263427 1.0820875 -2.3130085 -0.23045324 -0.4592167 0.09888134 0.60746825 0.003131467 0.19702539 1.098666
gift -1.0888447 2.818693 1.0190524 -2.7338476 -0.26973075 -1.2053275 -1.7930965 -1.462981 -0.45437622 0.43869188 -1.1030501 -1.8740007 1.8017917 0.7058686 0.9442096 -1.6644583 0.32926697 -1.686246 -2.6850965 -0.76295805 2.2622678 1.4220983 0.5704481 0.03240998 0.116005264 -3.8399358 -0.64509773 -1.7097957 -2.411131 -1.8385646 -3.3311026 1.7457622 -1.8542228 -2.0663931 -0.47716528 0.963988 -0.3699633 -0.5666066 2.2137053 0.794879 -2.2103927 -0.8561974 1.8590373 1.5037687 -1.3788759 -0.09520766 0.3509349 1.6770624 -2.6343622 0.281378 1.1182635 -0.5049048 -1.196888 0.2876158 -2.843455 -2.2619517 -0.07723935 -0.52275896 -0.4767032 -1.9548414 1.1737056 0.4758485 -1.0576825 -1.4162786 -1.414955 -2.1324863 -0.9710119 0.3938148 2.6745996 -2.027414 -0.66205543 0.8483212 -0.048957482 -2.882294 3.2932265 -1.0658053 0.5225775 -1.0341456 -1.516426 -4.037282 0.12054349 1.4355874 -2.4089127 0.38163102 -1.8036221 -1.3632555 -1.6013385 -0.87458736 0.46252683 -0.71780306 0.1142143 0.0698745 1.3668575 -0.57292384 -0.8419159 -0.6865531 -0.8063734 0.6787129 0.48184225 0.25493357
cutlery 2.4879558 0.9465686 2.2199056 3.2612722 0.27639398 0.6558257 -1.0452473 0.0830666 1.3999484 0.29110336 0.7628517 -2.719122 0.2777507 -1.1898237 -1.0665565 2.9401755 2.512378 -1.1336117 -0.21506795 0.2154083 0.25807402 0.7946298 -0.21093987 0.7908722 0.8966507 0.13586254 0.5280954 -0.058731105 -0.19815168 -0.11397455 -1.600902 1.5590553 1.524551 0.036634795 2.8683434 -2.2747524 -0.2579074 -1.8279828 1.7424339 1.0510615 -0.18981582 -0.54110694 2.36408 -1.953465 0.9605535 0.39306676 0.26213202 -0.12115219 1.9235002 1.5562316 2.1781147 -0.28229782 0.64918303 2.7596073 -3.195092 -2.9008238 -1.3710523 -1.3607953 0.5396314 0.78692716 -1.5946851 -0.6336732 -1.3329663 1.8173423 -1.505553 0.041392278 0.12819351 -0.7817115 -0.8287907 1.2166666 -0.10492658 -0.15192048 -0.49052688 -2.062042 -1.1832432 0.20958301 0.3251151 -0.54549485 1.34991 -0.41516456 -2.7138577 0.22308694 1.228383 -2.8448765 3.527869 -2.3450797 -1.7076677 -0.28641027 0.6375985 1.0219454 1.4718792 0.9995871 -0.6532492 1.0816206 -4.62775 -0.79334193 -0.9493629 0.9955479 1.6707485 -1.7474344
jar 0.58627427 1.753134 -1.3385911 1.9990968 0.8221596 1.2843665 -2.187188 0.65761894 2.2271488 3.1930852 1.1932315 0.24803415 -3.0236573 -4.2400823 1.5537277 1.3102015 0.23026298 -1.9302732 1.4599457 -3.7627616 -0.18993355 -1.283441 -1.2271997 0.91304696 -1.453644 2.47291 2.306863 1.5610466 -4.056728 -2.426482 1.7632973 -0.37304974 -2.3502257 -1.7378359 -1.6159999 -0.9990516 -0.56516373 0.060661882 0.7416228 1.4245522 -0.5976254 1.8571826 -0.39555538 -0.28500706 -2.166772 -1.163356 -3.1202486 -1.69655 1.6255851 1.7738769 -2.325337 2.5119622 -0.6011392 0.5109883 2.5255208 -0.2670421 -1.7851827 1.3469315 1.9873973 -1.8856902 -0.07283921 -0.7486066 -1.618809 -0.08027595 0.21471454 -0.17950904 1.4811859 0.9486958 0.1616149 0.19926861 0.18618752 1.3968359 -0.5222065 -0.7310092 -0.56844854 -1.5209653 0.26799345 -1.11173 0.19652583 1.9356296 0.38477173 1.4635396 1.2425084 0.66286904 4.4315934 0.3760093 0.50349975 0.68474704 0.65994805 0.35566878 0.748909 2.957607 -0.8661039 1.1178297 2.0272472 1.0819571 -0.51343143 -1.6979557 -2.6385915 0.6782663
flower 0.8099598 -1.0928987 2.023708 1.3447568 0.45413005 0.553612 -0.26625395 -0.40847242 3.0485787 -0.19840337 -0.14154358 1.5540825 -0.28360787 -3.1690493 2.2661076 -0.29510573 -1.4660854 -2.1788604 1.9767687 0.94261235 0.237052 -2.1842232 0.4008594 0.5026933 -1.35927 2.0943968 -0.22912925 0.8544898 2.6252918 -1.7889218 0.89747524 2.3144345 1.3058456 2.0589707 0.7663105 -3.227305 0.5920576 1.4824312 -1.239604 -1.965788 2.071312 -0.60039455 -1.4474293 -3.970412 -1.3373898 1.8914661 -1.2778404 -2.5458748 0.7619905 -0.56807137 2.7098486 -1.2865396 -1.9664251 0.034865033 -0.75161546 2.9133172 0.4899177 -1.8823831 0.86423284 0.17639333 -0.33484566 1.7265272 3.456482 -0.9596262 -2.1802049 -1.1068788 -0.78069675 0.48358116 -1.0113536 1.1290755 0.35608095 0.67266315 -1.415882 -1.1472384 -3.2643187 -0.28436035 0.39101258 0.3973063 1.1730595 0.549096 -0.3304813 -1.0826697 2.298097 0.4925731 -0.77409124 -2.963135 1.3724703 1.695629 1.3154594 -0.32024845 -0.16078597 -1.3902471 1.079099 -0.6775622 2.8514981 -2.1729417 -2.4901483 0.40279135 -0.42236248 -2.4579155
suki -3.2265327 -0.12916644 -1.1519611 -1.571371 1.483136 1.4728061 0.20576978 -1.5777715 -0.434822 1.20521 0.19896728 -0.8360635 0.88149184 0.43597183 3.2248201 -0.8951507 1.3681736 -0.65825224 -1.3400106 -1.4431273 -1.4504956 -1.1499624 0.5995952 -1.4124213 -0.25743908 -0.8384573 0.06526106 -1.3445511 -1.1372706 0.9241152 0.909816 -0.07447074 -1.3123815 -0.080933206 1.2779146 -0.36208078 -1.6446834 1.1458969 1.9832385 1.5706803 -1.5801688 -0.9997795 -0.03940293 0.18833941 -1.0361197 0.37377882 -0.16431591 1.5212363 2.1362338 0.5896127 -0.32893312 0.08970253 0.07275255 -0.031035056 0.5107693 1.0347817 -0.4904111 -2.402904 -1.173918 -0.3743468 -0.32019383 0.43316695 -1.7884309 -0.09081029 -0.8606715 -0.33066332 -1.0653374 0.2514236 -0.9349666 0.7241523 1.0024849 1.1471052 1.5076069 -0.8989013 -1.6650425 -0.18518025 0.6420944 0.5774302 0.75271994 -0.17048563 1.2677274 -1.227985 0.43743905 1.9492748 0.6445567 1.4704567 -0.6624279 0.5506119 0.98417604 -1.4421105 -2.2977898 -2.9376676 0.04728793 -0.9079711 2.0314426 -0.18333219 2.3963706 0.98979735 -0.0035798296 -1.6421046
cup 2.3070729 -0.62038076 1.9822174 0.175925 -0.61357534 -0.2341368 -0.89621973 3.0474823 1.7146605 -0.4100392 0.7430892 -0.91016465 -1.6598613 -0.13000484 0.4330001 2.4408174 0.27811617 -0.7801044 0.8762164 -0.5981646 0.13234222 -0.93294406 -0.7180741 -2.048267 0.15968493 0.64009404 -1.0381767 -2.8024921 1.3865125 -2.0941634 1.3495939 0.06400159 3.316657 0.34505484 -0.5910669 0.16073193 -1.2259722 -2.951038 0.20212817 2.486003 -1.7116711 -0.31888357 2.3087168 -0.38765866 -0.22720633 -1.4978204 -1.3076634 0.45446193 -1.2350008 -2.3749022 -2.5836482 1.6969404 -0.16210155 2.747671 -0.38357666 -1.0004522 -1.1243998 -0.070031375 0.6468736 1.9939129 -0.5391791 -1.2997389 1.5048659 -0.2593906 3.9796243 2.4156868 0.3721019 0.81717473 -0.5732702 -0.29895416 -0.42521617 0.10026287 0.89982474 -1.1216762 1.8166343 -1.635493 -0.3102373 -1.4309366 1.481974 -0.5153123 -0.8230338 1.5338842 -0.6786764 -1.5804547 1.4812766 -2.1840718 -0.28797415 2.6684234 -1.6054842 0.118423775 -0.9465847 -1.6527542 -2.8809545 0.009828818 -1.2760543 0.80936444 -3.542035 0.04278803 2.9929252 -1.4060229
candles 3.002767 0.10848354 0.96358156 -1.2410384 -0.96751463 0.84433186 1.6610159 1.6857586 1.7778319 -0.5441589 -0.74165034 -2.4392917 -1.8472998 -0.7352595 -1.1753453 1.7595071 0.33996078 0.8650002 1.5934336 -0.4866533 3.301532 -1.0894018 -2.0584822 0.5171352 0.80790216 0.35143784 -0.8667228 2.8438191 2.422848 -1.0769004 -3.891871 0.03325955 1.2909017 -1.4298928 0.6392648 -1.0328876 1.1400295 0.3538806 1.0333918 0.53632605 -2.4599423 -1.7448001 -0.93216366 -1.2910397 0.23894434 -1.5658691 1.2009602 0.057643447 0.9789439 -0.5447203 -0.512253 -2.1250854 1.0488845 -0.09317186 -1.6256713 -1.6886035 0.48072222 -2.3671474 0.2901806 -1.7876724 1.7538985 2.4871202 -1.1084331 0.38773292 1.4460326 2.499205 1.3101828 3.1943786 0.96966463 -1.1829091 -0.052146576 1.2858074 0.87033665 -0.597079 0.086524695 0.26337454 0.21503732 0.5072522 0.61780125 -1.45666 -0.11193077 -0.24388248 -1.3322932 0.4482007 2.9160123 -1.0501049 -3.0793998 -0.73917466 -0.04573497 1.7804018 1.7174635 1.7331237 -1.2007297 -1.156767 -0.11473767 -1.7220047 -1.5825617 1.8288238 0.9637721 -0.69667387
hearts -2.153428 0.613325 -0.27185032 -0.57642776 0.3947137 0.5962488 3.3053427 1.7852191 -0.52214384 -0.030923046 1.9131145 -1.5402813 -1.4869168 -0.3764935 0.47870004 0.033024453 1.8870529 0.886498 -1.7882367 -1.9432793 0.8124217 -1.6951535 1.607794 0.96701556 -2.0530624 -0.29267037 0.38833895 0.49900764 0.81625885 1.2915843 -1.9908129 1.0505072 -1.4523858 1.8889059 -0.18820955 -0.21549435 0.52700615 1.0034612 -0.101951264 -2.361847 -0.16881362 0.0135067385 -1.9029415 -1.4389907 -0.6162112 1.279708 -0.46186197 1.5011737 0.94671255 -1.890858 -0.7728856 -0.19825418 -2.1218748 -0.7399864 -0.15983896 1.2447865 -0.35814 -0.2988253 2.2830975 0.37425995 -1.2450116 1.1694258 1.8799143 2.8480358 -1.4666754 -2.8601255 -1.3032017 -0.26326925 -0.9496922 1.0857116 -0.34939498 1.5611117 0.04908562 0.091016054 -5.341204 2.3345037 -1.1955264 1.7650305 0.7614667 -0.25917292 1.5801342 0.81071204 0.66586304 -0.2513142 2.5155206 0.15939882 1.4790447 2.6408591 -0.97975916 -2.2019255 -0.56902623 1.9971491 0.96564746 1.2248645 0.7909199 0.79810834 2.789009 -0.7409859 -0.15546513 -0.75406224
jam -1.0485439 1.1428831 -1.5979352 2.0834837 0.15012321 -0.025161527 -0.063692756 -1.3352145 1.8774221 1.1737942 0.8089444 -1.0694541 0.5823704 -2.7353957 -0.6746342 -0.20352863 1.1448247 -2.2912478 1.8007108 -1.9030346 2.384244 -0.48460343 0.007426977 1.9751338 -1.037698 -1.7529795 -1.0994674 1.8400766 1.1870834 -0.4855178 -0.709929 0.6460554 -0.58503604 1.1401135 -1.884317 -2.9855936 2.5866385 -1.5093434 0.6130214 2.836145 1.771398 -0.11877871 -2.2546644 -0.9994188 0.716111 -0.07687631 -0.38729286 -2.3895557 1.2840542 0.9839251 1.4914865 2.1678174 1.1795207 -1.9447281 -2.9588423 0.21263571 -0.031169137 -2.2305715 0.13028468 0.01559228 0.0058299648 1.4250511 2.939704 -1.3908387 -2.8544078 -1.2947564 0.7909327 1.8732091 1.0040908 -0.35906082 2.9853125 2.2515812 -2.6290374 0.38246927 -1.8936988 0.7462033 -0.4880911 -0.4773212 2.0466862 -0.21014723 0.08367112 1.0284203 0.054334547 -0.7168114 -0.7215566 -0.99158126 -0.8599323 -1.8161571 -0.55373263 -2.0925374 0.74393255 3.041635 -0.042588938 0.69885623 -1.8190882 -0.5980635 0.2943972 0.73917764 -0.85587305 -0.06975699
