2263 100
set 0.60670245 0.27708933 0.13229914 2.669277 -2.9085755 -0.81779927 -2.044538 -2.1051135 -4.1404266 2.876597 -1.4539088 0.21361785 2.1926444 -0.07735255 0.40434408 -0.28047758 1.1600009 1.1991801 -1.1744243 0.1553527 -0.7623807 0.9438087 2.5454285 -0.3002059 -2.0186605 -0.6277585 0.12165518 0.4258275 -2.5669377 -0.7583062 -0.8800478 -3.3181763 1.7834686 -1.3067753 0.5410562 0.25354952 -0.5621072 -0.576363 -1.0693781 -0.15469348 -3.1173854 0.3862551 0.40074158 -0.960293 -0.1838484 1.6822646 -2.926592 -0.9169895 1.0950397 3.0347657 -0.8939801 -0.30210066 0.11946103 -2.5854177 -1.4698066 -1.2251439 -1.5093461 -0.54387033 -0.25830856 -0.13904236 1.3550943 1.327142 -2.2087064 -0.7418431 1.1421286 -0.39838108 -2.1427925 -0.5357552 -1.768993 0.6979415 0.9644977 -3.8863037 4.1413875 1.833389 0.79273146 4.152146 2.2022405 0.9686564 0.1544586 -0.7441167 -2.3057814 0.029167535 0.013740839 1.0586123 1.1086911 -0.41562313 -1.3725655 -0.16357349 -1.9286457 -0.048627965 -1.933023 1.9647363 -1.5879613 0.5402324 -0.04378782 0.70417625 -1.5030946 1.7984849 -0.013458644 0.38483474
bag -0.5109855 2.4413495 -0.1769074 2.6288202 -1.0154293 0.05162584 -1.8750541 -1.4272473 -1.1995753 -0.6714427 2.4003918 -1.8758701 -0.6440606 0.23126163 0.40829986 2.99583 0.13948429 -0.47338474 -0.6261546 1.2780423 0.60548645 -1.551949 -1.286816 -0.7724181 0.0024453062 -0.9248426 1.3928782 -0.63755697 0.3610569 1.8540989 -0.99990624 -1.7863033 -0.8017427 -0.36859742 -1.3305576 2.108755 1.2935778 2.154554 0.85600287 -1.0179629 -1.5509493 -0.6482511 -2.1196516 1.4782077 1.3588897 3.055403 -2.2219913 -1.2766523 -1.3293409 -1.6192509 0.42110372 -0.59128547 -0.6308667 -1.3214532 2.0650463 -0.8658907 0.585852 -1.2266185 0.5525104 0.17888382 -0.91550785 -1.66383 -1.3762612 -0.45777968 0.6792108 2.8451595 0.33977914 0.0050393 -1.4131963 1.5057808 -0.25172654 -1.5535022 1.7048206 0.10766887 -0.62620527 -0.24156481 -0.09266485 -0.6044286 2.357389 1.3255274 2.7186391 2.74022 -0.4743115 -0.59821814 1.1863443 -0.35628992 -2.2570355 -3.3103957 1.2798467 -0.9461503 -1.8679621 -0.95443696 -0.27165896 -0.4952118 -1.7490435 0.8550863 -1.7941194 0.6492217 -1.1230034 -1.2956977
red 2.8460155 -0.5987011 0.0767157 -0.1747006 2.285149 -0.2420092 -1.4870294 -1.4964328 0.33386502 0.3188979 -1.5626917 2.4584172 2.9481187 -0.080765955 1.4542959 1.316152 -1.5503737 1.1004692 -0.99448466 -0.14202313 0.33435276 -1.7348368 -2.387852 -0.1889418 -0.30352753 0.5943167 -0.60697263 0.8353249 -1.6775643 0.6736115 0.22913681 -3.362846 -2.284545 1.212455 1.0147982 -0.16022035 -1.2428501 0.32359147 -0.718713 1.2120252 -0.19947071 -0.70100844 2.0567005 0.3402523 0.5902683 1.6409974 0.104553476 -2.1448073 -1.9998206 1.325469 -1.34635 -0.13402736 0.8458318 -3.2378218 -0.7005058 -2.216223 0.10147344 0.90612537 -0.5844982 -0.70932007 1.9714006 -2.9101822 1.6138567 -0.3634546 -0.8718276 1.8182598 -1.35287 0.90727943 -0.61215526 0.6175715 -0.06370159 -0.024655415 -1.3213993 2.3796537 2.9772549 2.1208477 0.8068221 0.698412 -0.92219657 0.06696906 -0.03703998 0.03486849 0.17868322 -1.0181857 -2.205111 -0.59833056 1.4891425 -2.0257845 0.48308322 -0.8530963 -1.8193648 1.6672928 -1.3300153 -0.21091421 -0.14204316 0.8848488 -0.7395776 0.31276825 2.0136206 -2.8228006
heart -2.30393 3.1843233 -1.0689673 1.6213936 -0.62180877 -1.6861044 -0.005651552 2.7202024 0.80428827 -2.4481018 1.5382681 -0.85006094 -0.40325132 -1.0104437 0.40492442 0.025000323 -1.1143556 1.7710276 -0.6784252 0.08299925 0.94529307 -0.45878547 -0.9930193 0.5148751 -1.719343 1.4370207 -0.70803726 0.8961604 1.6499286 0.14455506 1.3445864 -2.4653943 -1.1889398 -0.17454128 -0.968094 -2.0708125 1.3816552 -1.0097371 -1.8708138 1.6305339 -1.2642906 0.44846332 0.023152025 1.1630775 0.7936651 3.1287525 -0.6803556 0.57612014 2.410658 0.70708835 -1.076557 -0.6844787 -2.4247391 0.6294308 -0.77723175 0.058410387 1.4296119 2.4858882 1.0553511 -1.5271547 1.2690346 -0.14992225 2.7106876 -0.9515012 -0.15947974 0.61763966 -2.3653533 0.33152047 2.3459623 -1.5094146 2.5426095 1.0686911 -2.070448 0.5918594 -1.4707732 -1.9676323 0.78053504 -0.5018029 3.807168 -0.12692174 0.8948435 1.1270541 -0.73042184 -1.4453363 -2.7708542 0.34588417 2.2233057 0.5119288 -0.26022598 0.31140795 1.6247954 1.2565589 -0.360037 -0.81569266 0.7106649 -2.1760645 -0.48484507 -0.45086497 0.5561178 -1.357437
retrospot 0.5048467 -1.4731281 0.84951913 0.6025345 3.1586277 2.606882 0.10103778 1.0409759 -1.0992261 1.7486964 0.5469014 0.18985651 -1.4486368 -1.3054931 0.3479993 -1.1907458 -1.0018431 -1.8797555 -1.6725627 -0.94251186 1.9936404 -2.0735047 2.9107983 0.20935768 1.335251 -0.66103035 0.5795709 1.0397536 -0.5285699 -0.28357658 0.3646454 -2.2365696 -0.13140538 -2.0876086 1.3609582 -1.4163493 -2.0670896 -0.3171169 -0.9939507 1.6455685 2.7284343 -0.726911 -0.75388354 -0.27455476 0.52080524 -2.1684892 0.9069302 -0.025289219 0.20971058 1.3183739 0.368396 -0.042884275 -0.7921655 -0.6416232 1.4298692 -0.8736958 0.53726494 -1.3844104 2.045943 0.5958721 -0.6586026 0.64691615 1.9934599 -2.025473 -0.1801285 -3.064219 1.5472933 1.323491 0.43176088 0.70187134 -0.55508363 -1.2132179 -1.8663497 0.38364664 1.1568054 -2.0470457 -1.2145058 0.7155926 1.269784 -1.2665088 -1.7297243 -0.11983138 0.85549587 0.082182325 0.1566676 -0.9792882 -0.25716665 2.6432614 -2.670365 -1.728219 -0.49215063 -1.6747208 -1.0296308 0.15859403 -0.6106884 2.2502196 0.90008754 -1.2545217 -1.1380167 2.4692845
vintage -1.4764183 -0.31070286 -0.23673607 -1.5483346 -0.7069594 1.8246039 -1.5400138 -0.37328297 -1.011166 -0.58631897 -0.41986498 2.158186 -0.80184805 -0.04764555 -0.1707615 -0.6983046 -0.4977798 -1.06207 -0.27233323 -1.1724392 -0.5314669 -1.5929694 -0.7695206 -1.2281581 -0.99221003 -1.0236733 1.87434 2.305995 0.7069494 0.64368504 1.4847566 -0.8896571 -0.8788462 -2.750119 -0.21228902 0.3538792 -0.43485376 1.4255939 0.34754688 1.6799417 1.9601091 -0.59990305 -1.1571391 -0.17997651 -1.6747366 -2.3750427 2.4852965 -1.4535041 -0.99010324 0.7242466 -0.88378173 -2.2535732 0.8125072 0.5866815 3.4650805 -0.76624703 2.4306304 -3.085713 -2.1583924 0.07953307 2.7354953 -2.3446217 0.53307116 -3.5754693 -0.17631258 1.0289253 0.12860847 1.7294538 -1.5761459 0.78949183 0.6008784 -0.8030426 0.96642256 0.75342244 0.5505242 -1.6611063 1.1588652 1.2395744 2.2746565 1.5115031 0.6245338 2.4745274 0.7657307 -1.1122676 0.33964285 -0.5198097 0.07410255 2.7692034 -2.5266168 -2.820872 2.2496593 -1.5829893 -0.5953527 -0.6366001 -0.18332322 1.1361802 -0.25189155 0.4872272 1.7384865 1.5470237
design -1.4192275 -2.8330667 2.4516554 -1.1339899 1.7240779 -2.6307955 -2.274271 -0.14018346 -0.84300053 1.6651994 -1.2559786 0.93101156 -0.27576604 0.16247195 0.3982388 -1.1555196 0.60090154 2.6455386 -1.201194 -0.91859955 -0.5220362 -0.12008622 -0.42306733 1.6633234 3.8318067 -2.1201859 0.20059198 0.9525089 -3.3020322 0.31878445 0.35200605 1.508955 0.676216 -0.67271197 -0.16782643 -0.3857626 -0.9561196 -2.4922788 -0.373749 0.20164174 1.6914951 -2.284299 -0.31183565 -1.6903977 0.28748038 -0.4652986 -0.3700128 -1.0856915 0.17340243 0.83763695 -2.3133059 0.38973862 -0.5057747 -0.86136144 -0.1573346 -0.6946691 -0.6069815 -3.65413 2.6368573 -2.180746 -1.3512822 -0.52103 1.043612 -0.28503346 -0.7744839 1.3303771 -0.942998 -2.3175843 -0.76889116 0.3664653 -3.239286 1.9423046 -0.7924029 2.7817347 0.7119529 -1.8693856 3.529824 2.2637186 -1.2947978 0.4548943 1.04406 -2.5172615 -0.80656964 -0.38333505 -1.2509637 -1.9048744 0.12894467 0.43518367 -1.9448969 -0.34521937 -1.5039414 0.6470498 -3.533352 -0.11576077 -2.0969133 0.016676504 0.6320743 0.42651665 1.447953 -0.51582175
pink -0.05954199 -1.2720634 1.1482747 0.43438396 1.2765058 -0.34750032 -1.2928228 -1.2141446 -0.4839822 -0.8240248 0.0030184614 1.4427241 0.32655612 -1.267296 0.7457559 -0.13402443 -2.0595055 0.28252685 -1.0215412 0.55289114 0.13396335 -1.8058189 0.13211939 -0.7583608 -0.8183763 0.9648702 -0.98384553 1.5248289 -2.2800796 2.6350188 0.16629758 -1.1652914 -2.88387 -0.5833295 0.8358831 1.0217803 -0.73772705 -0.4773207 -2.0196862 0.23246512 1.1443752 -0.65887237 1.2829984 -1.4529638 1.2572653 -2.1328936 0.27048463 -2.8847258 -1.5463401 1.6274357 -3.674044 -1.4337535 1.0793505 -3.651049 -1.0364665 0.3885451 -2.0276835 0.6997707 1.5234351 1.1468227 1.7461389 -0.71290046 -0.7470895 1.5748243 -0.8944451 1.2592645 -0.9270515 0.43906286 1.3255821 0.33291596 -1.219478 0.4022466 0.28689095 0.8431442 1.1529483 2.011613 -0.25816944 2.2585676 -3.0924218 -1.8465563 0.5712327 0.037311856 -0.22441044 -0.85919744 -1.0144826 -0.23733485 1.797016 -0.14780383 -1.5910488 -2.8737333 -1.8491699 1.5985752 -3.1971416 0.53074324 0.082259454 1.2626804 -3.089067 -0.17526568 4.1428585 -2.4467988
christmas -0.6876756 0.9674956 2.8325357 4.2532215 4.3468165 -0.64244765 0.12200108 0.4915395 -0.69844353 0.37454122 -0.47010687 0.050984226 3.9065678 -1.2328414 2.072546 0.64901924 -1.17625 -3.1149354 -0.5042214 0.19429554 -0.16513631 3.051967 1.4207202 2.216588 -0.15063211 3.3103824 -0.40047327 -1.5364035 0.16728324 0.89778554 0.42793936 -1.0039486 -1.7278819 0.3555312 -0.7957647 -1.1881294 -0.4675969 0.13289835 -0.7158989 -2.2705855 -0.34857476 -0.06557962 0.57618976 0.47498968 -0.17828718 1.6529742 -1.1212869 0.6265123 1.0821095 0.9391498 -0.40878412 1.4702396 -0.12497509 -2.8563752 -1.1142701 -2.9730122 -1.6444026 3.2107606 0.15546133 0.6286256 -0.31401289 -1.1258949 1.0107716 -2.0724475 -1.2790115 -1.3928672 -1.067803 -2.4255357 0.70739317 -0.39293173 -1.1123673 -0.27082628 1.3536406 1.0771421 0.41500404 -1.6058934 -0.9927901 0.20587057 -1.2914304 -1.2440187 -0.41448846 0.7638868 1.1477352 -1.7115943 0.9378437 -0.2758129 0.6736729 0.29540205 -0.26063648 1.2641197 -2.6754541 -0.8205924 -0.6310494 1.2509123 0.82633686 1.8846104 1.4644314 -0.3904102 0.5310878 -0.09715133
box 0.13198891 -0.7307638 -3.0794039 3.1489518 -0.15524824 -2.0551698 -3.0435884 -0.51733994 -1.7397718 0.2000081 1.9473989 0.027698187 0.19367316 -1.6204779 -0.62218916 0.41403878 1.3039507 -1.0786808 2.871677 1.6386422 -0.25676858 -0.85167676 -2.348712 -2.3512335 -0.17276902 -2.1470861 -0.22311106 1.8544437 0.14360353 1.9157646 0.75831395 -1.9424113 -0.38424432 -0.70080906 -0.74033946 1.3695021 -0.35301352 -0.7929271 -1.1613525 1.3675528 1.1421857 1.0101591 -0.5270103 0.3332079 0.777941 3.9090471 -5.215158 -2.827247 -1.3480409 2.3344665 1.2706046 1.3223673 -1.497437 1.724204 0.20488667 -1.1108536 -0.43219075 0.082477376 2.7141273 -1.3186876 -1.4371986 -1.0817081 1.9291319 0.10600457 0.13425429 -0.9354471 -1.1666207 -2.1211355 -3.1498847 -1.0777892 -0.95264125 -0.43758047 2.3665168 -2.070468 -3.2220492 -0.12601784 1.9391837 -0.85557574 2.2691429 1.5870932 1.7985584 -0.82524645 -1.1170003 -0.44206312 2.899734 -2.1745818 -0.73137814 -2.1493342 1.3522469 0.04737985 -3.051511 0.24043617 2.1824605 -0.39250624 1.9662752 -0.08872076 -1.2952749 -0.049631644 1.267526 0.011648716
cake -0.800622 0.25450262 1.6285748 1.3139837 -0.33964935 1.0629262 -3.230402 1.034934 -2.301225 -0.23856227 -0.37151048 0.2936568 -0.9371983 -3.1689262 0.6360988 1.148295 -1.7295165 1.1406705 0.7690183 -2.772264 -0.6855721 0.8716064 1.5082693 -2.7119505 0.4745619 0.5219314 1.6533496 0.21270189 1.1403476 1.6175407 -2.064529 -0.06628868 -3.0248802 0.8921287 1.3676306 -1.7217727 1.528415 -1.6307155 -2.1227753 -0.72169286 -2.484014 1.3144593 -3.4596999 0.93867266 0.4250478 -1.6214523 -2.6799378 1.440721 -1.8738137 1.0922625 0.5162269 0.18230623 -1.53356 -1.1721268 0.93419355 -0.4530868 1.1446953 -1.4091814 2.9573777 -1.961101 -1.9084874 1.3641238 0.69618964 -0.15988939 -0.2866902 1.3843124 -1.5767293 -0.43875304 1.0473329 -1.4716318 1.7616528 1.7896255 -0.4942237 1.8260008 4.10286 0.020606562 1.7742883 -1.0024154 0.41337785 -1.3731339 1.5070603 4.1823697 2.1555493 0.7054398 0.5705218 -2.094831 -0.27891108 1.0972531 2.1346467 0.42870182 0.9949188 -0.8168118 -0.18553588 0.9474105 -1.4150167 -1.7434822 3.2714787 1.1080773 0.59876984 0.057152472
jumbo 1.4935615 1.3638867 2.0372949 -0.28091493 -0.6483233 1.0775766 3.1888392 -2.334808 -1.1006067 1.0091784 1.1695124 -1.817988 0.47937173 -0.18119591 -1.0611753 -2.0339472 -0.5282681 -0.30726418 -1.1159116 0.08540853 -3.0233297 0.65965915 -3.1910844 0.15655348 0.54076916 -1.1538918 -0.12874371 -1.4799598 1.4092157 0.30214968 -1.0278945 -2.2430992 0.30833307 -2.0288112 2.2371464 -0.028472602 1.2731946 0.31113365 -0.4610143 0.63642156 -0.595685 1.881595 1.1566238 1.3805345 -1.6499261 0.16534078 -0.6596157 -0.29417348 -0.70243174 1.4216615 0.9252579 -0.2244461 0.83243823 1.0641851 -1.7505962 -1.8657918 -0.4072219 -2.3028517 -3.2128894 -0.67494243 -1.5839102 1.093625 -2.09283 0.028700838 -2.8783348 -0.05019659 -3.151762 -0.38716608 -0.70772713 -1.618614 0.10372387 -1.4343302 0.8824862 1.3558055 1.1887755 -0.11627507 -1.5921816 2.0871778 -0.35500154 1.7562006 -1.6937993 -0.025157368 -0.5579184 -0.3050041 -0.53177327 -0.5628521 -2.2952492 -1.3289458 2.6821916 0.10995249 -0.3204251 -0.93178636 -1.9814343 -1.390713 1.3541703 1.1849421 0.21367368 -0.18839397 -1.9884853 0.8064672
metal -1.4383796 -0.9127894 1.3570381 -1.2506019 2.145535 1.8467299 -0.07099738 1.5496641 1.916979 -0.40088293 0.08521197 -1.3691144 -3.3769662 2.1181967 -1.0661023 -0.48951644 0.42922685 -1.3427413 2.5869226 -1.8794107 0.6123103 -0.08572302 -0.83039355 4.52012 -1.2067964 0.94810504 -1.1661137 -1.8193504 0.42256364 1.0267625 -1.8947419 0.093662016 2.3299594 -0.9428119 0.7778382 -3.1237278 0.107506335 -0.5573003 -0.7984034 0.96448594 -0.975857 -0.69023657 -0.5461548 -1.2437685 -2.5076044 1.0390375 1.2103398 -2.7960658 -0.37085155 2.2270246 1.5120065 -0.7449196 0.43026876 2.3245556 -0.089632824 0.7057343 0.08049077 1.9506372 3.6208405 0.9940873 0.46226543 1.5451553 -0.37097842 0.3242926 -1.8421952 1.1849831 -1.7938279 -0.14559373 -1.4075793 -1.1721004 0.33587217 -0.4735892 1.655043 -3.4003901 1.3080639 0.25965288 -0.39557207 -2.240951 -0.5668719 -1.9009558 -3.3824964 0.5539194 0.837363 2.2930362 -0.5460025 1.6792954 2.8479328 1.2200516 1.4614083 0.24990852 0.7762126 -0.41084406 1.1007533 -0.32726145 -1.6226954 -1.0936136 0.92146987 2.782856 -0.43092018 -0.38283446
white -3.460713 0.19179754 -1.4456068 1.1829243 0.3518107 -2.4136033 -1.6461265 -0.327281 0.40976608 0.49448732 -0.044153757 2.318251 -2.2494886 0.24147123 -0.5992561 1.3196371 -0.5182823 -0.61287946 -3.4215562 -1.914619 -0.1804272 -0.29577994 -0.600866 -0.60523564 1.3877324 1.9358065 -2.47691 -0.87290037 0.49429604 3.495928 0.5090492 -1.3599358 -0.02851217 -2.2546904 0.76407313 -0.24939643 -2.2266233 2.0286758 -0.19837959 1.7606379 -0.3326399 0.11046279 -0.19511689 -0.43236986 0.110893354 -0.32031032 -0.77639973 0.9388848 1.343567 -0.55236644 -0.48174807 1.8051072 -0.25370196 -1.8651445 -0.3325962 1.411779 2.080711 0.14975622 0.31384888 -0.8850717 0.8516907 -1.7313951 -0.67707956 0.023364602 -0.6089553 -2.9494915 -0.7603178 1.3210945 -0.48406038 -1.7988516 1.5154166 -1.4753802 -1.8594494 1.7916783 0.11440671 1.2539736 -1.4194839 1.7525978 -1.8956854 -2.472606 -1.9956338 -1.1452167 0.9506466 -1.3505329 1.1548609 -0.9966312 4.8932242 1.5951885 -0.040000252 -2.2988434 -1.8725705 -0.5236153 -3.3129137 0.9048935 -1.0310912 0.3115375 -0.69447416 0.64170367 0.37770644 -0.15992883
blue 2.5279324 2.1606812 0.24598648 -2.9305358 0.94192386 -0.1277659 0.68269694 -2.4080133 1.2320864 -2.1108818 1.1561913 -1.3455791 -0.04960109 -0.72540504 1.4541872 -1.0563399 -2.994563 -1.804414 -2.6125138 0.029549839 1.4316231 -1.0060991 0.0144252125 -1.0573572 1.2689781 1.3027126 0.31565452 0.21738999 -0.8295219 0.8944872 -2.3358245 -2.3176877 -2.77582 -3.0159576 1.9791911 -0.82779014 -1.335133 0.8087358 -3.63525 0.91025484 0.36389822 -0.4401723 1.9574007 -0.825711 2.31883 -0.15008272 0.89391875 -2.2120526 -1.0953382 0.77776074 -2.0566988 0.10538081 1.4227923 -3.2634952 -2.583645 -1.7263906 -2.200525 -1.2199304 -0.16460988 3.7655156 0.6249005 -2.217189 0.83053756 0.7283871 0.2262598 0.13935167 0.9557987 1.5876272 2.0760922 0.16391131 -1.6538708 0.24272716 0.021427711 -0.6925999 -0.053135764 3.5355883 0.08192937 1.8436453 -0.55489063 -1.7387879 1.2391524 0.9340613 0.21163815 0.012874459 -0.6388765 0.5961572 1.8202394 1.0767454 1.8728385 -1.6977947 0.5410209 -1.0705411 -0.23914686 -0.010510446 0.57281476 -1.483166 -2.2652225 0.81321245 0.97973275 -0.67890716
lunch -0.9074262 0.9865407 2.0576942 -1.67977 -1.4831682 3.2545264 3.8661807 -1.8736639 0.4751937 1.9985259 -0.9015196 0.20541817 -0.32776412 -0.7791352 -1.9404598 -2.1817982 -0.26800165 0.72948194 -2.5493243 0.7104582 -1.3041208 2.2714605 0.3591373 -0.21600708 -0.20690504 -0.76781255 -0.521352 -2.784576 -0.795585 -0.29261425 -0.7160784 -0.08137488 1.4262984 -1.0990942 3.854611 -1.1383501 1.1140627 -0.43788904 -1.8901758 -1.5178683 -0.43879992 2.1042824 0.98157704 -1.4212316 -0.4160085 1.231253 1.0140239 -0.4118566 0.95199364 -0.42048293 1.1862946 -1.0525408 -1.5000923 -0.4799305 -2.1835785 -0.42230988 0.19213687 -3.178805 -2.3045545 0.37831074 0.29048112 0.64226604 -3.0482876 0.4668724 -1.5233797 -1.4535507 -0.9421565 2.2062669 -1.907806 0.4908587 -0.78945285 -0.56724787 -0.8911011 1.5205318 1.1438378 2.444244 0.5176253 0.710689 0.34906533 0.16783549 -2.429523 -0.10356536 2.1075332 -1.4206169 -2.183666 1.1343868 -1.8692517 -0.26582032 1.8108364 -2.0944548 -0.1710943 -2.586241 -1.2075837 -2.7812567 2.5161698 0.21054089 3.3446422 1.1447719 -0.37662888 -0.54831624
hanging -0.25938982 -1.0993861 -0.087979786 3.4260738 -0.09858715 -0.5361779 -3.7161179 1.9350848 -0.99924433 2.0725834 0.86474246 1.5121543 -2.3816013 -0.007801835 -1.8010933 0.5419623 -1.9503328 0.68559724 0.3258786 -3.0003924 1.6629075 -0.91330826 -1.2787206 0.09563249 -0.7901337 -0.1387673 -0.48692852 0.5433696 2.0182984 -0.42607707 -1.939829 -0.23343462 -0.5301162 -2.044346 -1.5955218 -1.4551612 -0.42648542 -2.1241345 -3.0817046 0.08228361 2.0819564 -2.6983826 -0.5948936 -0.5928391 -1.3351268 -0.491871 -1.2470136 0.44184732 1.1318352 1.6202848 -1.3104665 1.0203959 -0.60153973 -2.2684846 1.8771036 -0.23399885 -0.31810984 0.59243774 -1.9362522 -0.82191795 1.464642 0.6569913 3.5135295 3.0284464 0.60687304 -0.32921734 -0.04570653 0.70904607 3.0218089 0.66205907 1.5072521 2.2426379 1.1844751 -0.14393745 1.219604 -2.4430442 -0.03913877 -0.9908284 1.229674 -0.6767527 -0.86233157 -2.9605336 3.7040687 -0.13424721 0.53416395 0.3461606 -0.6925943 -1.732526 -1.8508779 1.7545356 1.925121 0.91268486 -0.5030299 1.8363514 1.5315307 0.79959345 -1.3420581 2.6182783 0.023926513 0.61104935
sign -0.8244818 1.8924491 2.3582518 -2.4561205 -0.17423561 -3.991739 2.4805932 1.7329384 1.9038324 1.137768 -0.011676346 -0.8342585 1.9316074 0.50900954 0.514075 -2.2696989 0.9241397 -2.2530298 0.99171126 -0.6798003 3.5956287 -1.3965031 -0.2897023 1.1882344 -0.5350425 -3.053692 -0.57821786 -0.6175302 0.95793056 -2.0232604 1.1839978 1.4888179 -1.1127653 -1.8939608 -0.04231019 2.0211124 -0.79075766 2.5727706 -0.8285854 -0.05117435 0.5663643 -1.315449 0.58999753 -0.766692 -1.4349642 1.2361927 -1.4517883 -0.11128406 2.3609638 0.38361463 -0.40000916 2.4746041 0.900908 0.73742914 2.9175873 0.58367795 0.8574529 2.4671404 3.3720844 0.7393653 -0.06796041 0.32492968 -2.3849025 2.0382175 1.3218982 3.213249 -0.42084014 -0.61467254 0.5150314 -1.2772913 0.9551311 -1.0103177 -2.7878373 0.5853619 0.7691718 3.6369317 1.5284983 0.20568646 2.5128305 0.9979687 -0.57696587 -1.2316935 1.46587 -2.71108 4.0108824 1.3273394 0.7083556 -0.5583219 3.2198296 -0.16383636 1.8212787 0.7807018 1.57506 -0.6513927 -0.8574608 -0.5756691 1.2468431 1.7009279 2.8968914 -2.50854
holder 1.2325369 -2.3217223 -3.4453635 0.73935 2.9348042 -4.0575275 -0.5571835 2.7440634 0.11180941 -0.32358956 -1.0872263 -0.2697559 -1.7757901 0.08402332 2.2256021 -0.7304384 -0.10377919 0.9321451 4.12953 -1.9205431 0.13218789 1.4071016 1.0313655 -0.95153075 0.1647066 0.56301725 -0.46343157 0.33665836 0.9464469 -0.22602135 0.14574017 -1.8430667 -2.0202975 0.5876201 -0.1057391 -3.0560002 1.5823358 -0.48457903 -0.067302674 -0.5506476 -0.5982588 0.222392 -0.14591232 0.8821399 -3.453987 0.6120048 -1.2791818 -1.0087472 2.7412403 0.5848273 -1.7134008 -0.9134809 -2.6824884 -0.5247836 1.8497642 0.36113268 -0.24243781 3.4728262 -0.7979792 0.4208054 0.9859571 0.539219 2.0683167 -0.5404412 0.44135612 -0.019523507 0.22784299 2.0723417 1.0632377 -0.41427466 2.2762785 1.4699644 2.6595135 0.7531347 0.33091542 -0.3970744 -2.001116 1.3155618 -3.6221085 -0.7131996 -3.1638453 -0.7178356 -0.72757757 1.1041819 3.6838193 1.6222975 -0.22093648 -1.1096689 -1.5052088 -1.146824 0.9230222 1.0345199 2.0244715 3.2145648 -1.4784349 1.7925237 -0.039632525 0.69164735 1.8166465 1.2817966
pack -0.08448143 1.672166 0.8860552 2.207917 -2.5822065 0.6923671 0.7361426 -2.5611331 -0.21435711 0.7613211 1.2668931 1.535498 2.9585333 -0.3379954 -0.38153952 1.3453491 1.5227107 -0.76329315 1.0225646 0.18910241 -1.62795 1.4343747 0.344077 -1.2248648 -1.4370165 -1.2101169 0.09661548 -2.4528959 0.46129087 -0.94155985 -0.42062488 -2.4047205 4.159969 -1.2644796 -1.7684952 1.1726115 -2.921303 -0.2965313 0.6308519 -1.6437507 -1.7373418 1.9642192 0.62242454 2.8561597 -1.7549127 1.402805 -2.1062791 -2.114657 -1.1526004 -1.0614773 -0.4412814 -1.3735992 -1.7366762 -3.7969143 -1.3850703 -1.5265045 -0.29213464 -0.66861844 1.7122102 -1.221365 -0.4835615 -1.4005535 -0.25762653 0.2277627 1.5965991 0.2288563 -1.5631669 1.1405499 -2.3353388 -1.7359176 -1.6140605 -0.4121918 2.0216203 0.15253867 0.18594724 1.7314582 1.2575177 -0.3700114 3.0700457 0.32496268 -1.4123313 -1.9938079 -1.5533589 -1.2355754 -0.32446247 -1.4375211 -0.26913023 -2.3992217 1.7332566 -1.3080925 0.05377443 -1.147245 -1.8213307 0.874889 -1.8679335 -0.3717631 -2.3098323 0.94033366 1.0128441 1.8429718
t-light 0.4024255 -3.955619 -1.9001514 1.7454813 2.242016 0.64149785 -2.5653994 1.9145591 1.731143 -0.20796037 0.73153716 -0.27911916 -0.60885984 1.1415074 1.6489959 0.6689511 -0.7720531 -0.83186245 -0.5910868 -2.515454 1.3952485 0.4716406 -0.41903093 2.6298747 -0.7872519 0.29121867 0.93271035 0.0511105 -0.24647123 -0.56173456 0.3811521 -0.9929344 -0.9393617 1.4488736 -4.399954 -1.7553651 -0.8747212 1.0156527 -0.85949785 -0.5336936 1.5371234 -0.48587108 -1.8287897 2.6903584 -0.9830424 -1.2597173 -2.9479635 -0.14274876 -0.14074399 0.34346804 0.77528554 -0.6180854 -1.3575276 -1.5573877 0.09822487 1.1587647 1.0130651 3.4750762 -2.1697192 -0.42984056 1.6594738 1.0253353 2.3078303 -3.790478 -1.6288568 -0.40716186 0.0027636571 -0.7318944 1.6409627 -1.4214449 1.3428382 0.13314117 1.9409723 -0.3176577 2.1291134 4.5849633 -1.7360338 2.6491501 -1.9829005 -2.5495672 -2.050299 2.4505868 0.8996915 -0.3238064 -0.1407279 2.5550566 0.7858947 -0.6162262 -0.58021414 3.9445765 -0.68280566 0.10743064 1.1157068 2.7489383 -0.4144812 -0.75297695 1.469802 -1.7840866 0.51510596 -1.0538005
paper 0.5902971 -0.3139058 1.1738124 4.052014 -1.17962 0.5876253 -0.17060694 0.13795649 -0.65254927 -0.17588253 2.4022415 -0.033836313 1.4068234 0.869529 -3.8768606 1.1645942 -1.7509639 -1.6672677 -0.6072305 -0.5390822 -1.1617649 0.9465418 0.40802193 1.7341037 0.045609165 0.44588184 2.5468032 -0.6512168 2.5102499 1.8366383 -0.121005915 -1.4899107 3.02478 0.03548379 0.90349185 -0.9091163 2.3704777 -0.36360684 -0.4273855 -1.0062964 -0.23837353 1.2610856 -0.8091873 2.9580157 -0.081387505 -2.3039017 -1.2249553 -0.4702653 -2.817917 -0.83727384 0.7699187 2.0102487 2.4521813 -1.2227231 1.3701298 -3.5371683 0.29286635 -2.7888079 -1.1797278 -1.6735678 0.43989104 1.5441481 0.7251125 1.9383903 -0.0549703 0.7175245 -1.2429307 0.9320799 -1.0743965 -0.6017432 0.25007957 0.6863324 0.5066902 1.4142774 1.7923396 -2.5289223 1.6925522 -1.1109967 -1.0038096 -0.12858768 -1.1024201 0.79903704 1.2323828 -0.9461323 -0.13154955 -1.0271602 0.5546111 -0.8302359 0.06595397 1.2070699 -1.16107 -1.8777744 1.3154968 0.7942649 -1.4229759 -1.7522411 -0.37287357 -0.41631526 -2.6450367 -0.7610454
small -0.9918669 -0.41596296 -1.9835793 0.6937969 0.5047905 2.0012844 0.22687581 1.6070375 1.6488556 2.4632595 1.2392113 -0.8597361 0.017475544 0.20837075 -0.7020549 0.16005296 -2.199793 2.326804 2.4575393 -3.558444 1.8609301 2.8497674 -2.5352778 1.8246126 -1.2432247 2.1345606 -0.22764447 1.052028 2.4171739 -0.45678255 -0.1932962 0.48025295 -0.32460687 -0.74553335 -1.0951202 -1.1597521 2.6065724 0.45788366 -2.430015 1.9650836 -1.4538822 0.09456686 -0.33547243 1.7172458 1.7960122 -0.00058909715 -0.5832274 0.53141665 0.41933525 -1.0874754 1.137711 1.7425433 -1.9109466 -1.0079659 0.42003432 1.4767809 -0.7244061 -2.131465 -0.003299116 -1.096756 -1.3685343 -2.4443836 1.1121701 -0.701218 1.1643848 1.9676002 -0.48477012 0.55403477 -2.2514095 2.0077872 1.786303 0.12816516 1.5944207 1.6937815 0.2451199 3.124539 -0.80953443 0.2632814 -0.40133977 -0.26386398 -2.4657288 -0.5954939 1.3169049 -1.7957971 0.18437956 2.5464785 1.2732502 -1.3410894 -1.8094728 0.2814384 -0.71503603 1.3600775 -0.9430824 3.9458747 2.9134479 -0.37103865 1.372655 2.0493073 -1.967398 -0.9015467
card -2.1260657 -0.71210617 1.7043687 -0.06906431 -0.30079737 -2.1101317 -7.237151 -1.09779 -0.79745716 1.1385673 -1.7763473 -0.29594046 0.35859153 -0.050322723 -0.09148326 2.508334 0.6359829 2.6327596 -1.5683969 -1.2462347 -0.13411397 0.83740944 0.7737987 1.6359364 -1.0345672 -1.0597541 0.5191067 1.0130814 -1.6299825 0.77463615 -0.99703646 -0.49117845 0.83681697 -1.8359833 -2.0553057 0.6776599 -0.30243292 1.56023 -1.2029271 -1.3740739 1.1635656 -0.36421755 1.4104536 1.9286879 -1.5126425 -0.53955 -2.5758457 2.377948 -2.6525345 2.2539759 0.9694425 1.2643884 0.97544354 1.4986149 -0.77399194 2.5585194 2.0833771 -0.069607705 1.1293638 1.5436826 1.2059832 0.14132991 -2.3083103 2.6089978 -1.3300604 0.99729884 -1.5638542 -0.3913169 1.1574483 -1.8992522 1.8694829 2.0374882 2.5939674 -1.0768089 4.574227 1.330494 0.097199574 -0.63904727 -0.7682158 -2.482053 0.06552641 -1.4877057 0.37645528 0.08495792 -2.1961858 0.4254831 -2.5099647 0.14785796 1.5104 1.2212344 -1.7426138 0.05300363 0.05572632 -0.20353869 -1.7027925 2.5475163 -0.78302675 0.29099882 0.70611334 1.3151637
decoration -0.4046469 -2.7753606 -0.1258704 -0.785659 -1.3966941 -1.0721949 -0.8326026 1.9250692 0.22670805 -0.29659933 1.1150737 -0.8022229 1.2417487 0.49749196 -2.850017 3.361128 -2.5144987 -0.48263258 1.477402 -3.8808126 -1.7895958 1.5099959 -2.5205789 4.0564733 -1.1824025 1.217744 -1.3649594 -0.21165848 0.7498946 -0.40129748 2.8101318 -0.88145345 -2.148909 -1.4600921 1.3068674 -1.7855638 0.023854855 -0.55551034 -1.3624794 -0.98096406 -1.0698907 -0.22616357 -0.81295395 0.15962917 0.13919635 -2.4636657 -0.22302635 1.9884393 1.4632696 -1.9922987 -0.7463388 2.5997372 0.95650065 0.5469458 1.6319072 0.77498394 -0.13343997 3.8833249 0.9674364 0.89713806 1.7100526 1.241552 0.13186024 0.03850829 1.088274 -0.34484562 -2.620992 -1.7538193 -1.187917 1.054904 -0.71087086 -0.635353 2.3545835 0.015400062 -0.22482213 0.76180005 0.19336948 2.7018228 -0.23848043 -1.0879322 -0.32942554 0.4026202 -0.5982659 0.3577359 2.457665 3.4637058 -0.5681011 -0.08768327 0.38751557 1.9370565 -0.43804526 -1.0433481 -1.3914541 2.9720156 -0.98383224 -0.826008 -0.4525419 -0.17847113 1.1234534 -1.3758018
wooden 0.14348881 -1.1057882 2.7620208 0.4622915 -1.9394256 1.9395508 0.553214 1.2746813 0.7302074 0.70238674 -1.3917593 0.77374524 -3.0449517 1.4061257 -3.8661027 -0.21102224 -3.7497056 2.070253 -1.2414311 -2.6074626 -1.760997 -0.014562293 0.43272355 3.0079093 0.13658577 0.24409138 -1.4741971 0.057594724 0.66681314 1.5393276 1.0335847 0.018096684 -2.8678083 -0.82922226 1.0207782 1.4485211 -0.08373623 0.4560138 -0.17103276 -1.8888272 1.1260929 -1.253509 1.1769339 -0.86729544 1.3758106 -2.3979757 1.703879 0.75403446 1.9634628 1.3770716 -1.348299 -0.3521067 -0.74215555 0.998696 0.9416397 -2.9471943 -0.494183 -0.040382612 0.332582 1.3685323 2.0865374 0.23486944 1.5287979 2.5340886 -1.0851328 2.097908 -0.7115529 -0.91431856 0.8048176 0.4066106 -1.4424038 0.2501632 -0.21984756 -3.7755344 3.4346068 1.5967371 -0.055742018 0.73652124 1.6708905 -0.3174395 0.4835491 1.088839 -0.50510263 1.0862799 -2.811107 -2.1997807 -1.3847159 0.06646953 -1.6057657 -0.6702468 -0.33701223 1.53354 1.0061734 0.5917005 0.051985502 -3.402952 0.96259713 -0.37477168 -2.335461 0.50768197
polkadot -0.9656539 -0.40287054 0.29235604 2.138274 1.062287 2.1171505 0.6762836 -0.38513497 -0.25136605 1.4738605 1.0287615 1.2041539 1.0431429 -0.99516016 -0.8575053 -1.1744384 0.81536037 -0.9469278 1.8772206 -0.4464411 1.6451069 -0.9384808 -1.2629883 -0.6172781 0.12783328 -2.5975928 -0.36079028 -1.0436854 0.12873837 0.48629704 0.2843135 -0.90156966 -0.37064898 0.16977048 -0.08481499 -1.3180325 2.2041743 -1.1654887 2.1385577 2.783895 1.2363948 -1.764019 -1.3275865 -0.321059 1.2375882 -0.19304794 -0.020920487 3.355923 0.061340183 -0.78683186 -1.4710927 0.5181823 -0.034387607 2.5402923 1.1475717 0.24555628 2.4858673 -2.7381177 0.29426473 -3.8347 -0.7433748 -0.8969621 -1.2496508 -1.5050141 -0.64093906 -0.06346791 -1.0640681 0.69602287 0.002152184 0.29306322 -1.9954649 -0.9493349 -0.2641354 -0.7791714 -1.470695 -2.8941534 1.9498992 0.75220424 -0.6667178 2.8803935 0.22330622 0.2000566 0.7182231 1.8363363 0.96059144 1.1394411 0.8719854 5.0283675 -1.4356601 -0.04498217 2.7575161 -0.32507566 1.2506002 -1.8634211 -0.48768538 0.36533657 -0.6289476 1.0758009 0.87253183 1.5354394
glass 1.124539 -2.7523537 -1.113703 -0.02287785 2.5031085 -0.2365812 -1.3514388 -2.7820487 -1.0712775 0.17661346 -1.1138579 -1.3573117 0.09384626 -0.35437873 -0.51561487 1.2267303 2.1090493 -2.2238731 0.3969732 -2.691268 0.47396109 1.3902415 -0.43647003 -1.0936863 -1.8483162 -2.5655453 -3.1259768 -1.3391535 0.28847414 1.525909 1.5402626 -1.6124668 -0.71740425 0.16970454 -0.22581722 -3.396969 -1.1456215 -0.09955149 -0.2675727 -0.21224181 0.57835275 -4.240167 -3.2470512 0.973133 -0.4466755 3.3384395 -1.2388809 -0.054702576 -1.133662 1.0418402 0.58185405 -0.45086756 -0.23084486 0.28934604 0.44354904 0.060789958 0.14733501 1.4970704 -0.7890038 0.49015808 1.736864 -0.39576492 0.2611642 -1.2830107 -1.25588 2.2346256 -4.6444006 1.4141828 -0.06973231 -0.593418 4.1743994 1.8572079 1.4149932 -0.016407076 1.4020127 -1.6876034 -1.735493 -0.6046179 -1.3184993 -3.5154686 -3.3645024 -0.5955597 2.6488223 0.19644487 -0.042191826 -1.9590297 -0.8805073 -0.53592277 0.6669248 -0.78406316 -1.0459955 -2.2396588 -0.736555 -1.3687224 -2.0474992 1.2131441 -1.4635161 0.89629215 -1.7135228 -1.1196238
cases -0.072602466 -0.026097927 -0.7025397 0.2217147 -1.6765556 -0.16764168 0.4727091 2.5043335 -1.2122632 2.6703014 0.44365427 1.1107702 0.23524117 1.9937644 -2.897329 4.463655 -0.09272664 -1.177651 1.0871488 3.484153 -1.5181121 -0.39469868 -0.7512009 -0.5397891 -0.54803914 -1.1465666 0.9871429 1.7832161 0.02413709 1.0025008 0.97751576 0.45858008 3.7582543 0.28165048 -1.1612942 -2.271401 1.6608105 -0.4239111 -0.20378806 -0.4689617 1.0281214 0.24562086 -0.9394092 1.2195282 2.2044203 -2.9039898 -3.0760994 0.4347341 -0.9069034 -0.6227886 -0.39695236 -0.16932607 0.0457033 -0.61646324 1.521084 -3.1123672 -1.806974 -0.43923017 -2.9478128 -1.0557606 0.7382422 -0.13758361 0.083526 1.770169 -1.2076527 0.10953841 -0.8644334 -4.6432705 -1.6437926 -0.114002936 1.0604656 -1.9656527 2.5013056 2.0958726 1.0499142 -2.0098116 0.31386834 -2.3023112 0.31742015 -3.0932567 0.63030905 3.0578353 -0.03511948 -0.049582414 0.9099423 -0.8518931 -1.1767784 -0.9866426 0.32067138 0.2103017 -1.0878918 -1.0230005 1.215879 -1.0073972 -0.2558664 -0.6421006 0.8369351 -1.1481148 0.54899603 1.1867446
tea -1.3421516 0.7852883 2.4009063 -1.7083116 0.96317214 0.46265584 -0.25953597 -2.1556852 -3.2952302 0.71440196 -0.43685478 0.7291368 2.1646416 1.0409379 -0.8943641 -0.22890145 -1.370291 -0.69395083 -2.0100195 -1.6432638 2.2326164 -0.92671937 0.8115712 -1.4919374 1.8636831 2.9105763 1.3579822 1.8322452 -0.11427819 1.939528 -3.0805266 -0.9681578 -0.6443364 -0.6766488 1.9730115 -1.2227962 1.5756519 0.45374063 0.46341252 1.206205 -1.3209796 -0.42384353 0.5629074 1.4534166 1.2558311 0.18521634 -0.095398374 1.7290213 0.66145545 -3.1046546 -1.3870434 -2.8331683 0.90822756 0.7810877 1.4340161 -1.8029104 2.0112278 -3.52228 -0.11971114 -0.31367293 -3.1810896 -1.1539116 -0.51785946 2.3149745 2.1715097 2.9261658 0.05063385 -0.41150612 -1.3925447 -1.8982599 0.9925923 1.4556743 -3.020209 -1.0410577 -0.24933203 -0.1140506 0.86662024 -0.9061327 0.5475483 1.6452762 0.14290349 1.8862759 -1.4506443 0.13208425 -2.2905505 -0.69365615 0.9462829 2.8242323 3.373342 -0.69385123 -1.7935857 -0.777916 1.0801021 0.95938766 -0.5582226 0.12138467 3.4381475 -1.467464 -2.0795517 1.7765254
bottle -0.07189588 -2.0632434 0.98043764 2.5080311 -2.1787112 2.2518685 -0.85228986 0.49069506 2.6931648 -1.5804416 1.3609092 -1.0764675 -0.48443654 -1.0429074 -2.6016273 -3.8145125 -1.4183335 1.2943964 1.7294686 -0.8612185 -0.058166783 -2.0279236 -2.4195368 0.7493745 0.63544476 0.5598558 -0.65459645 -1.618451 -1.0001562 -2.5908654 1.7516226 -0.94673187 2.2557006 -1.9453809 2.3480108 -0.8196994 1.2346016 -0.7087212 -1.0217042 0.5870364 -0.4118674 -0.616068 2.835719 1.2946547 -1.1792854 0.53077 2.0781696 0.42803472 -0.54960823 1.084897 0.12096987 0.020983914 -1.7654377 1.0617933 0.029019993 0.21618998 1.3302803 -2.7777197 -0.8528844 0.38409144 1.2793221 -0.6241985 -0.7462449 0.87644506 -2.1276608 -0.4092269 -1.829356 -0.9899922 -0.9054321 -1.3922906 0.35469842 -3.1790092 1.9890482 1.2602055 4.4570427 2.6580422 0.49644062 2.3608668 0.6933461 -0.02605939 -1.8408875 -2.401042 0.48544514 -0.11859481 1.4742736 0.6659136 2.109428 -2.4782727 0.9407833 0.6709707 -1.9711729 1.4188969 2.001931 1.905736 -0.0027171925 0.6980076 -1.6085097 -0.8816712 -0.4117076 -0.7155203
and -1.8840022 -3.8377604 3.1260412 5.101996 2.5068548 -1.0840746 0.57788146 1.8979864 2.654136 -0.934649 -0.825969 0.6093363 1.5557085 0.9341054 -0.53696233 -1.0543854 0.43472797 1.0928324 1.1760855 0.77305156 -1.5120285 -1.3419762 1.4109372 1.7442713 0.9630345 -0.3662797 1.9669974 1.9327677 0.7665975 1.2138529 0.1118705 1.5656224 1.7598884 -1.4584429 -2.9795363 -0.37028155 4.6024556 -1.2038739 -0.2750288 -0.29053882 -1.2650108 -0.031566296 3.5090833 -1.9195257 1.1190181 1.6339457 -1.728145 2.4036767 -0.09968367 -2.2835824 1.4592818 -0.14791772 0.6253754 0.76631635 2.1600518 1.2234626 -1.0038885 1.0050588 1.4757173 1.475141 0.7433002 -2.3552976 1.3828678 -4.7389536 -0.9265821 -1.8624369 -3.3259776 1.2224532 0.06822515 2.9678745 0.49054107 -0.058474347 2.1937938 1.9756101 0.09289828 -1.0453786 0.4306938 1.8932946 0.5365544 2.4513986 -0.46738154 -0.77540004 0.49329686 -0.22396515 1.3710276 -0.7153219 -0.113451414 0.8473153 -1.7252245 2.0634785 3.9935684 0.3320366 0.7312256 -2.1439164 -0.7037123 -0.20380561 -1.440243 -0.121876635 0.12078134 -0.16640478
spaceboy -0.3820098 0.49688768 -0.82223904 -1.484048 1.4615811 2.1254694 3.565057 0.5122356 -0.2599164 0.22270368 1.4053906 1.1884828 1.8647381 1.2164744 1.5062764 -0.6714907 0.3068641 -1.4411788 -0.88843834 -2.0561526 0.51143914 -1.7123382 1.417038 -2.9230907 -0.38881156 -0.24302946 1.2747314 1.9456562 -1.9019974 1.1655542 0.05458523 -1.2656578 -0.51249593 1.8197925 1.9705933 -0.3930304 -0.045112975 0.31373337 1.1973007 0.033891402 -0.9764461 -2.1637394 -0.048487145 -1.1730154 2.113257 -3.452134 2.3352265 -2.2442772 0.5551714 0.10478254 -0.9389042 -2.0359962 2.1019187 -1.5778326 -0.3018689 -2.0142913 -1.5568123 -1.7533758 -0.6975279 1.3766422 -0.31797913 0.8995787 0.78882384 -0.83646053 -2.1864123 -0.99853265 2.0401366 -0.106872596 -2.0820756 2.5054674 0.08605643 1.2644507 -2.3338027 0.28490773 -0.97636247 0.2301512 0.2884431 0.7497173 0.06454641 0.86381453 1.8040959 0.44368252 1.8052663 1.331041 0.656592 -0.17503932 0.18920149 1.6634514 -2.2833703 -1.9713099 -0.6530752 -2.0211926 1.186284 -2.809449 0.80475736 -0.22110318 1.4532638 -0.10717072 -0.15567786 -0.2824864
hot 1.8554941 -3.2789843 0.9187995 1.4577345 -1.1918514 1.7540252 -1.0282605 -0.17247185 0.76805323 -2.4250386 3.1018114 2.2464092 -4.0388985 3.451958 -0.89830244 0.184941 -1.5601231 0.2606389 0.38821626 -0.2602546 2.2419004 -1.0981028 0.45563868 0.85010636 0.59047025 0.74405974 0.80389804 -2.2968419 2.8878224 0.0042357203 1.5458511 -3.464168 1.3875347 0.30492598 -0.3536221 0.78077507 -1.3802148 -0.11595808 0.036802705 0.35413858 0.9028599 -2.4075584 0.42862886 0.8675946 2.2228308 1.7074028 -1.5622839 1.0618771 0.3181418 -1.8371356 0.4461864 -0.10932437 -0.16449176 -0.32708263 1.4957528 1.0264899 1.03035 -0.5369034 0.9720418 -1.2566936 -1.5675895 -1.3598841 -0.02659092 1.2562622 0.34869212 0.9345357 -1.8448263 -1.4152298 0.31577733 0.7980293 1.846274 -0.5068319 0.9914609 -1.6373173 1.0271894 0.86696666 0.99004275 -0.85500246 0.8563228 -0.497988 -0.76835406 -2.284369 2.8873432 -1.9646041 -1.2316775 0.42234123 -0.46378797 -0.3556889 3.2094433 2.946773 -0.7429491 -1.8647411 -0.32324338 0.8419734 -1.2718554 0.72817993 -1.6636549 0.17455672 3.1152265 -0.16744548
water 1.3968225 -3.346177 0.41454446 0.099882565 -1.2897403 0.36594447 -3.4009254 0.3503112 2.2957783 -0.9654901 2.1343095 -1.7732882 -0.49334222 2.2782385 -1.1666975 -1.9822334 -3.9273615 2.2130597 -0.44364062 0.80340993 2.2634163 0.67980623 0.01301687 0.50340766 -0.63812786 -2.134936 1.3847276 -3.4480083 2.2446327 0.359949 -1.1483711 -0.9040124 1.0317159 0.5660065 -0.5643005 0.35100317 -0.7478348 -0.26923686 1.052905 0.1538852 2.008313 -0.23377839 1.8421234 -1.1708521 0.9048579 2.0725937 -1.5769973 0.65971416 0.13382968 -0.9645201 -0.21400622 -0.8596689 0.9652085 1.7596238 4.255562 -1.4741888 1.4238912 0.2114413 2.0119112 -2.9578795 0.95139635 1.3881401 -1.575965 1.3298645 -1.5556449 0.02365052 -2.1200562 1.9319159 -0.65282613 1.3116398 2.2010283 -1.2584215 3.5980437 0.95610243 2.400644 3.2434978 0.3862398 -1.0119427 -1.0066051 -0.2556835 -0.26940942 -0.85700476 1.862653 0.78210694 -0.29260337 1.2267867 0.85042995 -0.31895658 0.7111045 1.4454851 -1.6571076 0.14433739 1.2033533 1.4327893 -1.0715015 0.48945946 -1.5141635 -0.6643912 0.37872094 1.1757377
with -0.6291828 -2.925621 -0.6553853 -0.0026059083 -0.86923796 2.358651 -0.5174638 1.6168141 0.13485608 -0.06132647 1.0117588 5.242008 -0.6637922 1.7928451 0.45053577 3.3271542 -3.147446 3.180909 -2.3402665 -2.8144042 -0.076223604 -0.37443835 0.206623 -2.0797276 -1.0132955 0.19610372 1.3411072 -1.864496 -0.81042427 0.7655958 1.3256917 0.96981627 -0.4294969 0.018346941 3.0512323 0.9846941 -1.7096641 1.0773785 0.63951427 0.07120163 1.6765074 0.62452173 1.0413913 1.2190411 2.4038725 0.5712612 1.8200331 -0.4425893 2.4827387 1.7796826 -0.07240978 0.58874065 2.4964945 -2.8252697 1.8589233 1.6952266 -0.17879036 2.9112635 -1.1136267 -2.7366636 1.3310381 -1.4384376 0.7420709 -1.2708826 -1.3518817 2.9656444 1.4785906 -1.7740847 -3.8338804 0.82534057 -2.0249176 1.9635756 0.32686764 -2.3702974 -1.4410223 0.9071738 2.0227942 -0.3265833 -2.1707742 -1.7819887 -0.8875831 1.7496202 -1.8237607 0.55359215 0.41903487 1.1194763 0.73401123 0.9690094 -1.0794328 1.0538086 2.1923773 -2.903069 1.2055386 3.2550194 -3.6671498 -0.53783184 1.8622307 5.5602026 -0.2589156 -2.6732006
large -0.57524383 -0.038304426 -2.2148411 1.2849734 0.97989696 1.8007962 1.1254805 2.2376175 1.5454603 0.77769387 1.3498801 -1.4779056 1.5554746 1.1929873 -1.9578333 0.8713049 -2.4976537 1.0833169 1.7152597 -2.756017 -0.52544796 2.4910064 -3.5254583 2.5210187 -1.379032 1.1030046 0.46925014 -1.2858983 2.2274938 -0.66397583 -0.7914774 -1.5399269 0.09695462 -0.076126695 -0.6923369 -0.9515517 0.6412016 0.011960013 -2.7443013 1.931032 -0.18779168 1.6424041 -0.926298 2.4127903 0.14923595 -0.15855943 0.23894884 -0.16486964 -0.2743239 0.25248018 -0.56711864 1.3618083 -0.80471015 -1.0887899 1.2898481 -1.3888906 0.10167342 -1.2402453 -2.956446 -1.3993983 -0.16497998 -2.8150606 1.9192233 -0.16668577 1.8174055 1.8663049 -2.1568496 0.14319223 -1.4637307 0.9062109 0.87513554 0.23659287 0.6786741 2.6676729 -0.043498017 1.956061 0.581102 0.13006996 -1.8411732 -0.6648169 -3.284685 -0.9149542 1.5777135 -3.2574952 0.19551297 1.1956077 1.9334198 -0.2957311 -3.791902 0.5216832 -1.6161556 -0.5839816 -1.2209587 2.6251037 2.4205906 0.11704631 0.6815187 0.9445044 -1.0681616 -0.6365592
pantry -1.153447 -0.3533496 2.139028 -1.8748139 1.0910369 2.3825896 2.005567 2.136612 -1.0429484 -0.16906169 -0.8892328 1.181885 1.0246992 -2.2736142 -0.4707953 0.44983435 2.6081533 -1.7534877 -0.13265659 1.9888899 0.38247457 -2.2570667 0.20407322 -0.5889865 0.24541941 0.16048135 3.4184105 1.2781371 -1.5467752 -0.32891235 1.2980396 -0.95566815 1.6002302 1.7012513 -1.3421701 0.16975357 0.08267998 1.6338159 0.25651115 1.3674064 -1.1153456 -0.34060058 -0.7958253 -0.9864616 0.55423707 -3.8707345 4.573369 -0.6104145 2.2155828 -1.4825053 0.1947357 -1.3912982 2.1084497 -1.5307748 -1.3831996 -3.67925 -2.6342394 -2.2772675 -0.24588121 1.9026995 0.89092815 2.0587902 2.1346674 -0.08225691 1.0380856 -0.26914525 0.39697194 -0.7497577 -2.6981783 1.8972328 3.139136 2.6534 -1.5063599 -0.67500293 -1.8172977 1.2557096 0.35318467 -2.9688408 2.2696676 0.8737706 -1.7441359 1.0925014 1.6601125 1.753903 -1.8370916 -0.37894875 1.7604073 0.5504277 -2.2253811 -0.90172786 -0.2745716 -0.6642462 3.2110662 -3.1591132 0.8160344 -0.88857603 0.0820639 0.38467193 -0.92938983 -2.4518483
home -1.8268954 -1.1022458 -2.2388427 -1.2131035 0.8544722 1.2414117 1.2942098 0.85463345 0.4793802 2.4233716 -2.7438843 2.408891 -1.0309489 -1.3723617 -0.97878057 -0.8778482 -0.58933526 -1.3878918 1.4932506 -0.8835057 3.6777582 -2.1253288 -0.5540791 -0.08680254 1.9564347 1.6884513 0.6835196 -1.637205 -0.1001041 3.2242591 2.0768275 0.383448 0.6929388 2.0914207 -0.36140746 -0.7550642 -0.35349697 2.3702102 -1.6024832 0.9325049 0.061091404 -1.5728474 -0.050727766 -0.9281559 -0.51633674 -0.90210956 -0.26040637 -0.9647353 -1.191013 -0.5340951 1.0525677 0.71604246 0.44333547 0.41973665 -1.2389983 -0.90233076 0.037069965 2.7576962 -0.122995235 -0.13032964 -0.40886068 1.0606722 1.0739012 -0.6575876 -0.4732483 -1.1720264 -1.77481 2.4014068 -1.116254 1.5757592 -0.33293936 0.41791627 -1.3509264 -0.95785415 -0.42655042 -0.8770808 1.7457222 1.1595933 1.105679 0.61944616 0.9886372 -1.0284309 0.7167176 0.5801023 0.44063026 -1.0007869 2.5597036 1.2879535 3.2488284 -0.22248745 1.5630095 -0.2154813 -1.4190121 0.14822567 -1.9179658 -0.10624581 0.39869836 -0.7070684 0.051723048 -2.3670356
tin 0.09226577 2.1142983 -1.9216712 -0.24937208 -1.75569 -1.8589531 0.04527475 -2.247709 -3.2497945 0.22455002 1.8617879 -3.235731 0.56396157 0.3277491 -1.8387595 2.7044785 1.6802773 -0.99421144 0.3907259 2.8098822 -0.5022359 0.6244918 -0.34476742 1.360444 -3.7422595 -0.056709953 -1.1023468 -0.2197047 1.7472687 -2.3954802 0.6205513 0.27431452 1.1038374 1.0196986 -3.4903495 2.3818984 0.09993426 0.55284756 -1.9930395 0.18875347 -2.2092104 2.0586812 -0.08449486 0.7793069 -1.6537161 0.6488244 -0.69479465 -3.0754774 -2.3984644 2.8679464 1.0099232 2.7369323 -1.3574429 1.6859143 1.7808495 -2.7537534 -1.5875152 -2.7276711 -1.6447328 0.7459943 -1.650627 -0.16991377 -0.6651122 2.9476104 -1.233869 0.665206 -2.5278773 -2.0028398 0.850619 -2.6551514 2.2494228 -0.76852024 1.9809434 -0.121234335 -1.441654 -0.7773019 -2.372647 -0.30569804 0.51936364 -1.6022205 0.8864633 0.25006202 -3.1846387 1.4534256 1.6232542 -0.64724416 -1.2007821 1.6361383 0.08676711 -0.1596826 0.53987193 0.2163971 -3.7226713 1.610152 0.8903361 5.0774684 -1.7063874 0.8664363 0.69532824 1.727385
rose 0.2944579 -0.8638355 -0.5451384 -1.2767037 2.186962 0.19158494 2.638723 0.26040655 1.9525752 1.3371141 -0.99607646 -0.19862396 -1.2221313 -3.211963 0.7331662 0.11525198 -1.5758842 -2.090616 -0.4045831 0.8327891 3.4180233 2.731077 0.8868872 1.1111175 2.307173 1.4608523 0.44586062 -2.469452 0.004035664 -0.44405416 2.9491599 -2.942867 -3.6029963 -1.0452883 0.20966461 -1.6437391 1.4936292 1.2671262 -0.17540011 1.1843864 0.90130305 1.4039828 -1.1670188 -0.6962965 1.1095557 -1.196677 -0.9020963 -0.4788031 -1.7068368 0.045589704 -1.7535129 0.44807866 -1.8666341 0.7163267 -0.026804106 -1.4190481 -0.039043505 -1.839511 -0.21194825 -3.8343723 -3.6490939 0.020047227 0.07152869 -0.2623597 -0.9574582 0.2488482 -4.5444174 1.4159108 2.0052102 -1.9528143 -0.22636995 0.7563646 0.70821494 1.2733315 -0.30868402 -1.5654111 -2.4031863 0.45065442 2.9612782 1.5531306 -1.0534904 1.6941497 -3.1995916 1.3346438 -0.29709494 -0.21051858 -0.65309924 3.1680527 -2.6008387 -2.2188804 0.38868907 -3.2686543 -0.901839 -1.4432842 0.5466457 0.20663573 1.5376246 0.413927 -1.461414 -1.0266964
paisley -1.0170044 2.179369 1.9084799 2.5813017 1.8860512 2.5141866 4.8941774 -1.0204135 -1.2406127 -0.48352906 0.98780257 -1.877081 -0.33564368 -0.25178885 -1.0925726 -1.427541 0.8012993 -0.9750258 -2.5186138 1.951709 1.4470562 -0.54336244 -2.3944368 -0.5050919 0.7485766 -0.7176955 3.443026 -0.40177023 -0.581638 3.1978858 -2.979575 0.41019574 0.61013293 -0.23187725 -0.78011215 2.114792 2.8452692 1.7900348 -0.24307074 1.0062416 -2.6995323 -3.9737499 -0.5732514 0.31761727 -2.5071852 2.7042007 0.34582165 -1.271955 0.15771034 -0.42133796 -0.69627273 -0.36464655 0.41258764 -1.9874074 -0.9739862 -2.424863 2.3703046 -1.5420846 -1.4814916 -0.75040185 -1.1073697 -1.5589807 -0.9112073 -0.3303932 -0.28351572 -1.7965204 -0.9557785 -0.019663367 -1.4564207 -1.4810961 -0.35604134 -1.7027386 -0.5533498 -0.1115001 -0.44862172 -0.6924556 -1.3326226 -0.62231946 -2.1751308 0.48137668 2.2333152 0.97087127 0.019281417 -3.6923707 0.5267564 -1.1127021 -0.09480884 2.6827526 -3.3514647 2.039184 0.093724765 0.19207744 -1.3913951 -1.0494264 -1.6405104 0.70035815 0.21450873 -1.907829 0.30011094 -0.29919326
ceramic -0.056429237 -2.7983968 -0.2779332 1.5886261 1.9809355 1.0148722 0.11877331 1.8500257 4.7591763 0.74551433 1.0920233 -0.24574322 -0.93325114 -0.18693338 -2.3287387 -0.22620927 1.5174676 -0.88978183 1.0046499 1.1564273 -0.0004581197 -3.6765792 -1.4224286 1.045965 -1.3561882 0.3014899 -1.0140929 -0.6542874 3.6590714 -1.9598413 1.76245 0.48208636 0.49220026 1.8846786 0.24177128 0.49606723 2.3266351 -1.0148572 -0.032799665 0.77515453 2.167581 -0.5407741 -0.8766351 -2.2398124 0.03610075 -4.6591716 1.0536431 -2.1185498 3.086926 1.957745 1.601376 1.068758 1.0311838 0.3521728 -0.2312951 0.7707429 -0.055375703 0.5794167 0.6380937 3.432123 0.7185855 1.8834577 1.1852857 -0.6734375 2.3211484 2.0433555 -1.845216 0.91245973 -2.8374095 -1.4424956 2.2707465 2.6982572 -1.5592247 1.8465376 1.151851 0.9473803 0.6246405 -1.1470885 2.8592525 -4.501583 -0.8230268 0.9800574 0.5916184 -0.6111028 -1.0003691 -1.4253695 0.818086 -3.4180534 -1.0378792 -2.6811938 -3.7301342 -2.3405125 -1.6393659 -0.5201724 -1.9692085 -0.6465051 -1.9775007 -1.1190499 -0.70056933 -2.0876963
regency -0.22475348 -2.771539 0.039669044 0.5485232 0.55213714 -1.4553807 -0.27263987 -0.383786 0.20094468 1.3926241 -0.68816495 -1.3626366 3.3467915 -0.76114947 -2.0563507 0.8349843 1.4871135 -0.95227164 0.5809981 0.12805264 1.4240662 -4.3078985 -0.48420897 0.84997565 0.39717802 -1.0362 1.0844905 1.1656551 1.5202887 -0.3815985 -0.58186615 0.020055875 3.5638804 -1.3010938 -0.95163494 1.3020232 0.4569367 -1.7246974 0.84956276 0.9966093 -2.3663032 -0.73064506 -2.6371505 0.16922344 2.1894372 -3.1173532 1.8620936 3.2858949 0.3051374 -0.7361719 0.5580362 1.5038518 1.9419254 0.38440898 0.850375 0.4165465 0.28565678 -3.1409786 -0.46210623 0.18450838 1.0276756 -0.96690905 -0.07104666 -1.8252968 -2.778076 -0.22662601 -0.66792667 -1.0461833 0.53746384 -1.6679008 2.0934868 0.326792 0.050708074 0.08820009 -3.590248 -0.37260246 -1.1887565 -3.4112475 1.2277333 -1.4086862 0.6114708 -0.30046222 0.50572413 -0.974112 -0.016775839 0.5350609 0.72615045 2.0116475 -0.7292569 0.7665308 2.519131 -0.25045952 1.5738653 -1.0782641 0.41861194 0.009397897 -3.6335566 1.2871637 0.22601725 0.19244018
green 2.239258 0.57612556 2.3792958 0.16667375 1.1891145 0.037940387 -1.0889915 0.9943373 0.33623368 -0.05553237 -0.88001513 2.3254633 1.4469199 -0.17215793 -0.19720158 1.2006484 -1.0498023 -0.3844365 -1.0347749 -2.144955 1.2082255 -3.4890716 0.6584016 -1.8342625 -1.1245754 -0.2729118 -0.32887074 3.8285763 -1.9904981 0.2604145 -1.6087875 -1.2006043 -2.7929766 -0.18119791 -1.8233361 1.5023084 -1.7701164 0.7397185 -0.6902256 -1.9575655 -0.22532193 0.045107752 1.2243966 -4.989986 -1.7346507 -1.1205932 -0.14605653 -1.8279315 0.4206325 2.524317 -1.5015217 -0.19641055 -0.9884265 -2.658883 0.5035125 0.10213784 -1.1698054 2.8912096 1.414947 1.5329957 3.1087701 -1.5981884 -0.6127832 1.1228747 0.71960574 0.05522437 -1.8755753 0.6367374 1.4252441 -1.6875715 -0.04042889 1.853142 0.44879717 0.50940734 1.2197937 3.8505337 -1.4117991 -0.9033192 -2.901315 -2.2930646 0.020106032 -0.9919917 -0.42193592 -0.75584614 -1.9156107 -0.21934108 2.3364415 0.4422959 -0.5171949 -2.3218908 0.15983592 0.39295095 -4.6173425 2.2191982 1.4026666 -0.36273563 -1.5341861 0.50636756 3.0423653 -3.7174118
dolly 1.1150913 0.19362243 -0.5613076 -1.8750792 2.5604212 1.7988479 2.4198112 0.3400358 -0.5515082 1.387276 1.0040554 2.903116 2.5021517 0.023816247 1.7129211 -0.9775574 0.95348173 -2.3974993 -0.33136946 0.035430435 -0.57850045 -1.7471113 2.5625713 -1.3398597 0.591674 -0.7474942 -0.51222044 2.5917737 -2.7814682 1.0035797 -0.100014776 -1.2932895 -0.49271116 3.1230516 2.5448167 0.40299207 0.42977315 1.192008 0.840322 0.9936458 -2.752066 -0.57954156 0.7701847 -0.011165066 2.1522405 -2.40004 0.84065056 -1.9179534 -0.50376266 0.07597669 -0.0070918184 -2.628573 0.39479572 -4.393146 -0.15836892 -1.6024241 -0.8066752 -0.27510244 -1.4386557 0.18954292 -0.8029511 -0.069699 1.7174269 -0.17002924 -2.5320442 -0.36049682 0.99237746 -0.77213866 -1.3565598 2.069802 -0.39911985 1.7790756 -3.1776836 0.54200214 -0.11323486 -0.85070133 0.06993444 -0.3552073 -0.527617 1.9556335 3.1154819 0.98376787 -0.952688 0.6517902 1.0837038 -1.5152061 -0.05171523 0.27814138 -0.1537632 -2.3286748 0.5005755 -1.1422999 -1.4973891 -3.537253 0.91602254 -1.2475055 2.1969123 -0.10363128 -1.1080477 -1.5238761
doormat -2.4620657 0.29687294 0.7539598 -1.2056615 0.59686905 1.042959 -3.0052536 -0.7564721 0.6962599 2.0119665 0.08701427 -1.8983221 -0.28985995 1.6037669 -4.1826115 0.40173927 1.4376913 2.8428655 0.5388551 2.061451 0.6552695 -0.21267979 -1.7986076 -1.5073082 -2.0977786 -2.4357142 0.8090412 -0.45731416 1.6890706 -0.13409178 0.6040529 1.5170048 2.3121035 0.52874255 0.2845611 0.76315564 -0.13781436 0.781133 0.08278359 -1.2685444 -0.58326185 -0.36528626 1.4132668 -0.26126772 -1.0534021 0.52328926 -1.0300369 -1.481 -0.1303701 0.66012746 2.6066802 0.779877 -0.779021 -0.4244481 -0.39371184 -0.5765027 -1.1190666 0.90392244 -2.9817939 1.1982528 -0.08651856 1.2287337 -1.711311 1.8756906 -1.68755 1.1517385 0.3239467 1.319184 0.12552729 -1.3227692 2.6883712 -2.6801615 1.3751445 -0.29993302 0.24288674 -0.8376138 0.9134895 -0.1379692 0.5187963 0.46724737 0.29916432 0.5552893 -1.7214117 -1.2250776 -1.5656337 -1.0748714 0.58576393 -0.16743691 2.7021427 -1.0051761 -1.8429836 -0.008719435 -2.5602443 1.6759979 -0.16897705 3.4147832 -1.6130124 -0.9978997 0.6415988 0.35951903
mug 2.3442087 0.106266096 2.650959 -1.5539874 -0.3137009 4.851103 -0.8943784 -0.5695067 0.97831285 -0.059803862 2.0442374 -2.5022268 -0.18728484 -1.8526666 0.71384394 2.013207 1.6899551 0.5838214 -0.82056713 2.4364877 -1.5957565 2.571582 0.8678726 -2.6443927 -1.6082306 -1.8985056 1.0458483 -0.5959971 -0.58356076 -3.5773842 -1.8043782 0.32910335 3.221123 0.44529974 1.0667075 -1.1880051 -3.1938515 1.7219816 2.1256223 -1.7373846 -1.6252257 1.9948453 0.44396836 0.5705641 0.42257917 2.3325543 -2.5913923 -1.2626979 0.40843242 -0.045398213 1.3048103 0.23973669 -2.791262 -0.35083613 0.6638928 -1.4692677 -0.67978376 -0.6222401 1.2560351 2.4990492 -0.90080976 1.3561509 -1.3412145 2.7641542 1.0496575 1.4294187 -0.24037138 -1.5493574 0.98255074 -1.3888168 -1.330915 0.9579033 1.7176856 0.16786659 2.7534478 0.8458089 0.38247314 -0.23777069 1.0574058 0.90044326 0.42033845 1.1173728 2.1711369 1.0477601 -2.0026906 0.11719023 -1.6539909 -0.13158952 0.08310261 -0.4176135 1.0905862 -0.4127277 -0.6582919 1.1076864 1.9064802 0.3676242 -3.3105807 -2.012992 0.045123816 -2.353731
ivory -0.7707378 -1.8536493 -1.479484 1.7661028 2.0339563 -0.5188603 0.53610915 -0.9034686 -1.0852847 1.143987 -0.94880927 1.4898361 -2.1297607 -0.17263527 0.53145945 1.2589816 -3.3479629 0.75000864 1.1021405 -0.70242316 1.7317913 -1.70705 1.8174973 -0.8731192 0.97073805 -0.0029374459 -3.485826 3.347542 -3.8121104 2.0099456 -0.23567103 -2.4999993 -2.7895017 -0.881119 -0.79722697 -1.4825627 -1.3336395 0.8800015 -1.2616475 1.0380429 -1.7054366 -3.638577 -0.89275765 -1.22773 -0.056827754 -0.8749936 0.9513973 -0.30622205 0.29337898 0.77211237 -0.84294343 -0.700298 -2.1200037 -3.0849187 -0.64290065 -1.3407758 -0.45783573 -0.61390674 0.65193456 1.5423127 1.1159153 -1.8983428 1.2765572 1.1429819 -0.02999931 -2.488803 0.970078 0.102769494 -0.107112385 -2.0568345 -1.1837978 1.603622 -0.98503065 1.8904467 2.6279323 2.5266094 -2.3543174 1.6468538 -2.2412524 -3.3217108 -2.3192008 -0.17546697 -1.3347708 1.6855593 -1.9645467 2.8597763 4.3127728 -1.320803 0.27693194 -0.22118808 -1.5327293 1.7789252 -0.60668796 1.6253504 -0.73890823 -1.4748505 -3.2197256 -1.5048656 4.604072 2.1677954
mini 0.98197794 -1.4801543 0.9672772 2.6727188 0.33878103 -1.5624574 0.36763158 2.4745765 -0.7414207 1.3659121 -0.8481981 -0.7153839 -2.0204797 0.036085308 0.5966163 1.0343021 0.6170986 -2.7351325 0.22084244 -0.26124594 0.01267192 4.1571193 0.22336031 -1.3731643 -1.2043246 2.505402 -2.4191124 -1.357864 2.361647 0.9270159 -1.0325013 -0.6222996 0.58793277 2.2889376 -0.7762806 -0.82301533 1.0231948 -0.8468417 -1.3791097 -0.41496333 -1.2064981 -1.1748116 -0.2135986 -1.1491618 0.47116104 -0.373782 0.8578145 -1.4248636 1.8978789 0.035774224 1.655886 0.7051455 -3.1667497 0.13422818 -2.413492 -0.17994608 2.3616717 -3.3106081 1.6280825 1.1153024 1.2127808 2.3423834 2.7063613 -1.4688044 1.9695776 -0.25083604 -0.112665825 0.7438083 -0.3814657 -1.381014 -0.44746798 2.5844734 -0.014807734 0.29111698 0.5708194 1.8042161 0.1187138 -1.2505971 1.6470618 -3.6461082 1.5231345 2.2408001 1.0262347 -0.5187115 1.4608833 -2.2518923 1.0934246 -2.8283927 0.5665831 2.32051 -1.2082006 -0.42326948 -2.6433427 -0.86826724 -1.7141659 1.7703408 0.6948207 4.960368 0.3835118 -0.9963797
cream 2.1107519 -1.299246 -1.6265135 1.0647454 0.22403412 -0.87910163 -0.0069694533 1.9984057 -0.76871663 3.3184328 2.3278456 1.126111 0.34303805 -1.4095138 -0.5707989 1.0139166 -1.3667091 0.17522323 -3.1305554 -1.8028675 -0.089390434 -0.34104666 -0.8856861 -0.49268577 -2.72704 -0.04503696 0.5736057 -1.9510738 -0.10006984 -0.054830346 -1.9365462 0.8028941 1.1785872 -0.51253814 -1.4867105 1.6094545 0.87719494 1.2053269 -0.9253274 2.1460032 0.72034186 2.7591717 0.27008858 -0.3914146 -0.32527465 -1.6568713 1.3288032 -0.29769012 -1.2849056 1.668082 1.5547296 -0.691849 -0.046909023 -2.507795 1.464534 -3.3077838 -2.423258 -1.7529997 -1.9527688 2.992363 0.85627216 -4.3126607 -2.8235059 -3.2266545 -3.2225597 -3.0910685 -1.1061065 -0.5897985 1.8400462 -4.609321 0.9294507 0.53124225 1.0104923 0.4060966 -0.72914034 -0.7827195 0.2251423 -0.64305073 -3.8699918 -1.7188956 0.93169606 -2.561196 -2.8702693 -0.6928272 -0.7221563 2.417711 2.1882737 0.2858334 -2.2297945 1.7110354 0.2901181 -0.42527097 -1.3126947 4.051126 1.7480302 1.0529655 0.26017568 1.495201 -1.0394859 -2.299742
bunting 1.1732348 0.7932193 0.40091106 -0.37602448 -0.6622274 -0.149554 -1.4968051 -2.354555 -1.9121617 0.6051853 0.60510486 0.20124447 -0.028153323 0.00034307753 -0.9178413 1.7419128 -1.711616 1.4412972 -0.5690697 2.4338717 0.9671979 1.1657367 -1.0821446 -0.28706118 -2.8394666 -1.741417 1.1480345 -1.4054153 2.143679 0.4979553 -0.235446 0.45767412 0.6149821 0.13154094 -1.6754559 0.8705064 0.4102648 1.362294 -0.329367 -0.69684136 -1.4342598 0.97382724 0.1476789 1.9325218 -1.3140287 1.9471042 -2.2826488 0.48596093 1.2484252 0.57103825 -0.048042588 -1.7290124 0.9570706 -0.7332221 -0.9821263 -0.12693201 0.8869062 0.7486725 0.9744684 -1.1675844 -1.7343339 -0.37298203 0.60756254 -0.40347296 0.32239053 2.085641 -4.6053047 -0.17306657 0.17418084 -0.84833366 -1.3118837 -3.8404741 0.5631238 -0.5372461 1.6749542 -0.7325612 1.8193736 0.43427995 0.5764813 0.2856325 -0.35948858 3.1663537 -1.0858912 -0.72257537 -0.14627112 0.7111344 -1.9255726 -0.16205053 1.5725844 -0.9746423 -1.2492192 1.2773384 -0.39791143 -1.0134054 -1.0664688 -0.9007917 -1.3222252 -1.5450987 -0.18966788 0.8520555
love 1.7145914 -4.9916472 -1.2421236 1.6318631 0.2543427 2.899912 0.862833 3.2963257 1.7492115 3.1359143 -1.9763639 1.563585 -0.6938974 -0.72096765 -0.78856105 -1.3845826 -1.2498573 -4.0794997 -0.9185924 -3.0395439 2.6112049 0.7967737 0.5804872 0.7837928 3.7039895 1.1496736 -0.99900085 -0.39784843 -1.5709201 0.3361963 -1.3498377 -2.84035 -0.13722372 -0.46867105 -1.3934753 -2.9868474 -0.23065805 2.916152 1.2403914 -0.27433154 0.28315127 -1.0272763 -1.2088938 -1.1528349 1.6806087 -3.0635927 -0.096168175 0.29447788 1.1676004 -0.23724225 0.31882265 -0.7374091 -2.5350254 -2.404998 2.1107159 -1.4460073 0.75179493 -1.0654551 1.4946904 1.3582504 0.37149742 0.21060242 0.23459083 0.35647863 -1.7459313 -1.6846727 -0.010467812 2.0491967 1.9024085 0.5998314 -0.83257294 2.4933422 -0.86918545 -0.6669947 -0.7640635 -3.1374376 0.34539855 1.479769 2.130659 -1.1926736 -1.6439768 0.2695204 3.4016778 -0.52162635 0.28115413 -1.62689 1.3426554 -0.88015157 -2.8959694 0.23270507 -1.2189728 -2.078268 1.277698 0.9626135 0.9818012 0.7260228 1.2715064 1.175781 -0.23485623 -0.19514202
girl -2.6408331 0.21327741 -0.5399955 0.18003252 2.9457562 1.7872509 4.2540092 0.32517067 -0.52406096 1.7063059 -0.52960646 0.69840235 0.22667076 -0.085109495 2.1932635 -0.2788255 -1.6425015 0.14788099 -0.48099738 -1.8940022 1.1419857 -1.6035084 1.15278 -3.6963234 -0.20447111 -0.5191512 -0.5646834 2.3488572 -1.5456945 -0.7723871 0.113720044 -0.85644436 -0.7324416 1.7219883 1.4236287 -0.78289324 -0.44022647 0.3715156 2.9864728 -0.24870713 -0.5843126 -1.465978 0.8553835 -0.3273739 1.5614256 -2.7338753 3.0054057 -1.636107 0.8079724 -0.08750667 -0.15650807 -1.6125045 2.682287 -0.5000377 -1.3408505 -1.8560596 -2.2593234 -3.031749 1.5566796 1.8922992 -0.88127744 -0.46468875 -0.26325363 -2.1618915 -2.8338897 -0.4064275 1.3165907 0.7689836 -3.2688735 2.6702855 -0.00070844917 -0.4644104 -0.48856187 1.9004393 -1.8094395 -0.42500803 0.74790895 0.80780697 0.41469854 0.016963819 1.7723099 0.39756066 2.1372366 1.1860977 0.23476224 0.7297234 -0.100071944 1.5198201 -3.055306 -2.3075309 0.8065642 -1.8783249 0.9287469 -1.5273576 -0.13852899 1.462293 0.15977377 0.86409277 2.6299136 -0.5274526
assorted -2.278235 -0.23801292 -1.4199327 -1.1675663 -1.1076537 -0.15643139 3.4339836 1.0416964 0.35886702 -0.41710603 -0.85493284 3.5763297 2.461617 -0.51365036 0.54101765 2.8880172 1.7217902 0.98367715 -0.9579399 -1.3734648 2.0119095 -2.2806404 3.3292484 0.8575795 -1.4828736 -2.5016713 2.9118378 0.4020935 0.691593 0.8325413 -0.019212741 -3.241842 -0.9615088 -0.70514166 -1.8559356 0.5324513 -2.038454 0.96236026 -1.4191291 0.8437861 0.9523158 -2.83818 -1.4258591 -2.9540179 0.6909434 1.0489095 -0.02718042 -1.4548624 -0.7967593 0.4207079 -3.462275 -3.419632 0.76028144 -0.43031687 -1.4856637 -0.08443164 -2.1188252 1.7642454 1.1544675 -0.17559017 -0.89382386 1.3662158 0.63300997 1.5922501 1.8240958 -0.013046049 -3.3637748 -0.14686267 0.11397246 -0.6480257 0.8424625 2.8330598 -0.29820698 0.26857543 2.8482704 -1.9036525 2.655204 0.61432475 -1.2862701 -1.5788326 0.39491427 -0.6263195 -1.358874 -1.3863899 -1.4881462 -1.0957004 -1.7391627 0.16641067 -0.07313213 -1.760852 3.7278292 -2.0279741 -1.5032078 1.1906596 2.184614 -1.1570148 1.957018 -0.7712831 1.6874641 1.3931702
party 0.84237903 0.92069244 3.3287916 -0.011666883 -0.78783756 0.7403996 0.36054438 1.3078836 0.18192677 0.56600374 0.44694418 -1.5111567 0.8535909 0.5349704 0.027728759 -0.40842295 -0.6043836 -0.83501834 -0.1460943 1.5229205 0.4691949 -1.1789296 -0.3601069 -0.7857238 -1.3510113 -1.6451027 1.1624717 -3.2407706 -0.5252753 2.0575993 -1.8114952 -3.8776433 0.94718707 0.24293208 1.4191371 -0.1452247 2.609558 -0.6375467 0.95997196 0.75327146 1.7806643 0.57449263 1.4317048 1.2351321 -1.5578285 0.6716058 -0.5869555 2.8288152 1.1465364 -0.7435826 -1.0717274 -0.15641837 1.7134559 1.789836 2.2309813 0.26494625 1.8632215 -0.5242625 -0.9070189 1.3340343 0.10678163 1.3863791 0.077492066 -1.4081578 1.571258 0.5125009 -2.7867436 -2.1633263 -1.4464743 -0.40171123 -0.1807236 -3.7772315 -1.0698879 -1.4283271 -0.22729228 0.1253007 -0.5967056 -1.3981127 -0.35967568 -0.69483715 -2.7896738 0.9308285 0.80645585 -2.081061 -1.0652484 -0.44935492 -0.98427343 -0.12772912 0.96760654 0.19957903 1.7008231 -2.1100123 -1.5405396 -2.8655543 -0.012216452 -1.2875978 -1.9736987 0.5611556 -1.251327 -2.1051505
clock 1.7267689 -0.18211648 -0.4845207 -0.2160153 -1.8944285 0.08668033 0.4034741 3.0308874 2.1545396 -1.9823372 -0.6469595 -3.1353579 -0.83685946 -3.1196547 -0.08305796 0.6023339 1.210571 1.2342737 0.7607621 0.5462208 0.15371801 2.1321955 -1.997997 2.2539191 -2.4474497 1.2541662 -1.3757083 -2.7180874 2.7998521 0.2916369 0.51825875 -1.3066051 -0.81556076 -2.2011333 -0.34242195 -0.20676821 -0.04945174 -1.2753688 0.099036574 2.6837144 -1.4812952 -0.6427359 -0.48895493 -1.0863978 2.1653295 0.8173601 -3.9566844 0.31148878 0.62043613 -3.5107262 1.2586073 0.42411348 -0.27488858 2.101166 2.3015635 0.006536588 0.7331658 -2.8227277 0.25251314 -1.9132297 -1.5158018 1.9062724 -1.0473459 0.33765152 1.7829887 -2.190511 -2.181714 -0.32073718 -0.48965284 -1.0523015 1.9208537 -1.1342157 0.3217965 -0.39198247 -0.06320491 -2.9054263 0.39643562 -0.3190131 0.3802073 2.8482468 0.23090766 0.7564933 1.8300893 1.166166 1.2962995 0.5369711 -2.5276623 1.4882511 -1.6427244 0.78083736 0.50162995 -1.6538787 -0.8906441 0.15698995 0.8558976 -0.2681329 -1.1246661 -0.8546116 -1.8480021 2.0632534
feltcraft -0.694188 1.4260979 0.7999854 -1.8518213 0.61610246 1.8080758 -0.83338636 -2.1185384 -0.45731416 0.5349394 2.697486 -2.0041697 -1.5795537 1.8730644 -0.057076804 -2.4910178 -0.43534493 1.1528938 0.5406098 0.20101343 -1.5956593 -1.6709571 -2.114312 1.1403998 0.7601838 -4.8700523 -0.10706583 0.18167181 2.233321 -1.2832907 0.12736976 -1.7626513 -1.1801454 -0.960324 2.0029166 -2.446741 0.42359555 -2.2202048 0.9047915 2.6029346 0.37955478 -0.3801502 1.0373663 1.935519 -1.5080953 -1.0308745 -0.8844517 2.8642652 -0.8674627 0.66214937 -0.237929 -2.9073522 2.3561664 -0.75464386 2.3006997 1.4198695 1.0431594 -1.6823554 -1.1957455 -3.1113658 -0.83115685 -0.2660277 -2.018995 -0.8627785 -1.3684845 0.73306906 -1.013007 3.4782116 0.52187103 -0.4097781 -0.23437339 -0.5472942 1.4871974 -2.1975026 0.5040899 -0.05366524 3.624939 -0.93198854 0.34806547 1.1506342 -1.1597762 -0.655678 -0.43173102 -0.011169984 1.0562866 -0.86148465 -1.911732 0.011057561 0.28952312 0.4963202 1.0660642 -1.2003313 -4.56781 -0.8980968 0.1536963 0.33661494 3.2350616 -1.4867905 0.6832155 1.3688585
black -0.6811243 -1.1495842 -0.5374351 1.8562812 1.6396409 0.60925704 -0.089209616 -0.4192825 -1.626553 -1.6981578 0.052001473 1.8759776 -1.2119935 0.82316935 1.9294592 -2.6606116 -1.5206455 1.1327507 -0.36772084 -2.2077916 -0.24323726 -2.70131 1.7541136 -0.4991287 0.6264767 -0.14955878 0.88225216 -0.66981256 -2.5934558 2.520983 0.34755653 -2.1111357 -0.6350876 -2.5036075 1.7136496 -0.82224303 -2.0068102 0.9825321 2.6520698 -0.0804303 0.7095355 -0.46846524 0.08208688 -0.56367147 2.519193 -3.4176345 1.6365765 -1.8694783 1.1633073 3.001703 1.3466942 -0.80377966 2.2195928 -1.6906385 0.20835824 0.36898038 0.4360577 -0.5917934 -2.9178734 -0.1498563 0.16861892 -2.0918772 1.2412649 -0.5478278 -1.9511825 0.8412148 -0.28075227 -1.9615446 1.4022317 -1.8435282 -1.5987338 1.0302341 -0.78810745 2.3981206 -0.41266766 0.9967226 -1.5627546 1.9686056 -1.7401234 0.11621619 0.62059724 -3.2981796 2.182897 0.49025124 0.54773974 0.17350762 1.75919 -1.7751026 -1.4963285 -0.12245556 -0.44515193 2.7502875 1.1979704 -0.34479448 1.7445492 0.9225827 -2.8102424 1.9015267 -1.0129796 -0.22666562
wicker 2.2655513 -4.085672 -1.3164556 2.2379937 0.73512566 0.8037304 -0.45335084 0.63722044 -0.07053 -0.7521777 -1.0082049 -0.40680695 -0.8057347 0.6996573 2.0539467 -0.3048115 -1.4028465 -2.1954722 0.29636097 0.87506735 -1.9564039 -2.4247668 -0.8418348 2.9779623 -0.14765595 0.4400897 -0.8419324 -2.504889 -1.4603784 -1.0936031 -0.68833417 -0.7322537 -3.5714493 1.8405998 0.33161372 -0.07231537 -1.3261482 -0.13055465 -0.8859875 0.7792154 1.9353942 -0.21470802 -1.6653805 0.9676508 0.10070178 -1.921398 -1.589451 -1.0667875 -1.3122575 3.5649638 -0.007260096 1.5392126 1.0448043 -1.2550265 2.0124724 0.6204072 -0.7734545 0.60268164 0.45667434 -1.5384234 0.99171674 1.917504 1.590343 -0.71679014 1.225 -0.6160085 0.41004667 1.8601826 2.4491997 0.9623943 -0.5014403 2.0160787 0.8881999 -1.7796694 1.2782923 -1.2035155 0.54053324 -1.6327113 2.7334664 -1.2919263 0.5120366 -1.1184705 1.9242014 2.7429605 -0.26600292 2.2641666 -0.8746151 -0.62393034 0.7627222 -0.15670568 -1.0663908 -0.1160277 4.089614 2.347217 -0.8973291 -1.1499426 -2.5856395 -1.9698141 -0.7961066 -1.0479326
bowl 1.1225932 0.31814978 -0.31391153 4.2570443 -1.0557019 0.6686372 -1.4342316 -1.6287789 0.1750993 0.85758924 0.96846205 -3.14689 0.5679939 -1.962179 3.263083 1.0301487 0.43248346 1.5403606 -0.21041827 1.978383 -0.9315109 0.68319136 -0.67010576 -1.2096004 -0.92986304 0.28794205 0.008951226 3.3299744 -1.6880287 -2.0363548 0.14400314 0.70933944 0.28586507 -0.8730928 -1.8108844 1.238672 -0.07478883 -3.2320495 0.9508799 1.6072849 -1.7380223 0.9747373 -0.40059575 0.3564454 -0.9369847 4.5601025 -5.1493635 0.31135178 -0.41894764 -2.124628 0.90393335 1.6089619 -3.7304 -1.104933 -0.0010056423 0.54978913 0.36337057 0.072270736 -1.310023 2.9162087 -2.2142458 1.6420593 0.7518286 2.2940025 1.3748401 -0.33782995 -0.13315451 -1.8802649 -0.05159393 -1.0845174 1.8403722 -0.85691875 0.32648882 -1.1889488 0.8411388 3.364909 -0.6289066 -1.5706972 4.460074 0.29461986 1.0937257 -0.0074442946 0.84272486 3.5568972 1.0952889 0.88358295 -0.31671908 0.37314337 1.2050178 1.9230565 1.5247676 -0.013931376 0.3151656 3.250177 -2.13637 -0.75494987 -2.3909807 -0.7362275 2.7630339 -0.23467791
garden 0.7825995 1.7035062 0.6211673 2.1770527 -4.5913825 0.3511036 0.56094766 0.357171 3.4484305 -0.5076475 -0.42110515 1.7259883 -1.6956873 2.0566754 -0.0705128 0.58140194 -2.111856 -0.20595776 2.5921562 -0.08115132 2.7594016 -1.5813934 -2.065663 -2.2036126 0.014004083 1.5347159 -0.10026238 0.5746226 2.4987931 0.97911334 -1.2867163 0.050729282 -0.07748129 1.786637 1.7460465 -0.7469583 1.6534926 -1.3976333 0.75249314 0.5549382 -3.3898575 -1.2101381 -2.322859 -0.6918326 1.3310438 0.16932322 1.6698204 0.45352823 -0.062136244 2.2694623 -0.3908623 -0.33596683 1.2292813 0.2032937 0.93918663 0.5813081 -0.6582491 -0.83204365 1.2131313 0.57632124 -1.6391515 0.73957944 3.0622218 1.1050681 -0.0389083 -0.6207396 -1.5751599 0.39349824 -3.3948095 2.087766 -0.30217612 -1.2131462 1.2355709 -1.2093773 -1.3272121 -1.9400467 -1.6327786 -0.70479256 -0.6253138 3.7655976 1.9153275 -2.9441538 -0.5644522 1.6499765 -1.0170195 0.15157585 2.2513857 -1.6862564 -2.1208568 4.2544227 3.5671563 0.45311245 -0.76568466 -1.1268871 -0.81349325 -0.5550731 0.14568084 -2.1735227 2.1400294 -1.434854
kit 0.3753145 1.8809351 -0.8409084 -3.2491257 -0.27245468 -1.7472161 -0.4108601 2.0865352 -1.8697501 -1.780659 -3.0506463 -0.7772923 0.5797643 -0.12320596 -1.3975143 -0.037386574 -1.2752584 -0.71834844 1.001693 -0.20204577 -0.9475434 1.6431956 -0.3410603 0.6160814 -0.5008494 -0.26725018 0.018096024 3.3634133 2.5361161 -0.14635654 -1.0629048 -0.40824208 0.34573787 4.348513 -2.1735885 1.4610509 0.9584724 4.4370003 2.3606777 0.22206932 1.5403782 2.915852 -0.29978552 3.1401129 1.4352684 2.1058772 -2.7837484 -1.4458176 0.27134007 0.41061673 -1.8238457 0.9058777 2.0196497 -1.6303109 -0.040443122 -1.7313341 -0.8483505 0.62897205 -2.662585 -0.9764505 0.63157725 -2.1009247 -1.1049701 -0.1348079 -0.43604895 0.25032815 -1.6908107 -1.2493976 0.9974626 -1.0584639 -4.241089 -1.8071765 0.5968749 3.1592717 0.7953664 -1.0005635 0.54184717 -2.2553115 -0.0023800058 -0.8018694 -0.73413634 0.6589169 -4.4886675 -2.630295 0.28387138 -3.3324347 2.314185 -1.6015884 2.9506361 -2.2245195 -1.6783855 1.9467174 0.5131941 -0.83083695 1.9634587 -1.1276273 1.203548 0.101532444 -1.70442 0.78405684
tins 0.74961483 -0.5893394 1.531959 -1.8925052 -2.6807737 1.0037581 -0.46756697 0.2900699 0.7852232 -1.950672 0.8298868 -3.23394 0.99519354 0.8932631 -1.2243423 -0.5578366 3.0599 -3.394151 -2.0104795 0.29899526 -1.23841 -2.191363 1.1488762 -0.42100307 -0.11815278 -0.043327987 0.57111174 1.9215807 -0.11999157 -0.40586486 -1.4739912 -1.3718759 2.2734485 2.1264415 -3.082322 0.6420332 -1.0554653 1.2050372 2.1749535 -1.8271741 0.94480544 0.7053437 0.17368864 -1.6185486 1.1476946 -0.97111917 1.1045115 -1.2194388 1.30957 0.8803362 -0.7083338 1.1763703 2.3594372 -2.8238006 -0.053517878 -2.1556993 -0.2923268 -3.4979346 -1.2231241 2.1800857 -0.0034377195 1.2558111 2.0743248 1.5855056 2.2921534 1.3423634 0.6877339 -3.2234912 -2.7029514 -4.5356145 -0.34140936 -0.9698467 -0.95158297 2.60419 -2.4314 0.06609212 -2.1033928 -2.1194282 -0.23900926 -1.3444695 1.6991171 -0.5565271 0.2158309 -0.7310771 1.3999999 -3.2944357 -1.4637736 0.42566818 0.39979038 -1.4669415 -3.3834844 -2.2358484 1.5284333 0.4635807 -0.14629202 2.0406923 -2.2982929 -0.8400036 -1.549087 0.48470306
woodland -0.05159486 -1.7318717 -0.50338376 -0.75399053 2.5299284 1.9579396 1.6371801 -0.9205379 -1.2897605 1.6523759 0.98463935 0.7650444 -0.5808009 1.583398 1.7380873 -0.061328355 0.7915761 -0.92864126 -2.4914904 -0.7812248 -0.71811235 -3.0570955 0.20072398 -0.536885 1.1268077 -0.1322591 -2.1042402 -1.6963986 -3.3028731 1.9261199 0.6921156 -0.73598844 -1.4353082 1.1011164 1.786285 -0.33337 -0.58621067 1.2680362 0.3132001 1.8573085 1.3205339 -0.6922791 -1.0255394 -1.1425865 1.2471755 -2.9922783 2.8776796 0.83579755 -1.9828123 1.2761208 -1.0039674 -1.4273765 1.6257912 -0.9970904 -2.06875 -0.21246357 -1.0491985 0.04492151 -1.7377121 -0.17029893 1.1021104 0.2890941 0.57917845 -1.2936308 -0.2141852 -1.4627398 0.6945789 2.7340553 -0.4671382 0.03278101 -2.8730824 -0.6396456 -1.9736639 -0.44999054 0.43203214 -3.8546364 -0.48302367 1.1378878 2.2167614 1.643303 0.76931536 0.6814941 1.8747774 0.5159377 1.3451288 1.5593609 -0.78198206 1.0306342 -0.43623275 -1.8049151 1.8557397 -0.6146746 0.99199206 -1.0660301 0.25853214 1.2259803 3.0894527 -1.9698128 0.7333325 -0.92157394
wrap -2.0391188 2.4395535 1.4942757 0.67447853 -3.9549782 -1.8913372 -2.6075704 -1.1587182 -0.17075512 -1.6468489 2.6696272 -2.0349922 1.1387014 -0.38769537 -3.3304174 1.3402733 -1.4112177 -1.1288755 -0.085602015 1.1726946 0.29789913 0.9047385 -1.1611991 -0.96971554 -0.56023693 -0.6815523 3.6547809 0.58886755 2.1086972 -0.45683587 -2.2137153 -0.38128597 2.6572745 -0.8381405 0.5937487 2.6884587 0.812504 1.3280185 0.37695485 -3.0307906 -1.6343265 -0.08345135 -1.4558629 0.12126764 -0.8662307 -0.5245609 -3.3785274 0.89578485 -1.7844979 -1.2447516 1.49205 0.47861984 0.3569376 0.4468068 -0.1754348 -1.253708 0.5259791 -1.0102253 0.7057204 1.1767343 -0.4496787 -1.1430705 -2.04303 2.004425 2.1250231 1.8304555 -0.7643231 -1.359436 -1.0635638 -2.064087 0.47726485 -0.032242812 1.7103784 -1.6227802 0.78025913 0.8718969 -1.0049375 -1.9762032 1.1188384 2.0835996 0.81214184 -0.02512723 -0.40408 -1.499036 0.22572163 -0.52649415 -1.631508 -1.8286631 1.0382956 -0.7997535 -0.54012036 -0.43193933 0.72575355 0.6614961 -0.48919463 1.9791244 -0.07447359 -0.6276978 -2.5605595 0.29884732
fairy 1.2651846 -0.04644607 0.54461086 1.234876 -0.545063 2.983191 0.43240574 1.1796606 0.2537864 0.065473266 0.35229778 2.9197807 2.6448126 2.206833 1.7909906 1.7119147 -0.60747653 -3.232869 1.5450889 -1.1789473 -1.5758772 -0.55600846 -0.5605375 -0.12548473 0.28093007 0.58377886 -1.0883205 1.1280195 1.3723682 -0.7204235 -1.4267867 -0.5396531 1.9600214 2.0035276 -0.883481 1.6280757 -1.2448126 -0.4735704 1.107058 0.56699973 0.3481807 0.5366816 -0.33637562 -3.6387582 -0.6635116 -2.1711097 0.16104108 2.067583 0.013207526 -1.7093253 -0.029289402 -0.25557664 -1.2264509 -0.9442258 -0.73605835 -1.8322955 -2.4599514 -2.4406006 -2.0315921 1.3083266 0.68055797 1.9338326 2.51795 -1.5902764 -2.8145123 -0.889147 -1.3313738 0.15807231 -1.0248345 0.7355763 -1.6115893 2.4184074 -0.7076887 -3.287129 -2.0297558 0.6877016 0.35736784 0.15141696 2.5986857 -4.092938 -0.61509836 -0.576057 1.0416206 2.400221 1.8392854 -1.3103492 0.40786853 1.6162293 -4.1710296 3.436798 1.0775474 -0.9876707 3.0755444 0.49113074 -1.6295907 -1.3047858 -3.3077648 2.3217044 1.9513891 2.8444018
frame 3.6803784 -2.2801874 -2.2498848 1.7566179 1.1985481 -2.1842206 -1.1728789 -1.5466805 -0.8352323 0.15312806 0.8083733 -2.150523 0.39826035 1.7566158 1.7429543 2.5821092 -0.89925873 -0.3926662 -0.2279708 1.5744747 -2.790693 -0.95544076 -0.5548266 0.8984705 -2.7166972 3.2736866 -1.2655501 -0.45110166 0.7586579 -1.3242483 2.4409316 -2.170039 -0.3405522 -2.3953493 1.7217838 1.2742063 -0.70551074 -0.4368061 1.2088145 -2.113824 -1.1422132 -1.2268171 -2.43986 -0.5872101 -0.81268096 1.3077637 -2.4493427 0.6246096 0.46897578 1.0683762 2.2782893 -1.4747204 1.6598936 1.6994873 0.33670044 4.5276303 0.12960282 1.583269 -0.65188617 -1.134622 -1.900101 0.51807564 0.6784949 -0.4642941 -0.06970943 0.75705963 0.8213841 -0.33997568 2.9410443 -1.6680274 -0.8530475 -1.0551735 0.12727882 2.4282546 -0.15701264 -2.745358 -2.921709 1.3717631 3.4816022 0.024458865 -0.9418405 -0.024625527 0.53598773 2.2394094 -1.6683904 2.9842978 0.9505996 1.199519 -0.5396414 3.733908 -3.339704 2.3732305 3.1293 0.7900648 -1.9549288 0.83687747 -0.92778295 -2.7203867 1.6250646 1.1002076
antique 1.8814346 0.81705695 1.2321212 -0.63239545 1.4353968 -0.8801189 -0.8797194 2.7192967 -2.4933665 1.6628771 -2.6779258 -0.36528072 -1.4631497 0.5870614 1.2672274 -3.2514427 -1.1473646 -0.7246771 3.0207996 -1.6587418 -1.0832549 -0.87806386 0.5308388 -0.882013 -1.4607785 1.9620246 2.5788827 0.55488914 1.8918097 -0.58733946 1.669902 -0.3756769 -2.0161068 -0.85183245 -1.0272729 -1.6541064 0.8148973 -1.2812581 -3.0427032 1.2645893 -2.1975737 0.41148412 0.71058273 1.3687569 1.7962222 -0.041142806 1.2320731 -0.21220358 0.91760486 2.7775342 1.8113911 1.9860636 2.4163795 0.449489 1.5548016 3.8676677 1.3225871 -0.2297909 0.4684139 -2.8369079 1.8479624 2.6688442 3.0731163 -1.2595699 2.8431113 1.9944545 1.4777023 1.6260293 0.61525977 3.8306785 1.8123271 3.5774457 0.6771707 0.24557129 0.034979567 0.5655208 -2.761329 2.0450735 0.17376602 -0.5157744 -0.5997587 -2.580922 0.518143 -0.8800988 0.60107714 2.5506077 -0.009608785 -4.023296 0.10593186 3.121153 1.4265546 1.9215785 3.1768277 1.2551016 4.9681554 -2.201563 -4.23463 -0.27706844 0.85451466 -1.9518927
drawer 2.7673993 0.96567255 2.1921566 2.2011006 -2.8766363 1.8860425 -1.8607522 0.6924578 0.19424643 -0.84364676 0.40190703 -2.3369749 -1.032526 0.20164417 -0.9561245 -0.30616435 -1.7616562 0.42718747 0.11064921 -0.12400199 -1.8309206 2.2202055 -3.3093169 1.5365533 -1.0073339 -0.8444114 -0.21697932 1.035529 3.8983495 -2.6720176 -0.9933505 0.5504122 -0.8322271 -1.7850538 -0.38807476 -1.2181605 1.1840672 -2.70962 -0.24040432 -0.93102276 -0.24198434 0.30054048 1.8968179 0.9389564 1.6312345 2.3048768 -4.2092037 0.24112773 -0.2847697 -0.6453248 -0.15245906 -2.134486 0.25056717 4.730831 0.6247859 -0.50044703 2.4917693 1.0178323 -2.4867418 0.6467345 -3.2379878 -2.6299236 -0.5428832 1.4911559 1.8605058 2.8082833 -0.47444662 1.1764141 -0.4564387 1.1888858 1.5340065 0.53129274 0.5230191 1.5506656 -1.1219981 -0.922992 -1.6464509 0.699981 3.2317624 0.27661148 -0.08083463 0.022870867 2.8520768 2.3327422 1.0062319 1.1830385 4.0159044 3.2536204 -2.7990546 0.7574804 2.2209973 1.2670141 -0.16896981 2.2217584 -0.024199497 0.45228583 -0.7234662 -3.1018782 -0.37958336 2.3702903
charlotte 0.8879716 1.693335 1.6132303 -0.5822096 -0.7018455 1.049218 3.6022325 -2.0339885 -0.16928515 1.7530677 1.3577814 -0.7266958 0.61074734 -0.58431256 0.20078309 -1.690502 -1.4457619 0.39888734 -0.5589852 0.47199246 -2.2388413 0.6221216 -1.4452815 -1.7234589 0.25363764 -1.6238793 -0.3838832 -0.8299329 0.9886843 -0.3024358 -1.3603255 -2.0634677 1.8582063 -1.1008718 2.6876035 -1.4524876 1.0786784 0.5477076 -0.41439345 -0.26184073 0.12296213 0.5901766 1.2483068 1.0122912 -0.74079925 1.6455705 0.15127002 1.7885202 -0.97621644 -0.38399157 2.0023742 0.27559996 -1.1367233 -1.374888 -2.1060157 -0.82574767 -1.5841112 -1.9210536 -2.3737364 1.6428617 -1.2556657 0.8414411 -0.7195299 -0.118452206 -1.7820132 -1.118747 -0.7438953 0.33231625 -1.8167448 -2.277221 -0.62850994 -0.1793296 0.1784919 1.2691139 1.1673915 2.1120944 -0.6612134 0.72782695 -1.883287 1.2706054 -0.7852543 0.32913932 1.4873908 -1.1207268 -1.0769334 0.17326333 -1.6056201 -0.46673492 2.1388173 0.1279098 -0.8784825 -1.8100533 -0.5722045 -2.5173793 1.9137754 1.7643422 1.2227751 -0.28798953 -1.9226664 -0.4804421
silver -0.6502246 -0.4928402 -3.1912947 0.25220588 3.7620559 0.88389283 -0.94176024 1.2747236 1.5171704 1.696039 -0.03687577 0.56083995 -2.7257779 -2.1156106 0.18776375 -1.3094795 1.6025087 1.3294201 1.3305148 -3.6649046 -0.94195694 -0.2690036 -0.11844314 2.2038116 1.2856354 2.1458457 1.8365685 1.603693 -2.0593138 1.1498648 1.1249095 -1.9035634 -1.5773938 -2.2673352 -0.93209416 -1.3653908 1.0378916 -0.39282173 1.4659691 -1.2663804 -0.3503731 -0.96732634 0.6536632 -1.3202679 2.03392 0.6473601 -1.5531735 -0.10637335 0.46213892 2.7674563 -0.21190022 1.2996134 -1.8106453 -0.8465514 0.39312708 0.63780415 2.7638438 0.82326 -1.6211041 2.2228982 3.2777948 2.1720293 -1.0452118 -0.1680495 -2.053354 -0.5652753 -2.1448076 1.6323755 0.30955333 -1.2059182 -0.026691044 -1.5644901 -1.5833195 2.3939328 -0.94390166 0.09796068 -1.303527 -2.8230793 -1.2951202 -0.6528043 -0.87953705 -2.082286 1.6124254 -0.70708144 0.9927131 0.71918297 -1.8969519 2.3293889 -3.0195072 -2.5982075 1.625628 -1.1166556 -0.9655726 -0.6182498 3.546972 -3.1644878 -1.7173064 4.000331 1.2504909 -0.5161774
colour -2.9942653 2.6366475 1.3653611 -0.6716945 -1.4810178 -0.5714754 -2.3696404 1.6549455 0.0051954193 1.8397269 -2.9725964 0.033633426 -1.905057 -0.361094 0.14579475 2.535058 0.89188325 -0.5104095 -0.57547635 -3.9715884 -1.4576155 -1.6259239 -0.5246906 2.5485005 1.5257728 0.20876741 1.3196748 2.8935812 -3.311533 -0.46953788 1.6837667 1.7856317 0.9778642 -0.2802868 -3.325253 -1.3054658 1.0103707 -0.9704566 -0.5970046 -0.03835195 -0.17720884 1.4979694 1.2003871 2.9175377 1.4411652 -2.1829677 0.37367287 -0.37738928 0.6811305 -0.9647802 -0.9381043 0.56123245 -1.7573732 0.18574265 -1.3156835 -2.6014605 1.3356574 -1.3425422 1.0534573 -1.2756398 -0.72620463 0.64077854 -2.4506104 1.0023324 -2.0467703 1.3634903 0.91292566 -2.8451807 -2.2177463 -0.56772995 -0.1347143 4.1461363 -2.35113 0.46808612 1.6337746 0.6210687 -2.4875884 1.981461 0.5013374 -4.0176716 0.46706453 -0.8603726 -0.31321 -4.8723145 2.6091583 -0.19256106 2.0199077 -0.7933285 0.005370325 1.5612473 2.4014208 2.5975285 -0.73086625 0.9888855 0.82798034 0.02203893 2.8139963 0.17155136 1.0005527 -1.4889699
childrens -2.3049657 0.33256385 -0.18331693 1.5482932 -2.5920973 -0.99040264 -0.035235647 -0.35020325 -1.2489955 3.1637385 1.4767616 1.1463186 -0.115899116 -0.8746763 -1.7412466 2.5989327 0.53077793 0.30357882 2.3575683 2.4466913 -1.3183608 -0.6917838 -1.8692445 0.29366517 -1.1406891 -1.8840377 0.45592806 0.2019479 5.0709324 -3.214708 1.6974261 -0.9656374 2.6587787 0.0135214785 0.6368121 -1.3915685 3.059251 0.118504345 -2.2450974 1.3041601 -0.5087669 -1.2911241 -0.45583338 0.15377524 0.85597634 -0.8077614 -3.9167063 0.6968532 -0.43400306 -4.17751 1.2495896 0.4127852 -0.073377155 0.35797417 -1.2963122 -0.4652576 -0.27244243 -2.0093634 1.3923484 -0.52983385 -0.82758003 -2.7824316 -2.9337964 -1.1598644 -1.233927 0.96162647 0.13189827 -1.2252519 -3.4353838 -1.8022729 0.57656044 0.08687984 0.08279426 0.8560523 -1.1784554 1.333106 0.7624814 -0.60331565 0.022289712 -0.44711667 -0.4517067 1.0079437 -3.6629586 0.02279116 -0.61908126 0.4226615 -0.39222673 -2.1747139 2.9513206 -0.15412308 2.6066272 -1.8111902 -1.0992715 -2.0812075 1.467156 0.11639393 0.8784776 1.5807184 -0.21148399 1.3685224
wall -0.0835457 -3.686704 2.5337877 1.6918155 1.3151971 -1.946608 -3.0794346 0.25633314 0.079126306 1.4152817 0.86280733 -1.0710225 -2.0502937 0.09009847 -0.39134622 -1.926643 3.7177236 1.1021427 0.3141998 0.33784413 -0.86850506 2.3592126 -1.0263675 -0.58642507 1.5212524 1.2382556 -0.81031656 -2.814626 0.55968535 -0.7972777 -0.2590307 1.0240897 0.97383136 -0.03689385 1.0966535 3.8516788 -2.5031617 1.2052339 0.009752551 1.3475028 1.7130135 1.2375385 -0.878598 1.124737 0.23528402 -0.06433018 -2.2370493 1.193506 -0.14811113 -0.64724183 -0.34684628 0.020225706 -0.013398084 2.324752 0.891958 1.8629407 2.6401813 1.3522032 0.4410842 -5.623524 0.77304274 1.4658645 0.5012303 1.9298669 2.2460215 1.5864393 -2.520227 0.82254267 3.2349699 1.0620869 -1.1952889 -1.775859 2.0779254 1.7776133 1.6074294 1.5330174 0.08428672 -2.684835 0.39318946 -0.7222532 1.7602652 -2.3464813 0.17716563 0.6797057 -3.3519576 2.884909 0.24065778 -0.4137409 1.534088 2.0010169 -0.30269718 -2.5310352 2.7161381 3.5587816 1.8430594 3.6357877 -1.8527383 -0.63849336 0.24481569 1.2037764
birthday -0.70086294 1.1771415 1.4084495 0.76386404 1.0809103 -0.7984564 -1.1723319 1.9700983 -0.9658839 1.9544994 -1.8315697 2.2812488 -0.13329265 -3.5030267 0.26916683 -1.9190834 1.6122208 1.128831 1.0813184 0.76462543 1.3513086 -2.4905005 -0.53639245 -1.5180807 2.6254814 0.06496885 -0.35315618 -0.41764456 0.5715763 -1.9871663 0.29106012 -2.8321273 4.0586276 -0.28824592 0.2833668 0.46763077 2.2205532 0.51091874 2.5998037 -3.627727 0.14720887 -2.6187901 0.79785573 -4.351952 2.9304168 -2.441024 0.011902378 2.538431 -0.9598658 -0.60340375 -0.076540016 -0.10677643 -0.032789867 1.8102629 0.04534274 -1.3027511 0.8373794 0.69498175 -0.6047196 0.42533737 0.30842474 -0.24230604 -1.8290842 -0.45176265 -1.1245323 1.4372187 -2.197338 0.6170802 -2.4167612 0.88189447 -0.2956644 -1.748147 3.8664334 2.244834 -2.8891191 -1.9934723 -0.48083237 -1.4033262 -1.3741697 -0.14669038 -2.0725815 -2.0843306 -2.836641 -2.7567067 2.321606 1.3161403 2.0995762 -0.19130845 -0.037640546 -2.887446 0.6774684 -0.27220482 -0.28966126 -0.71186733 -1.0084785 -0.12368936 -0.35990742 0.7256037 0.36658698 2.2672062
strawberry -1.613872 -0.0041713333 -0.8239823 -1.8551182 1.4084742 4.3521023 1.5803103 -0.45644724 -1.7803209 1.4443189 -1.2441407 -0.3576782 1.1214048 0.0077446806 1.3590534 -1.7995563 2.3710716 -0.96470463 -2.6113086 -0.4275533 0.38917 -2.0961223 0.16776007 0.7177688 0.83524925 -0.13862371 -0.9486648 1.415681 -2.5440009 0.43636778 -0.7530643 -0.51720953 -1.0257422 -0.5898703 2.4516723 -2.1577568 -1.0413419 -0.96861833 0.40338525 -0.50205934 -0.22188003 -1.8262602 0.42293364 -2.2310212 1.4148979 -1.483846 2.052246 -0.790266 1.8918477 0.94729626 -1.2737145 -1.904277 -0.70510995 -2.692835 -2.3349752 0.004720587 0.037668917 -2.0309706 0.99836516 0.9837574 -0.01796838 -2.205355 1.4780086 -0.26568636 -3.4017122 -1.1216322 1.37417 0.39671123 -0.4017756 2.097053 -0.15217273 0.5196881 -4.2014484 1.3498198 -4.3180604 -1.4343666 1.1369858 2.3386996 2.6690521 1.4782609 0.45703056 -0.5946625 0.17736262 1.3496584 0.48682153 -0.8443231 0.3907392 1.3326778 -1.835841 -2.4812524 0.97431844 -1.0793164 -0.81421757 -1.2934104 2.4803257 -1.5180979 0.17203464 0.40894845 2.3578477 0.3415244
star -0.23673424 4.1697416 -1.486036 0.96579146 -0.35139063 0.22774528 -0.9807171 2.2599556 -0.8397457 -2.88732 1.7356535 -0.106723376 1.7810137 0.24456844 0.5640985 -0.7295465 -0.62353987 -0.7339714 1.1902473 -3.554976 0.9423114 -1.3970628 1.1242955 0.62888855 -2.23094 0.9177595 -1.3331728 2.7156103 3.3398666 3.0411012 1.3605226 -0.9864784 -0.3095393 -1.2587721 -2.3025062 -0.7160117 -2.2046504 0.40903193 -0.53318805 0.7022009 -0.26441294 1.0427946 0.64658475 -1.2996169 -1.1095546 2.1698222 -1.1391649 0.049532205 1.4112468 1.5374573 -2.1517904 -1.122582 -1.189649 -0.32053295 -1.7820579 -0.07929755 1.0797154 2.636477 -0.017632186 0.12062438 -0.05926059 1.8939762 1.8905667 -1.9678864 0.38721204 -0.25765234 -3.352968 1.4162699 0.67448866 -0.34114635 3.4442961 -2.0473356 -2.336679 1.2824868 1.6089671 -2.7104554 1.3374964 -0.27863228 2.3759954 -0.55532503 1.372829 1.0533842 -0.15412082 -1.3110106 -1.9428576 -1.3223563 1.6568826 -0.68949056 1.2117833 -1.1339712 1.4470353 0.43326133 -0.97167015 0.37395182 2.403888 -1.967355 -0.058775935 1.2088882 -0.5327932 -0.49122843
wood 1.5546204 -2.9944186 1.7968241 -4.8586335 3.174463 -0.20830308 -3.0203893 -2.2686505 2.702449 -0.95521814 1.9236004 -1.1976379 -3.1469302 2.8400862 -1.2176789 4.485599 -1.6204368 1.3131686 -2.4526262 -0.7916576 -2.3741853 0.0056070946 -0.9932139 4.1680737 -0.9550044 -0.33886048 -0.80147475 -2.6331291 1.6606925 1.0406734 2.1726835 -1.9193381 -1.8902203 0.6971674 0.86051905 -0.5857535 -2.7167125 -0.40897074 3.0231557 0.3284649 0.82828057 2.6845927 -2.3983421 1.7545496 0.6405098 -1.4906126 0.3708973 1.2985984 1.6289543 1.6071035 -2.2242572 0.68963325 0.03498895 0.4955828 -2.0693362 1.8064946 0.23225668 2.4871724 -0.058782883 -0.3554955 3.83902 -0.17498192 2.6347883 -0.2326373 0.4584866 1.5611268 0.9987962 0.6973578 3.4984336 -2.5574691 0.40961242 1.1324277 -0.8484544 -1.04658 0.3303462 1.8500402 -0.016880145 -0.11331144 1.8989124 -2.8715572 2.798335 -0.13796389 -2.4473593 1.2828501 -1.4142306 -0.5796519 -0.08885193 0.3155361 -0.7350774 -2.2419772 -0.80663633 1.0117161 2.6091065 2.6223376 -1.8900957 -2.3766563 0.73424876 -3.757246 -2.197712 -1.9331493
bird -2.9971771 2.9374073 -0.76445097 3.7908454 3.5848837 -1.1613301 0.45398143 0.16077448 0.8704264 0.0405581 0.57014954 -1.3591148 0.062490508 -2.1927984 3.0823078 1.0640609 -0.046219457 -1.0973691 1.8509766 1.1104871 -2.6648724 -0.66140556 2.4658523 -1.6115941 -0.11399569 5.115852 0.028413465 -2.3899927 1.5579206 0.30863476 -1.4198427 -0.60161495 -0.59640896 2.4522967 0.8540146 -3.2615852 0.2735757 -3.2083569 1.7239707 3.8205273 0.26977012 -0.7982937 1.4315361 -1.3589532 -1.0058588 0.5014836 -0.9143244 0.08241959 2.9927733 -1.3656948 0.13142422 0.72610784 -0.6318789 0.774676 -0.44800672 0.8365484 0.7329733 0.2176881 -0.36326 1.3511052 0.14012578 2.9335606 2.487559 0.271012 1.1759437 -2.8288183 -0.5747991 0.75425756 0.9557066 -2.9659388 4.0942726 -1.4382218 -1.6881601 0.3867607 0.9271863 -0.3258334 -1.8361069 -1.0186322 5.824776 -1.7116085 -0.21837723 4.535154 0.09579586 3.164243 -0.63716906 -1.7182536 1.9612602 1.0395073 2.7005458 -0.5727401 -0.31897545 0.5530391 1.9729121 0.21026012 -0.3027181 -0.27464768 -2.0939448 2.1016836 1.1108508 -1.3923041
skull 1.3522438 -1.237325 0.4110252 -1.6875068 3.3598597 1.5891044 2.2368157 0.06308117 -0.2121085 -0.1986306 -0.8622526 -1.2285277 0.26696023 0.8853825 3.311007 -1.361716 1.6198169 0.30070096 -1.8524683 1.5048401 -0.39872482 -2.9388373 0.9870613 0.4095414 0.028928967 2.300942 0.7391422 -0.6027263 -2.1481006 0.6277511 1.2269812 -0.60768974 -1.2139411 2.4540603 1.824875 -2.9301004 -1.1655658 -1.0435121 -0.23328929 1.1214483 1.0475161 -1.955809 0.44898468 -2.1048899 0.5833875 0.11811929 2.866953 -2.208867 1.7786434 0.80761415 -1.1085528 -3.4233265 2.7194552 -1.2176198 0.10983276 -0.6195881 -1.9341505 -2.1307337 -0.15263061 0.010129989 0.12919502 -0.6450006 0.93067646 -0.16970739 -3.3983226 0.14698027 -0.18747154 1.5892326 0.6287011 0.20425211 -0.7570008 0.5359657 -1.6243943 -1.4205096 -0.3108139 -2.0791726 -0.22956198 1.2331785 3.0488853 -0.2000651 1.2169002 0.8028472 0.89454657 2.9306808 -0.7254212 -2.5071533 0.8152037 0.6893216 -3.3501046 -1.9080162 0.5445149 -0.64285344 0.6987281 -0.95919573 1.6676389 -2.2077231 1.6668465 -3.2086277 1.8397206 -0.7787883
zinc -3.339891 0.2591271 -2.5638223 -1.578189 1.7692409 -1.1396185 1.4600729 0.7820476 -1.5870732 2.7806203 -1.0823057 3.4137397 -2.6472123 2.8507574 0.57728064 1.2997375 0.74346423 0.6001345 0.8685444 -2.4967794 0.6199901 0.7035439 -0.92747414 0.27000797 -1.5083281 2.3061433 -1.621405 -1.0690145 -1.0421283 1.5823985 0.9486094 0.046075378 -3.350802 -2.1226408 -0.6343862 -1.2354556 -1.7688876 2.2307794 -1.4951059 0.86797565 3.1957262 -1.1827352 1.4505938 -1.2190648 0.016382491 3.3953896 -1.0896835 1.5587348 -0.4902065 4.339345 -1.0995952 1.0325695 -0.09715884 -3.3815162 -1.5226187 -0.9199514 0.16674846 1.7739679 -1.2099242 1.490266 2.3584173 1.0568755 -0.8474858 1.0389446 -2.0108254 -1.5711368 0.19086517 1.2571428 1.3520725 -0.9000864 -1.354687 3.0969203 -0.21942142 -2.0872684 3.2074575 0.35002822 -1.3721418 -0.3969558 -0.8610052 -2.7177482 -1.5258826 0.08662456 0.60571826 0.6568906 1.4477882 0.67033786 -1.9140344 -0.86978257 1.8709179 -0.8956503 2.4770212 1.7536008 0.27088863 3.1331835 -2.5493555 -1.1372288 -0.7807232 2.530572 -0.55197513 0.30499834
union 2.3532708 -0.8872181 2.0472374 0.04151311 2.2254555 0.723622 3.3040853 -1.6126385 -1.1077682 -3.2399597 -2.6973474 1.8701707 2.0930438 0.12609498 1.2328087 -0.43548757 -1.5042397 2.4419322 0.12409445 1.8912388 4.4988837 -4.5764465 -0.44814032 1.450105 3.5442054 0.05970453 3.7875872 -1.5708015 -0.75923496 -0.24956636 -5.1000943 1.1622323 -0.8726573 -1.683306 2.0620356 -0.12928726 3.4913769 2.781973 2.3049552 -2.0350287 -0.68781894 0.8344049 0.4670879 1.4759636 -0.67809576 0.8944951 -1.1044941 2.45699 1.6588115 -1.693954 0.82541186 2.2305882 -0.26493508 2.501835 -1.048223 -3.5652254 -0.4472202 -2.3033702 -2.5651245 1.7054845 -2.1293466 0.9722394 -1.1230239 1.3628861 -3.0579388 -1.9777427 -0.9944568 2.1126158 1.2954732 -0.56109244 2.5398397 1.7333086 -0.08997722 -0.757369 -0.0888754 0.98441464 -0.97743064 -1.1460122 1.1751325 0.004784396 2.6844342 -2.5964746 -3.1957936 -1.7137007 -0.9962786 -2.4299233 2.6243663 1.7898566 2.0198128 1.6796491 -1.8676273 1.6485707 -2.7204168 1.3715688 -0.5605357 -1.2322845 -0.53740335 1.626652 0.12171268 0.67274946
gift -0.9600723 1.0563672 1.8641994 -3.56732 -0.5636638 -0.7233377 1.0279387 -1.1996081 -1.7594355 1.6096269 -0.8884319 -2.060168 1.0018427 -1.3632011 -1.8135473 1.0201362 1.1667693 -1.975374 -3.0991902 1.2465645 0.53903806 1.5039493 -1.1930722 0.59893185 1.4767566 -5.4505363 2.3970304 -2.3989983 -3.7402725 1.557524 -1.8377821 0.16823255 -0.7690477 -1.3846321 1.410799 -0.3811598 -0.40717852 -0.38656217 2.272839 1.4097314 0.29287148 1.2660307 1.5066066 0.06537752 -0.04208268 -2.5137773 0.45348293 1.5471804 -1.20412 1.6416478 1.1151351 -1.5904331 2.318543 1.3766218 -0.59893054 1.6486225 -0.9912372 -2.727261 0.14057364 -2.305956 -0.33365417 1.2979492 -0.8745778 -0.55980074 -0.14867637 -1.277218 -2.6514516 -0.4449074 2.1183121 -2.7773688 -3.0295002 1.0669614 -3.7883928 -0.8283947 4.7195168 -1.5993735 -0.27454996 -1.4489124 -0.13346794 -4.0315194 -0.26104453 1.4769918 -0.35242566 -3.4096665 -1.3233476 0.1290087 1.3213662 -1.5667495 0.46105668 -2.3210542 -1.455278 1.4446012 -1.8514589 -3.3407407 -1.1566676 -0.99245036 0.907056 -0.5074027 2.010808 1.6766163
cutlery 0.8527885 -0.4322874 2.2577026 1.5348524 -2.190172 1.3688968 -1.5914987 -0.12330669 2.9856477 -0.33689058 -0.61817014 -2.9600894 -0.51755756 -1.6396632 0.5135733 2.7779102 -0.5553524 1.2784407 -2.9266803 -0.70428944 2.4298818 1.8419034 0.4067079 0.28995007 -0.8594798 0.2851165 0.32064965 -1.8291072 -2.817387 4.1772904 -1.9976233 3.9762127 1.274113 1.0915831 2.3685317 2.2101583 1.5391631 -1.2000861 3.1733248 -0.16212839 -1.1235163 -1.1711458 -0.8022945 -0.1076356 1.7940687 1.847997 1.2129805 -0.23753579 1.1370913 -0.27946723 -0.40227416 -2.289187 -1.4745033 1.4331988 -0.6061441 -2.480536 1.563752 -2.0781937 1.2462327 -0.7114083 -3.4379063 0.5959066 -0.95391876 2.274734 1.269974 0.22055002 0.862641 0.24095549 -0.9181145 0.10062097 -1.6544558 -0.47306308 0.19277865 -1.4847741 0.09198742 -2.982651 1.7962859 -3.2265244 3.2336142 0.8389767 2.0470517 -0.5151407 1.1518521 -2.5481412 3.4208584 0.7347702 -0.7672108 -0.23814408 0.15064548 -0.75799155 -3.0081778 -2.3813353 -1.6415718 1.0584837 -1.8697222 -2.0738568 0.716444 2.561102 2.07834 -3.8206882
jar 0.22848156 0.51009697 0.49260855 0.36590025 0.27599618 0.67316324 -1.3329726 -2.1076171 -0.23222978 -0.044568177 0.28309363 -0.10016529 -0.7929921 -3.8861766 0.8155726 -0.9959927 2.3679492 -1.2348955 1.4300295 -2.69299 -0.7303674 -1.8510498 -2.6001194 3.4314857 -0.73053646 3.2080252 -0.4350867 -0.31116378 -4.3945146 0.07140961 1.9196593 1.7788806 -2.4914708 -1.7556686 -2.6792061 -1.977977 -2.6668937 -1.2870432 -2.3069782 1.9767302 -1.1256019 -1.2673738 -3.005402 0.68886495 -0.8685887 0.056519594 -1.3682765 2.861952 -1.9077332 -1.1752576 -3.3529139 0.8069505 -3.0120208 -0.5145581 1.5098406 -0.14667907 1.0732281 2.6909814 0.5474149 -0.70142174 -3.132476 3.2074666 -1.0401251 -0.6257117 0.62157434 -1.0805558 1.6897323 -1.0192835 1.6181597 -0.18424177 1.666464 1.6412218 0.5855496 0.864794 0.9720844 -5.19548 -0.90929866 0.17387283 2.1718018 -0.121724464 0.8998106 1.0914072 1.5882311 1.2295513 4.750485 -2.3709648 1.6586418 1.4981092 4.372184 2.8308704 -0.37280434 3.3963692 1.1578617 2.8126364 3.539667 -0.8813561 -2.0384035 1.4002755 -1.6339214 0.22068334
flower -0.23716488 -2.5150177 -1.3663357 1.1831203 1.4659536 -1.3755975 -1.5301099 -2.2072155 2.016287 -1.3149168 0.78034693 -0.6320067 0.8836473 -3.6307397 -0.19115035 -1.6717613 -1.8279144 -1.5536087 -1.040792 0.28686908 3.5684018 -0.6609848 -1.8953319 -1.0177742 -0.9943158 3.7341092 -4.474322 -1.0518608 1.4606304 -0.1138972 0.60715806 0.8977458 0.24005911 0.27144292 1.7694998 -1.891872 3.099339 -0.024969064 0.18075046 -3.3075306 0.9748694 0.32374623 -2.108762 0.27429804 0.47928372 -0.83851635 -1.4609392 -1.3106401 1.3388232 0.18922344 0.20180371 -2.3182511 -4.763338 -0.8101416 -1.5944678 4.6832523 1.1765018 -0.95420074 0.22081746 -1.908627 0.9713299 2.4892473 1.3515826 -1.594135 0.40595886 -2.5081472 -0.4998806 -1.7470952 -0.012805216 0.83953774 4.203253 2.1802611 0.86336523 0.2370141 -0.31104273 -2.4382172 -2.0096376 1.4345918 1.8582029 0.4483147 1.1154045 0.21511187 -0.9345073 0.023174187 1.6055088 2.1283345 3.2429872 1.6853739 -0.3084317 -2.11244 0.5702371 -1.2948587 0.6225912 -3.050283 0.4087673 -1.6536514 -1.6398536 1.2197914 0.7263056 -2.7347734
suki -2.3822336 0.28150085 -1.0244997 -2.6997132 3.2782595 2.2446907 1.0565876 -1.4983909 -1.3884242 1.6112767 1.2035518 -0.61622316 1.8196014 0.5627139 1.077274 -2.433594 -0.17138398 -1.2832572 0.29839456 -1.11581 -1.289017 -2.513897 -1.1361201 -2.1900442 -0.080202535 -0.14042911 -0.046775497 -0.4394794 -2.125246 0.8628805 -0.5071257 -3.4376993 -1.9086274 0.051778935 2.2669973 -0.50032574 -1.1980606 0.17148855 1.837932 1.4778148 -0.5914512 -0.633172 1.7325448 -0.3023709 0.5107188 -1.3640822 1.2609589 -0.14260294 0.99667376 1.4779547 -0.24364476 -0.4467526 1.3764542 -1.9853153 -0.5062498 0.6366414 -2.0310602 -1.8599666 -2.364735 0.41513556 -0.7085966 0.61747235 -1.2157 -1.4094448 -1.9739132 -0.6534641 1.0056533 0.21334799 -1.2427622 0.84627545 1.3263935 0.09732221 -0.27328426 -0.5224596 -1.5116379 -0.6027925 -0.13276513 1.2037218 0.7392072 1.289979 1.4694266 1.833822 1.6370326 2.3457954 2.3495212 -0.83083385 0.73231035 -0.33806467 -0.20069797 -1.6260638 -0.43475887 -1.4047312 -0.0025751723 -1.9355346 1.4339579 1.4196901 1.1028498 -0.67338043 0.80805695 -0.18158214
cup 2.1475735 -1.8386672 3.6532805 -1.3025453 0.38136628 -1.052051 -2.4650624 1.7303694 1.0168698 0.8003937 -0.08896224 -0.4716795 -1.3816766 -2.233367 1.2837965 2.1836383 2.15555 -0.11175805 1.5964094 -0.23803392 0.001335817 -0.98255116 0.051712442 -1.3264859 -1.3263521 -1.8737622 -1.5694356 -1.868466 1.9233384 0.2553915 1.970454 -2.3419673 2.6201835 1.4240757 -1.3706388 1.2638544 -1.1753001 -2.5310776 1.5071867 2.2323296 -3.060969 0.16782698 2.199001 1.7542458 -2.5627172 2.3852634 -1.3199918 4.987347 0.1928112 -2.6093323 -0.2379983 0.9388731 -0.74635744 1.203383 -0.97547925 -1.6089159 0.25831774 -3.0346131 1.854139 -2.1307104 1.6847143 2.9992998 -0.94346476 0.9902824 4.1673574 -0.31037912 -1.4807941 -0.30472875 -0.11378132 0.95440215 -1.0975649 -3.7801595 2.245631 1.1839533 0.27313223 0.59859616 0.04255479 -3.5896215 1.2145532 -2.1326504 -1.5570813 0.95542485 -0.8989603 -2.4189897 0.9929994 1.7683864 -0.13481748 0.74140865 -1.6159798 -0.89808357 -1.4267195 -1.1693662 -2.2274063 0.7304272 0.8040789 0.0650722 -3.4532576 -0.8051677 3.3197355 0.111568555
candles 1.2395087 1.6502365 0.28695548 -2.6908648 -2.863497 1.5401771 2.0440953 -0.11781288 2.6219113 0.054556742 -1.150412 -2.6849334 -2.8502083 -0.5052839 -0.81504357 3.1573145 0.34453148 1.5907902 1.0818561 -0.9791946 1.3594239 1.682351 -2.6533082 0.076185636 -0.33468768 0.0081146415 1.2435577 2.8844202 2.4071348 0.48868257 -1.0565227 0.8513532 3.0797024 -1.4881065 -1.9372071 -1.4073457 2.5083175 0.578548 -0.28927177 0.3661534 -4.187702 -2.2726622 -1.011517 -0.33600333 0.7310847 -0.22331977 0.49874166 0.1504587 2.5702176 -2.1402826 -0.9132794 -1.9040402 1.064512 0.62637866 0.7009949 0.04570646 3.2814412 -1.6353903 0.71832216 -2.249991 1.0218433 1.6942054 -0.19763143 3.6444895 2.311692 3.4142482 0.056390505 2.786833 0.4644301 -1.5998484 -0.9472303 2.6065483 0.36373046 -1.1424596 -1.3802767 -2.5162513 -1.6182601 -0.17817797 0.41133538 0.59330755 2.8776803 1.484947 -0.333377 -0.96021265 1.3471444 -0.35103157 -0.5494011 -1.970465 0.26132995 -0.5659305 0.19785777 -1.9634434 -0.9614328 0.63822967 0.486763 1.6827463 -1.2701738 0.9384803 -1.935668 -1.4653568
hearts 0.24076839 2.8550074 -0.008884098 0.63204736 -0.3885879 3.513406 2.5859578 1.9938648 -1.6190084 -0.73753065 0.92825097 -1.2818674 -0.15764003 -1.1203206 1.073572 -0.87261677 2.5385385 0.25527614 -1.0654941 -0.6680895 1.0676557 -2.3092365 -0.48254743 -0.27550614 -0.9131446 4.694264 1.3018365 0.5234392 1.3438754 1.1076275 -1.379052 -0.57904184 -1.0616814 3.1540463 -1.1803887 0.37055337 -0.86106586 0.92229515 1.0397255 -3.7089188 -1.2962112 -0.78933054 -0.8517352 0.4100237 -0.7123624 2.2101102 0.008872741 1.2498276 0.7306423 -0.6636035 -2.2357378 2.2974083 -0.1027893 -2.106042 -2.243702 0.93833184 -2.032119 0.12510732 0.56354195 3.7717774 -1.1705766 0.5580866 2.728226 -0.34386083 -1.291058 -2.7627676 -0.15297219 -2.3380563 0.52054083 -0.6382218 0.34854797 2.6943176 0.3692195 1.270361 -2.2344525 0.2891547 -2.0789804 -0.8967109 1.1185346 -0.072165474 3.0745382 3.7197971 2.0530872 3.158081 0.42852348 0.3176159 3.2318423 0.78496534 -0.17667815 -1.7842999 1.0223672 1.229257 1.7740653 0.03213673 0.4785462 0.3126728 2.1326053 -1.3545965 -1.7353076 -1.9897088
jam -1.3458899 -0.07883973 0.8325701 4.3898726 -2.6642168 -2.178684 -0.5330602 -2.641147 -0.054083753 -1.1649606 -2.217536 -2.712648 1.3191793 -3.1229012 -1.523276 -0.2771799 0.7390428 -2.5894184 0.21131241 -1.5174373 1.5995824 -0.95103854 0.39907965 1.1004564 -0.7124848 -1.7197982 -1.8453602 -1.2424242 3.0575948 2.209508 0.25193357 1.3940653 0.45041293 2.9098947 -1.3284343 -0.60881066 1.5021873 -1.9521314 -0.64053005 1.2699374 2.108153 0.087753914 -2.5847836 0.99259233 1.5072308 1.5677457 1.2959669 1.9956179 3.6061685 -1.1085304 1.7782106 1.1016088 0.26013893 -0.2206283 -2.5149612 2.0792973 2.3170788 -0.4089599 -1.0615975 -0.023912037 -0.258578 0.40410104 3.1709125 -2.965914 -1.9262549 -0.0849481 -0.16130902 0.46663898 2.164507 -2.6776762 2.1940093 3.9868207 -3.3725152 1.2534136 -1.5354031 -2.6493278 -1.7701868 -0.84078556 3.2418177 -0.8133734 1.1216888 1.7448072 0.5744065 -2.299988 0.343315 -0.17110775 0.64578295 0.49374598 2.0748796 0.22130126 -1.2992554 -0.9441297 0.8208571 -1.7395052 -2.6359274 -0.43401355 0.719378 -0.5162233 -0.9762251 -2.850551
