2484 100
set 1.5111332 -0.58358246 0.76518625 -2.7992082 -0.57157 1.4659092 1.5112216 -1.4621923 -2.1560614 0.7660747 3.3525693 -0.5991474 -0.05914788 -0.6435466 -1.8712695 0.382119 1.5486163 -1.8431884 -1.7726084 -0.9728333 2.0645227 -0.46354133 -1.2442591 -2.4355142 -0.61402535 -2.9794044 -0.06730264 0.5692952 -3.7749217 0.94763803 -0.017651848 -2.681903 1.1363596 3.9430335 -1.4894018 -0.6741709 -2.8947294 -1.7630835 -1.2351708 -1.4927131 -2.8569531 0.12956508 -0.6098593 -3.5163531 -2.9708636 -1.3971008 -0.05863795 0.38852143 2.0811422 2.076689 2.2371595 6.840086 -1.3924854 -0.101717584 -2.1707208 -0.1336063 0.42679024 -1.8956313 -1.633602 1.9077193 0.62947977 1.6366775 -0.5023319 0.6107819 2.8207285 -0.58707666 2.0298102 -0.006971115 -2.5149982 -0.84264374 -1.8283211 1.6442692 0.8631529 -3.1851208 -0.7824161 0.33436242 2.0886977 3.3114383 -1.9068141 0.41503847 3.6697114 2.468956 -0.50679624 0.53666925 -0.6772532 2.0759435 -0.5887763 1.7238641 -2.413656 2.5673046 -1.2331617 2.154057 1.3736141 -3.8588164 0.25799856 0.9772797 -0.029425615 1.952782 -2.830324 0.33422992
of 1.5375901 -3.8929162 2.426157 -1.366435 -0.047901332 -1.5997871 -3.804103 -1.7192062 -1.6323947 0.94245094 -0.12250268 -0.078346394 1.2316264 -0.91043186 -0.251946 -0.9337229 1.9808779 -2.041641 -1.9777945 -2.7835557 2.6059792 1.2243127 -0.7474003 -3.073446 0.028482214 -1.6169404 -1.4690605 2.2079134 -1.9970273 1.6590855 2.5655842 -3.0885406 1.374338 2.6741016 2.1899393 -2.7959762 0.3017757 0.18124956 0.027198832 -1.913998 -2.2152631 1.6792127 0.2678292 -0.860584 -1.011059 -1.9175572 -1.907551 1.4828972 -2.104261 1.8216937 5.418388 2.236213 1.5571485 0.9236089 -2.1330736 -1.5866405 0.94395083 3.2084062 2.7201219 1.1612306 0.51068616 -1.4217485 -4.554223 -0.51775956 -1.189086 0.025971381 1.0111866 1.9282024 -2.189154 -0.14815864 -0.8632164 -0.0430049 0.9359027 0.30235803 -0.1470779 -0.30604392 -1.5394264 2.7438996 -0.08270241 1.803547 -1.4706616 0.05406795 0.71508324 0.9657342 -1.438641 -2.1808524 -0.79471606 -1.6063476 0.19152437 0.17271331 -1.5169976 -1.0559918 -0.49943602 -1.1651312 -1.9017843 1.6146141 -0.06495622 0.7497152 1.0798249 -2.562135
bag -1.4562783 1.0653955 -1.5510682 0.8794602 1.7450732 -0.06832757 0.28557056 -0.35884926 -0.80826205 1.9419265 -1.2013803 -0.5482291 1.371378 -0.58311516 0.8197621 -1.3892758 1.1429112 0.11325519 0.09479333 -0.47255242 -0.090861574 -0.54612297 -1.4925941 -0.45221293 3.1721394 -1.9256451 0.09981825 1.822383 0.7800627 -3.1501374 0.029947039 1.6192689 0.012465616 -0.64200044 0.3696376 -3.3393204 -0.44630337 -2.6873605 2.5523088 -2.2811983 -1.0170308 1.4432069 0.9737815 -1.5416828 -0.23427968 -0.09732876 0.26257026 1.6700727 -0.20216765 2.1732903 -0.7786247 0.9621054 -0.6237712 -0.7726974 -0.9746744 -2.0249639 -0.9482151 -0.43492895 -2.1396916 -1.6043841 -0.9050373 -1.2320763 1.0735513 0.023900753 -1.221787 -1.4250185 2.187546 -2.3629777 -0.042859994 0.5921223 3.7373357 3.4664059 0.26670015 1.1416783 -0.006073299 0.28008625 -2.0355923 -1.5848794 -0.8107154 0.20247127 -0.19117923 -1.0088766 -1.836141 1.9366965 -0.8061035 -0.76353055 1.6885746 -1.1581563 0.8014453 1.2356827 -0.23947963 0.1260403 -2.4446046 -0.79955375 -2.8605719 -0.19902177 -1.7450808 -0.8758804 2.6328466 -1.8862277
red -2.3448737 -1.2900782 1.3183941 -1.491102 2.3896182 -0.8082643 0.7653723 3.096139 -1.351636 -1.7655513 0.74069005 -0.99583703 0.2858932 2.6700022 1.7000273 -0.29340267 0.64808846 0.30126834 -2.3812847 0.15001905 2.4477952 -0.20910972 -0.113793395 -1.3840637 1.7565784 0.68415695 1.8886949 1.0331414 -0.120397 -0.53508484 -1.7028546 -0.97861356 -0.7167565 0.20977733 0.049600452 -0.3170335 3.6413167 -2.2002022 0.6842512 0.11749684 -2.681517 -1.2497523 1.5359384 2.6080143 1.8797369 -0.08848067 2.8696547 -1.5945845 -0.102301456 0.1880442 0.86102796 0.41675508 -0.25747174 -0.16706754 -1.2431707 1.5354656 -3.003239 0.4615648 -0.1005246 -1.3924698 -0.5676783 -0.70174885 1.3925909 0.41349787 -0.31146416 -0.225958 2.2571564 0.16858937 -0.6956869 -0.74656767 0.5850255 -0.3426788 -0.27654207 0.7557392 -2.280498 -0.14573148 0.036672052 0.62172055 -1.468483 2.320117 2.7421365 0.18378058 -0.032152165 -0.7849485 -1.8671405 1.0452728 -0.48810926 -2.2504034 -1.6095114 -1.0516801 -2.977789 -0.6529711 0.25596803 -0.69644225 2.5819857 -2.6507194 -0.1861344 -1.6796951 1.0011797 -0.33377355
heart 1.6134495 2.8376637 -0.48509857 -0.30507934 1.2637712 1.0367758 0.57080626 0.5597718 0.81135315 -1.1150336 -0.044392854 0.41889656 1.363546 3.7688148 1.0142921 -4.302987 2.520823 0.16423172 0.99382836 0.65436715 -1.4261197 0.8635046 -0.5145144 1.3576272 -0.8652573 1.8626426 -0.06075194 -0.5972009 0.83050346 1.2373267 0.1480948 -0.3686347 -0.876244 1.1962068 3.099716 -0.4173193 0.9359549 1.3551273 -0.40950638 0.07195494 0.5392209 -1.7667303 -0.25176835 0.69376814 -1.5009308 -1.5110415 -1.0707564 -1.5940118 -0.1189497 2.3012173 0.46327192 0.2446805 -1.1187149 -0.6501581 1.1536096 0.9104903 -1.5287541 -0.46152297 -1.4354671 -1.9312634 1.9168833 -1.4080514 1.4016376 -0.85437864 0.9253594 -2.4303951 0.9455011 -0.073581785 1.4676812 1.8586934 -1.3238454 3.7767234 -0.8890206 3.0611877 0.32146975 -0.02278674 0.49259108 0.75798434 -4.395816 -1.7336067 -1.7478778 2.0095696 -0.5078985 -0.42902654 0.704899 -0.2597274 0.14669228 0.78316504 -1.280544 -0.22421975 3.0185318 -0.98854446 0.92132264 -1.4706095 -0.31225133 -0.2276192 2.0996268 0.89806443 0.6697948 1.9924297
retrospot -1.0180763 2.3511765 -0.1459474 0.4913026 -3.1538382 0.6098102 -2.7283103 0.70574194 0.7153449 -1.6601278 1.5861802 -0.08514895 -1.5120232 1.3986924 -3.0521748 2.4546597 0.32291254 0.39425382 -1.6271139 0.76149195 -2.0270524 1.0305482 1.8913252 -1.7744275 0.56114316 -2.5233498 -0.25464395 -0.24365637 1.7495741 -0.17694178 1.23736 -3.9505382 -0.36996275 -1.1502924 1.311467 0.16270663 0.9696265 -2.1277232 2.0934002 1.8909901 4.112263 -0.8983188 -1.3100251 2.2422993 1.2487366 1.1862043 0.6961744 1.1363131 -1.4524512 -1.1329949 1.8454629 0.5408537 -1.7043552 0.5730768 1.0960207 -0.8084717 3.756209 -0.36288342 -0.66829145 -0.29400608 0.9720318 -2.5228221 1.5127895 -0.17533106 2.278171 3.1621556 0.21422489 0.21210735 0.17904137 -3.2608669 -1.1025158 0.16893403 -1.3086407 0.63624203 -0.19469896 0.30635658 0.75664884 1.4897228 0.8267156 -0.6890655 -0.8547091 -0.39655757 1.3807628 -2.4649253 -0.17445837 -0.7924536 -0.47339764 0.53903735 0.857572 -0.2742124 0.09046132 1.3834292 0.079810634 1.0678126 -0.2152337 1.5190426 0.4003297 -0.22406721 -1.5323 -0.4070487
vintage 0.31809285 -1.3124751 -2.1518126 1.2988795 -1.9739126 1.7793418 -2.6459184 -3.4146433 -1.063793 0.97775304 0.8142077 0.8856084 0.5935464 0.24119411 0.14095595 -0.041613292 -0.36469772 -1.7054329 0.56044 0.4326941 0.4940274 -1.6300904 1.4406426 -1.3807398 -0.09571872 -2.0301507 -0.43177405 -0.35293654 -0.14610302 0.05787516 2.4053576 0.7648179 -1.8091528 -1.7179577 0.06875921 -2.8076842 -1.2562119 -3.7134812 -0.69144726 0.0029727092 1.4162658 2.0685883 0.46224636 0.7621447 2.7176948 1.2249224 0.5494583 -1.1917678 0.6511855 -0.51799285 1.6503012 -1.8231546 -2.4629316 2.1379087 0.5485119 -0.00027192893 2.1473055 0.60231173 -1.6856345 -1.1373352 1.2612052 -0.7760562 2.2132568 1.2769362 1.44439 1.693681 -0.4932472 0.5007659 -2.0779924 -2.604934 -2.4528322 1.8612446 0.4345054 2.094688 -0.86160207 -1.711046 -0.7419506 1.9814337 -2.4385943 2.415873 0.364642 -2.939057 -0.14119391 -2.530281 1.7341704 0.29305118 -1.0711292 1.0649569 -3.0914483 1.3514835 -1.1788464 -0.901571 -0.7066538 0.6073438 -0.10614971 1.8382097 2.7517712 -0.62603694 -0.13301216 2.4054472
design 2.78708 -1.3614385 -0.45185366 0.5233089 -2.5401466 -1.4942535 -0.67507446 -1.351564 -4.297605 -0.5230614 1.0230856 0.9931116 -0.077048376 -0.97786033 0.11481829 2.3785086 2.1474478 1.6155375 -1.1321672 -2.9827309 -0.4940851 -0.58736056 0.6818623 -0.5930721 -2.984045 0.6494714 0.6808815 -0.38537782 0.60383403 0.07105271 -2.137153 -4.125924 0.7347813 1.3086127 -1.4214004 1.9289606 -0.5827125 -1.5309887 0.3375967 2.039657 2.1202526 -2.2480023 0.54436827 1.4553721 1.3406953 2.063332 0.9346438 0.6697788 0.97157353 2.4774117 1.0768601 3.2355242 -0.9536678 1.114508 -2.3218331 2.5406792 -0.32709953 2.4833963 1.3365328 1.3037736 0.8630065 -2.721963 -0.29986832 1.3264235 1.6778774 1.7504572 0.23974682 2.659231 -3.4762814 -2.7710903 0.93581295 0.8963242 2.5994349 1.5477191 -0.02149314 -1.2750949 0.3170105 -0.11472704 0.1786974 -1.1815784 -1.2071337 -0.65614617 -0.15371707 0.79367805 0.7431168 -0.6691869 -4.259742 1.1583897 -2.9147873 -0.92594427 -1.3459722 0.35792997 -0.72571373 -0.45095572 0.94659805 -0.61759615 -1.9231703 -0.81388056 -1.1468581 -1.7168723
pink 0.29970086 0.85845333 -0.543227 -0.593082 0.45928073 0.27909157 0.17829666 0.6197174 -2.4594526 -2.659693 0.99521387 -3.041292 0.4190847 1.5524783 0.50123036 1.024637 0.81179047 0.80951124 -3.1528869 -1.9906199 1.5585853 -0.8498795 -0.44450897 -0.731464 1.5510356 -2.0451908 2.993069 -0.5030287 -1.0201367 -2.0028698 1.0198387 -4.231381 2.3445365 2.6652694 -1.5659212 2.5869603 1.9553183 -1.6279607 0.14203767 0.5511302 0.0067436094 -1.2384723 -0.1635207 0.2140872 1.7748842 3.27396 1.8294986 -1.0831901 -0.33908248 0.6216166 0.97925526 1.5767598 -1.3057629 1.8766274 -2.8303802 -1.1287521 -2.5834882 0.29998216 0.5257139 -2.3892736 1.1005709 -1.9706906 0.53686684 -1.3736757 -0.62333184 -0.025099915 -0.06411334 -1.1266408 -0.8595919 -0.667454 -1.7763871 -1.0372304 0.7352913 -0.82738566 -0.9882224 0.119517006 -0.8229002 -1.1105325 -2.4419575 1.4304107 1.4295235 -0.2838503 2.24971 -2.928162 -0.5441224 0.7977392 -3.2572894 -1.4425138 -1.2398137 -2.856576 -3.3196185 -0.4101968 0.78674924 0.042533558 1.8643728 -0.9806875 -0.15896742 1.0448488 -0.49525544 0.95332676
christmas -1.9863799 0.45302573 -0.47030368 -0.9672047 2.7462125 -1.5955153 -0.08097019 3.7051601 -0.49286786 -1.4811352 2.216031 -0.3640239 1.2394423 -1.1127151 -0.5183037 0.53424716 1.8287274 0.12602974 -2.0174556 -2.782389 1.257708 -0.62365717 -0.85047036 0.84844416 -0.48406023 -0.65875864 -1.5782954 3.788743 -0.9181567 0.3490351 1.0436554 -1.7140191 0.05816882 1.6038649 0.32461685 1.034081 1.4718022 2.3047423 -0.6536829 -1.9298017 -2.5448666 0.036906086 -0.3615824 2.053056 -1.6118895 -2.105639 3.0417197 3.0110736 -0.8666043 1.2406197 1.6633127 0.7234579 -0.5182623 0.6931759 -1.3453085 0.15360878 0.6839329 -0.15785328 -0.17106064 -1.3009323 0.40072203 0.93198884 -0.061513536 0.57273763 1.7144141 -0.05689099 -1.8801507 -1.1440458 0.124936774 -2.0819397 -0.31664732 -0.25119117 -1.8575982 -1.7564218 0.051690824 0.37425822 2.078797 1.0181162 1.1527346 -3.1755354 -3.2748609 1.2198144 0.544195 -0.94404733 -1.0907133 -0.29232764 -3.2306838 -0.17471161 1.1365178 2.056333 -0.049011663 3.6722906 1.4543005 0.19571391 2.7512572 -2.0942113 0.73112214 0.5501846 0.90077454 1.8632169
box -1.2441986 0.6154018 1.1838713 -1.8152713 2.2159376 3.4817314 2.2318418 -0.9369381 -1.1771421 2.7662582 -0.46042752 2.1607661 2.1975732 1.6381551 2.491866 0.94686866 2.597645 0.25533056 -0.6963103 -1.3733131 1.8098826 0.5893962 -0.12392591 0.51776564 1.5855896 -1.1303217 -0.5983923 0.1952514 -0.7160489 -2.1711895 -1.8795059 -0.5395001 -0.41320565 4.4251003 -0.48639765 1.128073 -2.6695209 -2.5897546 0.1699352 -1.3753277 -0.11725678 0.1641569 -1.6282101 -2.39014 -2.921125 -2.6665394 1.2838695 -1.1269958 0.7245763 1.5546623 1.051613 1.0815074 -1.57769 -0.37885356 -1.5486506 -3.1074708 -1.292831 -0.16593878 -1.9792087 -0.43495426 -1.8222722 -2.916782 1.7372762 -1.8328792 0.59012 1.3676256 -0.83103037 -0.41328573 -2.3168955 0.9607651 4.184958 1.5188383 -2.6262019 1.4044247 1.8797152 1.5432245 -1.2807174 -3.7907102 -0.091811165 -0.30963096 -1.5940313 2.2695918 0.36380747 1.4219615 1.3229116 2.1806893 0.04477716 3.826457 -0.27503413 1.971758 2.3856773 1.5592039 -1.4373182 -3.1096687 -1.398287 1.5123831 -0.82983726 -2.102403 -0.68759096 -0.6563934
cake 0.3623766 0.73821646 -0.1385473 -0.79724157 -0.9873786 -0.25923246 -2.6912718 -2.7872543 -1.1506625 -2.7858388 1.6947374 -0.7516151 -1.4477711 -0.45562923 3.1968384 0.7038132 0.14639124 -1.1739852 2.4972537 -0.99103594 -2.757455 -0.09322338 0.33681563 -2.8654485 -2.2576628 0.10980038 0.1022407 0.7857099 -0.64845836 -0.06268231 -1.5554794 0.870513 -0.7075594 3.2773378 2.3841233 -3.5302005 -1.0228395 -0.863175 -5.1804724 -1.9472796 -0.713382 -1.2882973 1.3843676 -1.0069464 -1.6686441 1.2129341 -2.2438538 2.5765402 -0.93108094 0.8595926 0.76953447 -2.3987305 0.8724012 -1.5679498 -1.9027735 1.1975538 -0.88623655 1.0061271 0.52618766 -0.07308179 2.1076734 -0.4469195 1.4460856 -2.8971071 2.7683904 0.8409991 -0.33081418 -0.21742244 -0.034630686 1.3972349 0.10032883 1.3961126 0.7822575 -0.88380915 -1.974488 1.7018244 4.0182753 -1.5031276 -1.1290922 2.2505834 -0.6020992 3.0341084 -3.9783862 0.37293342 -0.25463855 -4.4021153 -1.5960742 -1.246815 2.494941 1.1665272 0.733419 1.2923577 0.37102932 -2.044394 -1.2013967 -1.2541783 -1.8384261 1.066249 -0.8563968 -1.3064911
jumbo 0.1711105 -0.86572415 0.6739803 -1.3719614 -0.660776 -0.7739857 1.2866253 0.8106676 -0.8445011 -2.1662858 -0.19705626 1.258119 -1.787981 -1.7843777 -0.73889333 2.253489 2.2684345 -0.630943 1.2190644 0.86752677 -0.5020063 -2.7164261 1.6733418 2.6079433 1.4092755 0.3195434 -0.08345177 1.3678328 0.004764975 0.80619633 2.7089252 -1.7131475 0.0096458895 -2.483329 -1.3203402 -2.396529 -0.18304195 -0.3147988 -0.49797806 -0.5717258 -1.1823035 -1.2766237 2.3779147 -1.7003865 -1.5850587 0.7451762 1.0729926 0.29165304 -0.85960567 -1.4265732 -0.4291219 1.2352961 0.21326709 0.25371554 -2.0952196 0.5046204 0.19579695 -5.296502 -0.13645215 0.58793503 -2.165389 1.2933744 -0.084569626 0.90233946 1.5458806 -2.7287896 -0.001587427 -1.0616577 -1.0537896 0.9980445 1.1223485 -2.9463966 -1.6694672 1.2134279 0.6138807 -0.5473324 0.005097368 -0.69239444 1.1913782 -0.4662135 0.58434427 -2.4462073 -2.2538245 0.18543369 -0.9129653 -2.1905165 2.9915197 0.33321685 -1.0807151 1.9396178 -1.0484474 -1.0911247 -1.282535 -1.0624723 -1.5483898 -1.0641489 1.4312247 1.5826287 1.6656352 0.06714536
metal -1.9618096 1.9135908 -1.4664019 -1.2060413 -1.8351518 -2.0721533 -0.96640337 -1.4645782 0.22073683 -1.8479373 -1.61833 -0.9006449 -0.8236254 0.01935954 0.9692307 2.7345414 0.6359546 -0.4771443 1.4649295 -3.053358 2.4523778 0.939938 2.0437484 1.3981435 0.2107978 1.7244802 -2.022094 -2.2722785 -2.188478 1.9909264 0.28755203 1.3748982 3.4597912 0.8564596 1.3386446 -2.0294983 -2.5346384 1.5993369 -0.8143426 -0.9569176 -2.087197 -0.7002831 -0.7606028 0.6480384 0.28273937 -1.555811 -1.2818907 1.6748023 2.5210743 -2.3146045 -0.3512198 -2.1687078 -1.2612938 0.6434012 -1.0201622 -0.1639188 1.3583307 1.9090327 -2.559789 -0.1509158 0.76169425 -0.92388827 0.38876724 3.5230603 0.014900549 0.6107241 2.9573698 0.7927183 1.4122417 -0.60702705 0.6680058 1.7437416 -1.426711 -0.8493653 1.2695538 1.7513522 0.47780836 1.0402282 0.9708453 0.7518994 -0.020702232 -0.3957964 2.9914434 1.8791652 0.2295168 -0.30197144 1.1018692 2.2532525 -2.3362753 -3.1029549 -1.5905888 -0.5918263 3.2683346 -2.4702458 -0.93191385 1.4544066 0.20389377 -1.0239718 -0.67660916 2.5275562
white 1.4676329 3.3283732 -0.6214752 -3.4731867 0.5222978 -0.5311886 1.8596847 0.39665323 -0.5762432 -1.5738183 1.7065018 -1.811186 -0.7159653 0.098463595 0.5959595 1.6005994 2.4358242 0.4566069 0.34346777 0.298719 -0.88105696 -0.36534974 -1.036174 0.6164008 -0.28920138 0.9489695 1.1465877 -2.8222086 -0.7667383 0.40215978 0.048426908 -0.34189457 0.9101324 -0.5182958 -2.8812416 -1.9604203 2.0649333 -0.9528835 1.402243 1.5082166 -2.2594461 0.32270324 1.0499263 -1.9754407 2.619838 0.7764613 0.8237656 -0.23262046 -0.12685199 0.7044055 -0.6598038 1.7370533 -0.49055672 0.43350282 0.4153142 -3.681373 0.31975463 2.8130078 0.53902966 0.67680264 1.1163241 -3.3362617 0.8781832 0.8919306 1.2983632 1.3281697 -0.5616057 -0.99390495 -0.85742664 -1.4057463 -3.6893609 -0.98190475 0.3975523 0.096766 -2.6282656 3.2504747 1.9557022 -0.13635606 -1.5497756 1.1638979 -0.7234373 -3.0149999 -1.2518226 -4.61083 -2.1143842 1.2206376 -0.36297667 -0.4479864 0.42336363 -0.1025905 1.9190993 -0.8924194 1.2832626 0.09599808 2.7107987 0.47775942 -0.31905344 0.14120905 0.30501345 -0.6640662
blue -3.4299347 -0.8582289 -0.45434996 -1.4192233 3.2087567 -1.4497964 -0.023762735 1.8626525 -3.004341 -0.16150099 -1.2055683 -0.4373961 -1.4066449 2.401361 0.07581726 0.18369272 -0.19354874 -1.2619128 -1.9413258 -0.7232833 0.15102845 -1.1238785 0.09627099 -1.3143933 0.10283963 -1.382924 3.0898619 -1.6853887 0.21125354 0.7226268 2.2540448 -4.382061 0.27690765 1.2079322 0.6731295 2.444818 1.2499272 -3.1937506 -0.6872209 -1.1471002 0.22740385 0.5886297 -0.3911602 -0.6797153 3.4984112 3.4606729 -0.78588194 0.37098226 -1.8080868 1.3155862 -0.298259 -1.1423143 -1.1392545 0.4835825 -1.7433218 -1.4057025 0.024238 -0.5595684 -1.2186401 -0.9861783 -0.17234795 0.32378343 0.6995256 -0.64002466 -0.64401245 -1.5713911 0.19497323 -0.07578615 0.8477046 1.8024592 -3.272137 -1.5943514 0.16414656 -1.6998137 0.10206326 1.4035757 1.069075 -0.7989019 -1.7163074 -0.35753658 -0.04397358 -0.40228242 2.765529 -3.911276 -1.1720814 0.58953106 0.7182137 -0.46234757 0.078030095 -2.281873 -3.2891772 1.6135792 -0.47512916 -1.8654926 -2.837521 -1.0851345 2.5888748 0.9828554 2.5262794 2.7810001
3 -1.4178737 1.9038347 -1.6427965 -0.54540014 0.014224999 0.72102386 0.41456455 0.143203 -0.20761706 1.5813745 -3.7337868 -1.3011465 -0.6434689 0.5853454 -1.4301068 0.19757597 -1.9830254 2.6788723 -1.2533672 0.48762947 2.758626 0.028214138 1.2106196 3.9232137 1.2225285 -1.8373375 2.846367 -0.7107895 -0.7140098 -1.3303262 -1.5836244 0.39187884 1.7286811 -1.4838731 -1.4692347 0.63326883 -0.9121111 -2.4376214 2.155762 -0.18861829 -1.619639 -1.5248086 0.08083198 -0.040455073 -0.38624614 -0.85823166 1.6491288 0.26122662 1.2461095 0.54422945 -0.5235203 -1.7320085 -0.31198722 2.0933325 0.27784628 -1.1936808 -2.8117626 1.867266 2.5734866 0.6000713 4.8960214 -1.8948652 -2.04465 -2.318683 2.4679039 0.5919241 -2.730974 -0.52740884 0.8085129 -0.34634343 -0.77786267 1.8577231 -1.8937446 -0.36836615 -3.5223489 -1.6792 1.326488 -2.4413218 1.0171033 -0.6634903 0.511844 1.8082943 -4.5270066 0.9389769 -2.3016865 1.897892 -2.7462947 -1.8180759 -2.638478 1.8542188 4.9609737 1.316602 -0.7902047 1.9257677 0.070339054 -1.1283512 -0.52163744 -0.8491116 0.31771684 2.409613
lunch 0.36306107 -2.767857 2.887349 -1.0155786 0.47308576 -1.807648 1.9403405 -1.1774106 1.68767 -1.3782635 0.8473682 0.8390307 -2.0255516 0.1669266 -2.375523 2.51993 -0.5838376 -0.47147822 -0.28382543 -0.5472271 -1.1942348 -2.655465 3.068478 -0.4207683 1.1663076 -0.08984486 1.1148415 0.40416682 2.0198631 2.5560663 1.5829769 -0.002275368 1.0616524 -4.3195167 -1.1420821 -1.3647095 -0.5653645 0.74895436 0.18532014 -1.1452959 -0.119500175 2.0421038 1.9337976 -1.885191 -0.6344559 1.3640537 0.5407863 1.005179 -1.5494633 -0.7011842 0.4415103 2.0372365 0.91457003 -0.6514672 -2.0385928 1.9546593 1.4326584 -3.9503932 -0.4024548 -0.30279732 0.70557797 -0.15650299 -1.5801356 2.6151645 0.37038136 -2.2090983 0.4743824 0.21463941 1.6377022 0.79632455 -1.6983724 -4.0208488 2.7213852 -1.2025735 2.5227888 -1.2814693 2.1565611 -0.33167878 0.4647217 -0.654189 0.6790017 -2.5703337 -2.0983825 0.67051834 1.0545506 -1.3445358 2.284064 1.293479 -0.885285 -1.0734978 -0.17268386 -0.51914114 -0.10798394 -1.4192092 0.32902774 -1.393922 1.7982597 1.8173165 0.6576088 -0.96765673
hanging 2.2419517 1.546517 -0.3099506 -0.78711474 0.6608087 -1.1069846 -0.038507726 2.7340221 -0.99841624 -3.1924362 -0.14846124 0.5390866 -1.9564267 -0.2762392 -1.4251252 -1.0783376 -1.6350197 0.6381878 2.9556108 -0.08353113 -2.4976618 0.60621977 -0.9671208 0.08928786 1.1208923 -0.5731586 -2.001544 0.862041 -1.1403599 1.7618093 0.72587854 -1.4182973 -1.8738536 4.7136827 0.9016468 -0.1531034 0.6273414 0.031336304 1.3637782 -0.51473284 -0.33552498 -1.4158591 1.4610368 -0.29661122 0.79553455 1.0728105 -5.520971 -1.5269848 3.6340728 0.9714811 2.447273 0.23059337 0.46784893 1.3108244 -0.684512 1.4485588 0.8528778 -0.52696717 0.61529666 -1.0459104 0.010909639 -2.006552 2.653431 0.43192077 0.639118 -0.10646792 -2.40027 -0.39113092 1.1406939 -2.6638567 2.2784233 1.199062 -1.7611171 0.6122355 -0.9572571 -0.18588823 0.60960424 0.7904995 -1.0499293 0.88585657 2.1679482 -0.79108226 0.7210768 -2.4482408 -0.7957876 -0.544972 -1.748698 1.0068476 2.7794428 -1.2447091 1.243748 -3.3508983 -0.44137415 -0.44496995 1.9354728 1.5697035 -2.0326614 -1.9133012 -0.83756685 1.9442601
sign -1.3426673 1.1259562 1.1173551 -1.9797717 -1.2225715 1.8855836 3.775993 0.34289718 0.16933885 -0.8602028 -1.6040671 0.014988356 4.2866125 2.0886085 -1.123591 0.73545516 2.7908628 -2.250987 -1.9125679 -0.22926049 0.8626671 2.2964213 -1.2183686 -0.9002175 -3.3527288 0.5984332 -2.2984204 -2.5158439 0.24048205 2.0864463 1.6260016 0.5853276 0.67976856 1.3526692 -1.7052679 3.9441142 -0.7859791 0.23846118 -0.6712294 -3.8168428 0.8948472 0.63816005 1.254104 1.0508306 -1.7265393 -1.279708 -2.1493323 -0.90530044 1.7217079 2.2396047 -2.6389065 -0.6234565 -0.24247646 0.5669818 1.8665841 1.7315747 1.262332 0.962408 -0.61922777 -1.1756306 -0.96275437 -1.2154629 -2.064833 2.2684987 -1.3042691 1.3727138 0.31067607 1.7988126 -1.9052244 2.4703417 2.142326 -1.2672268 0.05684768 -0.8101164 -2.0407746 1.0929646 2.6698992 1.4984367 0.6229484 -1.2069637 -2.2336826 -3.558428 1.6293218 1.1890439 0.96377915 1.463901 0.9050727 0.03244564 -0.7863975 -4.8189855 -0.5128169 0.6371913 -2.891237 1.6716373 -3.1040084 -1.7572109 -3.589779 1.5421576 0.49726766 2.0555105
holder 2.8816133 3.5521054 -1.4334344 1.5864516 1.4119415 -0.7839991 -1.6284826 2.9221768 2.519263 -2.0103645 -0.43980595 -1.9432963 -0.35193124 -1.2594476 3.5400596 -1.8153478 -2.0880148 -0.5490214 1.7529218 -0.2759229 2.5334117 -0.19757074 -0.68007666 2.1488287 2.3313675 -1.4517603 -2.4023325 -0.16362105 -0.757296 0.23086376 -1.7494881 -1.4812573 -0.5502656 0.7927374 -0.64506865 0.74929696 0.75221336 2.195454 -0.2313628 -2.7453387 -1.3529903 -1.4096756 -3.9949408 2.502876 1.2078145 -0.24620347 0.15952921 -0.25391543 3.638598 -0.36514175 0.46259615 -2.4229822 0.45896503 1.4093121 -2.4697082 -0.18508407 2.441453 0.4628224 -0.6970127 -1.6285145 -0.62655455 -0.7701758 -0.351355 1.3365356 -4.691087 2.0739846 -0.6773069 1.3783872 -0.33558327 -2.0391815 1.605088 -0.40681526 0.11743159 0.5991038 0.48944336 2.509615 -0.64542353 2.7188485 -2.9800663 0.54008377 -0.84367406 2.3910487 0.9173322 -1.0269611 -3.1430612 0.964017 -0.028050259 -1.4864949 1.1163133 1.2555193 0.74519455 -0.2180545 -0.13075662 1.2568315 1.2192112 0.85023963 1.909898 -1.5714974 -2.3849742 -0.5903389
pack 1.1168952 -1.9957874 0.4397135 -1.305243 -1.0310363 2.5636725 1.2752618 -1.8140959 -2.484639 0.16222267 1.7264587 0.6086073 1.4325277 1.026267 -1.0091573 1.2711729 0.58478016 -0.90054405 -1.4273139 -0.0007041223 -0.61855686 -3.057019 -3.4282994 -0.83142596 -2.3473372 0.8894541 1.2570523 2.6215959 -2.1967301 0.6263432 1.3543614 -0.83606243 1.4330548 5.6932936 -1.848769 -0.8016451 -1.766077 -0.75546867 1.1078055 -1.2866119 -3.3991299 2.0213606 1.9918002 -3.3583508 -3.553279 -1.0346551 -1.3266355 -0.8614929 0.5451751 1.6891607 3.8738878 3.7703154 -3.5055716 -4.600621 -1.9748932 -1.4546055 0.237441 -1.1731527 -1.728528 1.5315782 2.1558714 1.5064033 -0.43016058 2.7143824 2.0707648 0.84148675 2.5972643 1.5391502 0.2811392 0.17396206 -1.9325678 3.1072323 -1.2692488 -0.459073 -1.6377543 -2.960207 1.6823595 0.8244156 0.71195835 2.3384984 -0.58161974 -0.38309512 -1.2563463 1.3170348 -1.8011739 3.985271 -1.4320346 3.6249685 -3.5672002 3.3866117 2.8505564 1.8099258 -0.5910702 -1.916159 -2.3235142 -1.1478025 -0.45462933 2.2478755 -2.6325264 -0.7958626
t-light 0.5690761 0.6275265 -0.6394667 2.6436794 1.8723259 -3.7418249 -2.734608 2.6406913 1.7267966 -2.2548423 -2.9726894 -1.3810061 1.6081862 0.19432585 0.90426874 2.0723963 -2.8087997 2.4260042 1.6372473 -1.7825481 1.2441574 -1.7937008 -2.0724034 0.8046057 0.058450114 0.4420898 -3.0538218 2.8919206 1.3782271 0.7818963 -2.5887172 -0.20890903 -1.2892954 -0.3159931 -0.031715706 1.601377 0.19938648 1.6439254 -1.3086832 0.18869871 -1.4624932 -3.5518637 -4.0391245 -2.0775506 1.9481865 -2.7908366 0.5356663 -1.0190227 0.3578869 -1.6647536 1.2248094 -1.4404491 -1.1883454 1.1169956 0.03529422 -0.108245425 1.1763997 -0.69708544 0.18767166 -1.5988733 -0.066725984 -2.442841 0.8026 0.7121843 1.4879279 1.657213 -1.557793 -1.8534048 -2.0226438 1.3076793 -0.44562936 2.8496041 0.5590001 -2.2283463 -0.33980435 2.6942163 -1.635 2.0330086 0.033579662 0.724161 -1.6955639 1.3205271 2.1359 -2.0510447 -1.5308435 -0.8122745 0.9338291 0.27982104 1.606237 0.78167915 -0.29814455 -0.14555056 -1.4430406 0.10024251 0.29968756 -1.0266637 -1.3330048 -0.08595244 -0.8085416 3.5711815
paper 0.17827117 -1.3500475 0.10036122 -1.0961761 -1.8877078 2.5948148 -1.7046483 -1.6277404 -1.3314263 -2.3491447 0.09519378 -1.6004045 -1.8482084 -0.31148067 0.27426466 0.9360427 -0.51921606 -2.3519895 1.1613017 -0.7906104 2.032523 -1.4793205 0.5849151 -0.011436937 0.27897078 1.5500615 -2.2830198 3.0395114 0.16675456 0.03699747 0.9228384 1.3487599 -1.8023819 1.6320734 0.7463545 -4.4524794 0.9973185 2.6098003 0.2560653 1.2266967 0.26663142 -0.047485545 1.7271528 -2.9634264 -2.6901417 -0.69087416 0.06982741 2.0093768 1.1259581 -0.20842749 4.863681 1.2858409 1.0449216 -0.3429093 2.2302835 1.8640593 2.111322 -1.9340367 1.6856062 0.36398488 -1.7137314 -0.8722007 -1.9421206 0.17861737 3.7437923 1.3662925 0.6747275 -2.2918036 1.7324773 2.147807 0.45673025 1.0389361 -1.1242987 0.5779528 -0.16637716 -1.5019239 0.087636955 -0.76212704 0.77799046 -0.5894308 -1.5118719 0.43808332 -1.7590961 0.8479256 -0.06378492 0.65643597 -1.504441 -3.1729176 -0.43425506 2.1417718 -0.48376876 -0.56546664 -2.7957926 -3.1661658 -0.64929986 -1.4193996 -1.4063861 -1.1644299 -0.6468152 1.833217
small -2.0438445 2.181577 -1.4118541 -0.9425907 1.4881921 0.0576872 2.0680804 -0.75320274 0.9788521 -3.8448355 0.28700244 -0.38899827 0.45444113 0.70229095 -0.65790874 3.5632122 -2.5881147 -0.44812486 0.42240462 0.6361544 -1.7335825 -0.090682246 -3.0301347 1.1184052 2.806433 -1.9407743 -0.048312332 1.1101699 1.008865 1.8614163 0.2979836 2.1430023 -0.13919872 -1.4321512 -0.00051902124 -0.656912 -1.6125233 -0.86571234 0.44238484 -0.088205084 0.3027882 -0.24516279 -1.529475 -1.4093254 -1.2505512 -1.9790666 0.61421144 -2.5269773 4.582651 -2.2251391 1.575836 -0.29101837 1.608777 -0.54765785 -2.1938832 3.100489 1.6934841 1.8674027 -1.2445754 1.8324245 0.21002477 -0.24710685 -0.46595863 2.1352046 0.8623192 -1.3833226 -2.7261357 0.08028639 -3.1495974 -0.47524288 -0.07517507 1.083456 2.1733866 -2.1291819 -0.87704086 2.1853096 1.2106357 0.81171095 -0.7130017 0.020272544 2.3114161 2.8145719 0.5193689 -1.2588025 -0.20009889 2.088897 -0.7346462 1.6647071 1.2309184 0.23976523 0.9259603 -3.1264846 -0.37856445 -3.1996322 -0.8660711 -3.4140065 2.12481 -1.2933908 1.3520913 0.0021071115
card 2.6918306 3.0550323 -0.036322333 1.4726392 -1.4894146 -1.9251312 0.12031481 -0.2234733 -2.8791127 -1.4978825 -1.6824453 -3.130091 -0.67043465 -1.4271705 -1.2082002 2.8077838 -0.25893116 3.6114845 1.9277108 -1.7563114 0.2403334 -0.3686686 -1.0691901 -3.27462 0.0653283 0.56795675 0.08722372 -0.058269046 -0.5867016 -0.81784654 -2.114791 1.1317041 -2.4486256 -0.54350895 -2.6351442 1.1323558 0.3757018 -1.4530896 -0.041995853 -2.027683 -3.7872355 -0.065231755 2.8979356 -2.3225057 1.2727658 -1.6913855 -1.4657366 -2.45382 -0.09500326 0.29300338 0.4348009 1.4883317 1.3222083 1.1537517 2.6227643 1.4511127 -3.2272608 0.71365505 -0.6239273 -0.19358543 0.5298724 -0.86444294 0.43450126 1.5776792 1.7236711 0.4007589 0.092463866 1.5234162 0.54673004 0.24908571 2.4201999 1.8892663 -2.0356505 -3.2489867 2.4685848 1.924491 -0.83818173 0.4515952 0.3804551 -0.22902495 1.9246686 -1.8149134 -2.5116367 0.24628429 -0.35667384 -2.8237038 -1.0855677 0.045228317 0.4364633 1.9365424 -2.2259254 -1.8528701 0.85079795 1.7629594 -2.137383 1.1761403 -4.6418295 1.3662238 -2.4496844 -0.95245105
6 -1.0094037 0.97349167 -3.6837611 -1.4458723 -1.6852655 -0.47307852 -1.4948574 1.051081 -0.57241464 0.18555358 0.53993434 -3.911594 1.7285112 3.2960598 0.009423069 1.139607 -1.4035581 0.6557603 0.0692934 1.003758 3.3186147 0.29004282 -2.0906253 -3.3088443 -0.35305977 -2.5882275 1.61741 1.9713544 -0.9290285 -0.636456 -3.0768716 2.9063072 -0.23886028 -0.3233024 -1.617974 2.8167524 -1.328182 -0.8721287 0.37549123 0.8514017 2.5275118 -0.27542064 2.6022193 -0.75096387 2.520711 2.0227866 3.4550567 3.6283472 1.4558859 1.0703089 1.8412373 -0.261315 -0.75036 -0.35501736 1.9468974 -0.54312855 -0.7598955 3.4046044 1.3465171 -0.63118833 3.9956477 -0.46809486 0.25770542 -0.3311257 1.9350096 -0.003895197 0.15091412 -2.5178604 1.6723677 2.6829283 0.11574265 0.15540461 -3.65761 0.72484833 -1.3067828 -2.0795233 1.7631173 -1.1566089 1.4410253 -1.6062375 3.4919648 1.5977498 -0.5210493 3.3862243 1.7409482 0.3371263 -1.981075 -2.6650329 -2.5678196 0.5105547 4.903229 1.0150764 0.3721971 -1.8992116 -0.21734393 0.5566744 -2.5293257 -2.8581564 -0.12153541 1.453186
decoration 0.60340226 3.0186136 0.765627 -0.38150582 0.99007076 -1.7342638 0.506445 -0.09347822 -0.36837658 -2.1315577 1.194983 -0.8781848 3.6537454 -0.6644991 -1.6449043 0.23775114 2.2408195 -2.3593597 1.5513707 0.8772671 1.9506111 1.3400267 -2.39611 3.1561499 1.4883615 -0.86116403 -0.7469362 2.2148886 1.3420867 2.1844373 -1.6915653 -0.065745614 2.3413527 0.5317193 0.075912036 -1.4766955 2.2204995 1.5663034 -3.282948 -2.2258818 -0.5648486 -1.4505113 -2.3950176 -2.7654853 -0.1263098 0.6945542 -1.873798 -0.8180772 2.6489275 0.52818763 -0.051610965 -1.9170009 0.8100162 -0.90599835 2.210633 1.0931785 0.3504979 0.23022005 -0.61027586 -0.4532818 0.92560935 -4.454371 -1.7556103 0.006224682 -0.45184237 -0.941929 -4.1232986 -1.9792095 -1.1070979 -0.37894496 -1.5725374 1.9677444 0.22808176 -1.256715 -0.77313346 1.9430937 -1.434797 -0.3328589 0.53170514 -0.5966199 0.6246791 -1.5283005 1.2737845 0.27825746 1.3500581 -0.27270356 -1.806166 -2.648922 -0.119390525 -0.6446846 -1.6395688 0.5993403 -0.41500384 -0.25419423 2.8501263 0.14187287 0.14858544 -0.37538347 -3.8347604 1.063608
wooden -1.2343768 -1.2312962 -0.54282796 1.3014792 -3.9725392 2.2074993 -0.67924154 -0.9690753 -0.55597186 -2.1696303 -1.0320575 2.972719 -0.6322559 4.242275 -0.68256897 1.5009606 2.2485886 -1.2865174 2.351165 -2.1264708 -0.056868892 1.440469 -0.17229937 -0.19334012 -1.4835943 -0.23632212 1.519421 -0.12003052 -1.8424351 1.7343918 -0.035345122 -1.0466268 1.5080354 -1.7016332 -1.9301573 -0.14716089 -0.3279376 0.79115725 -0.7530319 1.4911127 0.107021615 0.24686366 0.037748363 -0.68216467 2.453496 2.7943678 -3.0430548 -1.3994803 2.8260176 2.9519424 -0.5654021 -1.4318768 0.28777358 0.17330106 2.13417 0.4871976 -1.1627085 1.3197771 -0.95244163 -0.18608594 2.403755 -3.4789007 0.107786916 -0.39386228 -0.17946438 -2.2195728 -0.05577386 -2.6696496 0.80640674 -0.99860525 -1.6517589 -1.1666355 -1.2250054 -1.3025447 2.5903132 -3.167158 -0.68206805 0.9011339 0.5088154 0.55056864 1.4197958 0.32251048 0.03111788 -1.8339481 -0.0837767 -1.9327211 0.5469412 -0.37247548 0.020721728 -0.038404737 -0.4686216 2.432641 1.1611704 -4.206776 2.005103 -0.80329823 -3.0169992 -2.749419 -1.4720747 2.2632265
polkadot 1.7809447 -0.147516 -3.5442681 -0.35670957 -1.4306678 0.83283883 -1.9737978 0.6854826 1.8793327 0.5288632 1.4938332 2.4633048 -0.72939354 0.34044278 -0.07324214 0.55778044 -0.62361723 -3.680718 0.35680303 -0.24158856 -0.34609845 0.5169045 2.027926 1.8601583 -1.1812165 0.9376875 -0.04343683 1.318958 1.37485 -2.2081592 0.83334273 2.2709138 -2.0358496 0.098679274 1.7893654 -1.7330835 -0.33499894 -2.0524309 -0.86258405 1.9352379 2.3471646 -0.53499186 0.15055433 -0.8041731 -1.8674126 0.44057065 0.7331538 0.8338487 -1.8798919 -2.000593 0.27553183 -0.14910603 -0.59318316 1.1600926 -0.7197565 0.7923717 1.9337606 -1.0039485 -3.0427885 -0.010161863 1.7446727 -1.2667462 -0.58597416 1.6660422 1.4662108 0.79993594 -2.6471 1.9593823 -2.271196 1.6998216 0.2901262 2.564232 0.48699626 1.4038148 -1.3039064 -2.1846747 0.35461184 0.116173096 0.67815965 -1.6799906 -1.9741937 -2.404101 -0.04836324 0.1714688 2.135774 0.13629133 0.5824596 3.1395197 -3.0779922 -0.8011962 -1.9515882 -2.2400503 2.4625568 1.9935007 0.08204434 0.9280734 -0.43585512 -1.0420157 -0.31525025 -1.2381202
glass -1.8165568 1.2794695 0.06443273 0.95912516 0.5137512 -0.91652054 0.43582687 2.9529943 -0.007341939 -0.6921527 0.42399123 -2.4773562 0.89545673 -1.020523 2.3707962 -0.8063546 -0.45063516 -0.3329601 1.8340919 1.2245752 1.8579924 -2.0276117 -0.20361903 -0.62855434 2.6667461 1.2307608 -1.5620079 0.7660164 -2.7873492 -0.22268285 -0.54477984 -2.1350827 2.29811 -0.4822234 -1.5602562 -4.343228 3.3713315 -0.18308064 0.9744868 -1.0883707 -1.2258332 -0.8920207 1.979943 -1.992032 -1.4690531 -3.183884 0.41768238 -2.7367184 -1.9171727 -1.9979882 -1.7667602 0.0067019993 -1.073395 1.8372427 -2.300348 -0.6123562 2.9737263 -0.55563045 -0.66579485 -0.8755289 2.6144876 -1.8665414 2.6083615 1.7066867 -0.60762894 2.1164742 -0.24146533 2.5590305 0.6431261 0.061803915 2.5767324 0.47063243 0.85664123 3.1422477 2.961514 1.8720757 0.63876826 0.9940857 -0.7354538 0.057633743 1.1338673 0.13698818 1.0695194 0.406635 -4.3042774 -1.9400285 0.8634674 1.0479941 -0.16205902 -1.5039327 -1.6991929 0.4644199 0.12601814 -0.4765292 1.6999109 0.47041222 -1.4670826 -0.9194989 -4.2369413 -0.21290891
cases 0.26736012 -0.64802146 -1.122499 3.1008792 -2.758165 0.4250241 0.39657322 -2.3089206 -0.21610111 0.47676507 1.5947254 -1.7437594 4.4882436 -1.1091448 -1.9141598 -1.0094353 -1.0754812 -0.0813269 1.4545833 1.2800311 4.937115 -0.55687374 0.53057975 -0.5507219 2.9166315 0.6749107 -0.82895607 1.3345916 0.27984422 0.4174763 -1.9549809 1.4728938 -0.47588962 1.3806425 -3.4483814 -1.9876418 -3.395549 -0.4462579 0.33996603 -0.18453783 -0.037866414 -1.3087915 1.8089825 0.6207569 -1.3419459 2.1975286 -2.066916 0.8493856 0.44153893 -0.93863046 1.1416479 1.5420808 0.54977554 -1.3745 -0.7325818 -0.5464013 -1.3394886 -1.643673 3.9155793 1.9696215 0.9065949 -1.7251722 -2.9868982 1.608176 3.7039971 0.036257114 -0.061758716 -1.2877977 0.35074708 0.25002787 -0.5248309 -1.3152257 -0.011657719 0.4273493 -0.73874927 1.2325732 -0.72365713 -0.80973464 1.2034472 1.9526974 -1.2992316 2.295905 -2.558876 1.3034937 1.7016474 2.1454773 -3.3643827 -1.8514446 1.1821246 2.5783565 0.7771391 0.9254425 -1.0138422 -3.0078201 -1.775641 -0.5076132 1.2218986 0.87581515 1.1791712 -0.07621935
tea -1.262071 -2.520408 -2.242401 0.38093242 0.084140934 0.48637837 0.4378598 -0.8574268 4.2013373 0.15186685 0.11787409 1.5724392 -2.596823 1.4700704 2.9640052 1.9738096 1.8755606 -1.8305416 0.15241474 0.4057716 -2.8557787 -0.32611266 2.419993 0.35959396 -1.7922525 0.04254145 0.9398243 0.47908995 1.3641897 0.6770177 0.32293344 1.4127338 -0.6110268 -1.2391437 -0.51050186 -0.5229833 0.40914774 -1.0021287 0.68674123 0.40087184 2.897263 -0.35708773 3.064463 -2.6617732 -0.23399559 -0.32645378 1.4303807 1.6515191 -1.8871565 4.8951573 0.073301 -2.3013594 1.234448 -0.23479395 0.78329736 2.2843478 -1.721223 2.111734 -2.318699 0.9982668 2.5058541 1.0741516 -0.43978876 -2.3292775 3.4843032 2.068504 1.216231 2.591032 -1.0235506 1.9520522 -1.7234051 -1.9389758 0.15966155 1.1909333 -1.0935555 1.5752095 0.07222034 -0.14132006 -0.7353564 -3.831369 -0.61949646 0.6475212 -2.7530143 1.0469763 1.6133308 0.0572043 -1.0115597 -0.5182064 0.38059157 4.2267466 -2.1985662 0.52100146 -1.2276655 -3.8305326 -3.387754 -0.3602121 -0.8951869 0.32904577 1.0724949 0.9097631
bottle 1.2145274 0.13396926 -0.13068072 1.3730047 -2.5863638 -0.82126975 0.057313867 0.061033465 -0.23327874 -2.8208969 1.0483384 1.2729145 -1.6397669 2.8310938 0.10579051 1.4180422 0.28617364 -1.6750768 0.44119814 0.5010676 -0.24209374 -2.5515695 0.8682221 2.5905323 1.0700827 0.73640203 -0.71653134 -0.040153775 0.50353634 2.671564 0.062701985 0.11310231 -0.10116845 -2.080962 0.8718604 -0.73387134 -1.9767653 2.0849533 1.0579907 -2.4469762 -0.99180526 0.9472875 -2.1601448 -0.0066363914 1.9517988 -2.5067375 0.42571908 -1.8530147 -0.5852474 -1.5444701 0.48746473 3.6346054 -0.5212256 -0.929278 0.012228107 1.3055072 -0.98705006 -3.15087 -1.1929468 -0.049981937 -0.7495875 -3.3103306 -1.3555334 1.3893108 -1.6593189 -0.34807703 0.23110971 -0.23499788 0.13753055 1.4707124 1.051146 0.68329036 -1.7040513 0.9128474 0.8172972 0.841229 0.6157899 0.54990536 3.30953 0.8590812 2.655875 -1.7045904 1.8010526 -0.90699285 0.860898 1.4242641 1.3112419 -1.790028 -0.4184872 1.6201146 -1.7624927 -4.9645214 1.6932634 -0.023083929 -1.2440757 -1.6156856 -3.6624353 -1.7069701 2.5107963 -1.3682003
12 -0.6450122 -0.0036408652 -0.3602704 1.5375506 -3.9111924 2.4783993 -0.57776785 0.7821259 -0.31322873 0.8986699 0.84332067 -3.286364 1.6943707 3.4395494 2.4303946 -1.3162413 0.67557913 1.7544894 0.97520876 3.4686725 -1.3648859 1.7221639 -1.8925955 0.0011774414 0.5287002 0.26461342 1.9689983 -0.08531303 0.5941529 -3.276445 -2.8040602 2.3394737 0.63053733 1.4633051 -1.3598974 1.4055698 -2.5827878 -0.69806325 2.1038015 0.07176866 1.5200474 0.56400776 5.108762 -2.8119783 -0.9590801 2.4376593 -1.3591175 -0.23575464 0.28080612 2.4236863 0.42249694 0.9259213 -3.4689147 -1.9822574 4.9184327 0.8214852 1.5109553 0.3625518 3.504783 -0.88853806 0.5345197 -0.9217996 1.1422184 -0.31020793 -1.1465577 -0.78498006 0.7844556 -1.5909317 4.483596 -0.39562213 2.544647 1.5219607 -0.22053882 0.29408672 -0.07831753 -0.3720848 0.2322152 -2.084193 -0.801212 -1.8589369 -1.9159615 2.3488727 -1.9561805 3.9272194 1.8479962 0.41578457 0.78592694 -1.6375756 0.9978786 3.1795323 2.5583923 -1.680484 -1.4189183 -2.373061 1.1078253 -0.20486471 -0.98832124 -0.30284983 0.20338771 0.9459197
in 0.56859785 -2.8670683 0.68257135 -3.1613812 -2.4754748 -0.01955632 -1.6038336 -0.62952644 1.828164 -3.8193526 0.80393726 1.7822398 1.0001172 -0.5539826 -1.9843022 0.58612037 -2.8299034 -0.65190804 1.483652 2.3216786 0.034434333 0.15254793 -0.105493374 -3.5416873 0.49098822 0.7171964 0.14354889 1.124438 -0.5671394 1.7747473 0.7583554 0.513776 0.022164999 -0.32978114 3.7875497 1.1302731 0.106314994 -1.6799469 -1.3359851 0.07392631 0.06439832 0.28447467 -1.2470508 1.60546 2.273056 -0.24698283 2.1609187 -1.0818075 2.0920622 1.6959976 3.1898026 -1.0457623 -5.668195 -0.40483627 -0.052922685 4.3237057 1.8044237 -2.0450282 -1.9730347 -1.9231414 0.69051194 1.3251408 -0.08798955 1.8600451 -1.8436135 0.07708068 -1.2858002 -1.109811 1.1718377 -0.7395446 0.09814786 -2.1251283 2.1460533 -2.259132 -2.8445604 0.8472998 0.18213509 -3.1524794 -0.7157082 0.6229423 -1.362334 -2.2267253 -2.1943557 1.4414847 -2.0403748 -2.8560934 -0.055162724 -1.4117637 2.3099456 -0.2748769 1.7866714 -2.368234 3.5159593 -1.5084128 -1.0915287 -1.4889909 1.9544384 0.99162287 1.7018697 -4.073393
and 3.3670537 1.3688177 -3.0990524 1.2708298 -0.48388496 0.9108051 -0.083059445 2.7449455 -0.2973695 2.3564556 0.9818336 -1.8649137 0.1086169 0.0905518 1.2007962 -0.86204356 0.64517844 0.9841343 1.9409755 -0.97604847 2.41046 0.5681434 0.24377212 0.58851725 -3.4266331 -1.2081689 -0.5055082 2.3105683 2.6361995 -1.2779474 0.148703 -0.35346472 2.1799002 -2.3679423 3.340064 2.4691887 -0.10955581 1.7006907 -1.3815055 -0.9213917 -1.5291576 0.51133835 0.66153055 1.414151 -0.7629045 -4.474131 -0.0993808 0.76955503 2.1250064 -2.211486 1.2342856 1.9970345 -0.39447764 2.04546 0.4411178 -0.1451085 3.2233398 0.38574907 -2.3691847 1.0170243 -0.60865164 0.2852252 -2.4119825 -0.8084483 -1.4194622 -1.3044779 -1.766149 0.27493683 1.7797414 -2.626987 2.3520901 2.6458523 -1.5902997 1.5699764 0.31931075 -2.8778718 -1.2810109 0.9882182 2.8592 0.07019873 -1.2968384 1.4803007 -1.799816 -4.110688 1.8876417 -0.08178747 0.08778971 2.6428456 -2.5167744 0.7043338 -1.4789475 -1.4592212 -2.2467697 1.182611 1.7766403 -2.655151 2.0853815 -0.766007 -0.45400172 -3.1982493
spaceboy -1.2014414 -2.3093 -1.4824655 0.21613365 -0.4674157 0.44253117 0.075576514 0.060321536 1.6862532 1.3670353 2.5795386 0.29304406 -0.36311668 0.97869956 0.092165954 -0.70760643 0.016478976 -1.1088253 -2.934859 0.31341583 0.52233547 0.1366484 1.4533523 -1.7111688 -0.88786614 -0.23336694 0.78224784 -1.5753775 -0.35749042 0.627218 2.73633 -0.4569986 -1.2529471 -4.789556 0.58916533 -1.4085802 -0.16144425 -4.820736 -1.4802365 2.9965322 3.9380653 -0.75851965 -0.0736943 2.424339 2.1478043 2.403731 1.5125825 2.675455 -1.182956 0.6704808 1.425114 -0.31343502 -1.9018923 0.33467695 -1.7191602 -0.3008413 0.8015077 -0.38137826 0.8324241 -2.198647 1.0380412 2.2245498 0.18247467 -0.16544361 1.2389991 0.9954646 -0.025622644 -0.27023864 0.47362983 1.0520113 -2.2269502 0.12206945 2.4027345 0.009599935 -0.47385928 -1.5301127 -2.0123477 -0.87875503 1.3405887 -0.078427605 0.8976176 1.6518732 1.8495184 -1.7616091 -0.30164826 2.6579492 -0.08631955 0.16101056 0.11654195 -2.0056689 -0.63895106 0.6955062 -1.1057813 -0.5039088 3.8479931 0.26317626 -0.38236788 1.9430641 0.046646606 2.5698195
hot 1.3429585 -1.6978278 1.0749768 -0.2005283 1.6863241 1.6590958 -0.8507049 -0.15850145 0.80319667 1.0630988 -1.0234842 -1.3023268 -1.5566791 0.9703679 -0.74568 -0.113013856 -0.33462483 1.5386149 4.1940613 -1.3237207 1.8501989 -0.87014914 2.016726 0.6079087 2.0047877 -1.6625602 -0.449462 0.61959153 0.12660341 2.4583879 -2.0187848 0.3611423 2.384518 1.2294672 0.9711117 -0.55810344 0.78976506 0.17082272 4.642027 -0.46488357 0.40617666 -1.9398532 1.0210999 -2.4411962 -0.10938903 -1.6775169 -1.3490826 -2.3798275 -0.6376073 -0.08557146 0.4563223 -0.15013541 2.6182945 0.093182884 0.7675972 -0.9412244 -0.29699177 -1.2555608 -3.7774749 1.2491212 -0.43211424 -1.5160917 1.3141017 0.2508551 -2.9292498 -1.4002417 -1.2968503 0.69971985 0.19290377 2.396458 0.61094064 -0.46865097 1.3447906 0.4513054 -2.5280159 2.659681 -0.092871636 2.8325284 2.2219367 0.83335817 -0.7224075 -2.096744 0.5022064 -0.8731787 1.5647752 0.6724155 0.086355306 -0.31779888 1.4527031 -2.0999434 -0.44901258 -4.3174143 -1.0723921 -0.12835033 -2.3133283 -0.15009043 -3.8375978 -3.175593 -0.99181664 -0.91642284
water -0.4943819 -0.70522606 1.4543233 -1.3249197 -1.811588 1.3838187 -3.2994726 -3.4184923 -1.8979799 -1.781136 -0.27025566 -3.5041742 -1.620382 0.5032908 0.29913354 0.38836962 0.5162693 -0.71745735 2.10844 1.5063671 1.476697 -0.5385811 1.6419902 1.162518 -0.11337676 -1.7973125 -4.0758452 0.26834676 -0.6045092 -1.3932446 -4.2258964 0.23626077 0.6626396 0.12238345 -0.76394814 0.27625304 -0.8997188 0.15857549 1.8375816 -0.7163066 -1.044765 -1.3959917 -1.4953595 -0.07958579 -0.701052 -0.58537066 -0.0800552 -3.981886 1.3751835 -0.083597496 -0.8171711 1.9594928 1.9441359 1.1820606 2.501119 -1.0491472 0.73638594 -2.9828324 -1.1436874 -0.17724971 -0.35819858 -0.48398492 -1.5091738 1.1728159 -0.29191548 0.09438579 -0.8568337 -1.7527459 0.612928 1.3695819 2.6620717 1.1702183 0.41939667 -0.77472484 -3.0383577 2.7227368 1.1416941 1.2945087 0.6098109 -1.4737029 1.0752972 -0.2446792 -0.6474373 1.4578613 1.7611289 0.70322144 0.19990839 -0.108614035 1.6727556 -0.29763055 -3.6971114 -1.9799194 -0.85003924 -2.6153727 -1.2262758 -0.1865941 -4.403488 -1.4843204 -1.2878647 -1.2909065
with -2.6494844 -1.4009737 -1.5090268 -4.8272114 2.472334 -3.2573 -3.2681758 -4.3056297 1.272058 0.2750699 -0.74997836 -2.243896 -0.86335254 3.0588024 2.3027096 -3.032928 -0.080688216 -0.96972287 -0.3543741 0.18961777 1.9483098 2.739747 1.335768 -2.16431 3.5099452 2.2490628 0.037713356 2.9264238 -2.3860805 2.8508773 -1.6780988 -0.7746923 -3.2304456 -2.982703 0.037687972 -0.3291209 0.4849767 0.7726968 -1.0066338 0.49927506 -1.0444822 2.4202988 -1.2841495 -3.7684262 2.9681566 0.11862894 0.7339102 1.5833511 1.4399717 0.5426204 -0.68399024 -1.3670182 2.595765 2.6574802 -0.881214 0.342266 -0.50054044 1.7045366 -0.0005660732 1.0152339 -0.31273293 -2.2787998 -1.92108 2.0197225 -1.365342 0.89824075 -1.3567314 1.0290442 -3.4958327 -1.4872439 -1.7148229 2.133868 3.3686335 -1.5926605 0.09155849 -1.3560945 -3.2634249 -1.6588148 1.3553212 0.662902 0.8808242 0.17480649 -0.8079106 -0.49436235 0.42737645 1.1788067 -1.1916517 0.14577875 0.35690805 -4.2023897 -1.5569112 -1.5155677 -0.36111423 -0.5057671 3.3422925 2.3882575 -1.4999727 -1.7382588 -0.98280936 -0.72992593
large -2.2477741 2.5967255 -0.6035242 -0.20153162 1.2431833 -0.22990344 -0.21956578 -0.14526863 -0.5152615 -4.743487 -0.27764863 -0.4181119 2.02616 1.2421365 -1.3386683 0.6408852 -2.2601366 -0.15564716 0.5834132 0.22783607 -0.16428031 -1.4033921 -3.4761527 2.765325 1.7173786 -0.9447763 0.09886331 2.1662176 1.0244676 1.2163125 -0.41950879 2.1395833 -2.1188123 -1.3218341 -0.88050944 -1.1294755 -0.85967016 -0.54468876 -0.13561781 -0.4685622 -0.7383653 0.26235387 -0.1205288 -1.0740887 -1.3937231 -0.14644639 2.392827 -1.5082536 4.362716 -1.8646319 1.335535 1.0456064 0.9530859 0.24819514 -2.4067159 2.9689066 2.6653738 -1.0633419 -0.606721 0.44885772 -0.3007594 -1.2411824 -0.23141046 2.2070618 1.2170756 -1.8259473 -2.23415 -0.0484118 -3.1509614 -0.27268398 -0.5602935 -0.15763429 0.038319744 0.5891306 -1.0483456 1.103151 0.7272404 0.8952016 -0.33360362 -0.7673999 1.7856405 1.4103279 0.36250848 -1.8072064 0.74857855 2.0759792 -1.9841295 0.832537 0.9477598 0.19203603 0.9450622 -2.1136658 0.35485682 -4.1762447 0.43939662 -2.9795206 0.625117 -1.9216417 -0.8447752 3.381334
pantry -2.0866745 -0.3518953 -0.041229673 0.21932654 -1.2090029 1.977867 2.454234 0.16615815 1.9816605 3.299808 2.1823437 0.4067456 -0.7781479 -0.24461083 -1.274853 -2.702273 -0.49579063 -0.113858 -1.3626894 0.99456596 1.7841244 -0.0016806298 1.2484852 -4.3727045 -1.3148425 -1.1772615 0.25166586 -4.061704 -0.09558073 1.2227747 5.6635437 1.2407739 0.930928 -1.1322037 1.9148886 -0.57923204 0.03520635 -2.6618876 -0.67961556 4.0129538 3.6752722 1.5192673 0.70968753 3.0063944 -3.406353 -1.4250051 -0.3978132 1.2673724 -0.36437017 1.9637821 2.5794394 -0.99975353 -0.9800945 0.62423754 1.4382936 0.87651974 4.1965947 1.0984669 3.2606926 -0.9992462 1.9082353 2.7605886 0.64190114 0.62938696 0.18972273 0.30592477 -1.5253654 -1.7037601 -1.4239637 -0.9095472 -5.2894635 0.9079412 -0.14136794 0.64130515 -0.44280353 -3.177397 1.4411324 -1.157839 1.032345 1.1474307 1.7866902 2.8674858 2.9905374 -0.3635532 0.5110695 2.9612472 -1.4565247 0.9298564 -2.6497824 -0.44081876 -1.1511574 1.5772699 -1.4389262 -1.0433018 1.1166364 0.25164098 -1.6775993 2.4535701 0.1643943 1.5375283
home -0.21814252 0.29730797 -1.709222 -3.4405468 -0.23818743 0.1362824 -0.3397264 2.709979 0.4306979 -1.1856965 -0.35762852 0.041074976 1.3222882 0.65321594 0.16188648 1.0277272 0.9283118 -0.7489096 0.21222077 -1.9047257 -0.4128139 1.2716886 0.5964093 0.028985081 -1.4739286 0.6570526 -0.66153723 -0.3971925 -0.8520668 0.29577142 -0.9124855 2.7547944 3.735109 0.07103888 2.1965702 0.41385004 0.44376588 -1.99738 -4.386023 1.2054536 0.2394456 1.4461302 -2.0418844 0.06044677 -1.200159 -1.1042138 -0.36923754 -0.0028444119 -1.8504201 -0.41101128 0.93730956 -2.3488152 2.1316166 0.23909177 1.6960995 -1.9112788 1.8326477 1.2338303 -1.5787705 -3.126285 -1.1879222 -1.4934942 2.4920208 0.5392108 -1.3461338 0.55353445 -1.1484252 -0.09649336 0.78560144 -1.1754993 -1.6542007 -0.7709319 1.3562659 -0.44983616 -1.8317753 -1.6975231 2.5325081 -0.765555 -0.5797132 0.53148633 -1.7937007 0.026890121 1.1448423 -0.009481841 -0.106720574 1.9035697 0.12406227 0.9464837 -2.5837026 0.17155284 0.8288603 0.32710204 -0.56907517 -1.1010404 2.5185728 1.9947835 -1.8994719 -0.5834862 0.55936295 0.70383793
tin -2.3832178 3.6725264 1.9663789 2.942361 -0.6622918 -0.2358661 2.3785 2.447889 -1.802207 -0.5000568 -3.540298 0.49309206 4.4475493 -4.7563634 -0.8230446 -0.4296779 2.6344748 -0.070814766 0.41267613 0.5311575 -0.33251676 3.432923 0.32068294 -0.28672788 3.6069672 -1.7959305 -2.673269 2.7345123 -1.5181581 -4.2516837 1.0672836 -1.6448482 1.0298065 0.6919506 -2.2541833 -1.7516738 -1.7098501 -4.03494 1.4202698 -3.3555665 -1.6858623 0.45363402 0.985347 -0.9034786 0.81716573 -1.3656331 -0.69085175 -1.5413378 -0.7294967 -2.156672 -2.4324095 2.874422 0.5847305 0.5185043 -0.2561877 -3.1584861 -2.3865764 -2.7160983 4.3330355 2.0298786 1.6706588 1.1558354 1.533201 0.044275023 -0.49534252 -0.837256 0.122014366 -0.023268458 1.2585596 0.45711192 2.7442656 -1.0478027 -2.5450943 1.7256265 3.308053 1.3025413 -0.79454994 -0.4352279 -0.38738433 -0.6763186 0.48683372 -0.039754312 -2.6658893 -0.3799841 2.2650151 0.18945184 0.25180864 -1.337789 -2.5784984 -1.0764719 2.7295837 -0.4426661 -1.5285183 1.3612825 -2.2371278 1.1336402 -1.0062459 1.3514482 -0.48599172 0.18906263
rose -0.92311263 3.2174466 -1.3697017 1.2083476 -1.1102198 1.1269459 -0.32992652 2.4209764 0.31714782 -0.8983562 0.8514033 3.16305 0.12141055 2.3789847 0.7885337 0.24596386 3.3023632 -0.5799133 0.5151093 2.187562 -0.59186727 -0.30261034 1.2202992 1.8947939 -0.05834038 -0.93401 -2.2587633 2.1384137 -1.759086 -1.3251363 -0.45852527 -2.2727358 1.521652 0.94247633 0.5261023 1.5829916 1.5846448 -2.7236602 -2.026665 2.4516797 1.0044945 1.1497381 -0.5575561 1.8554386 -4.675542 3.2186444 1.839268 2.7687063 -2.0004306 -3.6579285 1.6315601 -2.8397892 -0.30246785 -1.4976385 0.29188946 0.48813015 3.4773755 0.17639667 -2.3271918 -1.2994794 1.4943181 -0.7803039 1.5776602 2.6453304 0.6461598 -0.32021883 0.8277247 -1.2705448 -3.0151749 0.7271085 -1.3878587 -2.1950343 1.2432834 -0.0052928277 2.9501402 -0.29090434 0.28153446 0.89572024 -2.9438057 -1.9161958 -2.2852657 0.54896784 -0.5525135 -0.9567693 0.79514307 -2.1605294 -0.6491372 -1.399658 0.05786191 -2.8950765 0.83178955 0.9950098 1.7279229 -3.290313 -1.1779555 -2.3936665 2.1385653 -1.3861942 -0.9220458 -3.2953272
paisley -1.3303002 -1.0988239 -3.697034 -0.28240645 0.054733854 -0.05427177 -1.0060843 2.4757571 0.14776754 -0.08866874 1.8602985 0.17094864 0.35373846 0.38173008 -2.803491 -0.4336779 -1.1324011 0.09863847 -2.418023 1.0793265 -1.250362 -1.1017467 0.25130188 2.243322 -0.9412223 -0.010656336 -1.1179736 0.7320041 2.1384082 -3.5831208 3.416606 1.7017423 -0.0810677 -1.9041736 1.2525367 -0.96736825 -2.9293945 -0.9462414 1.3663846 2.3869328 2.4808443 2.7892444 3.1315856 -1.5609242 0.6794406 -0.0010549009 3.0197017 2.1440654 -0.25484815 0.06631204 -1.6826717 1.6902163 -2.2343879 4.375566 -2.1348662 -0.27414855 -0.54414886 0.2828682 -3.137246 -0.81297505 -1.2071615 2.3278067 -2.411391 0.4576934 1.5636258 -1.1463169 -0.3450043 -4.355335 1.060799 1.8693985 1.9128698 -2.0351195 0.63993806 2.9362147 -1.2251847 0.6058099 0.54312426 2.007153 0.49175262 -2.3455358 -3.5025928 0.93625504 -1.9150599 -1.1812992 -0.24451071 0.94917876 -1.2748654 1.7467293 -2.8409154 1.1530343 2.0345883 1.7757401 0.65707284 1.5996687 1.2913334 -1.0817277 -0.8287612 -0.63870865 2.5233064 -0.115392126
ceramic -0.78303874 2.8402588 0.81441957 -0.21343334 -3.912768 2.0526445 0.502398 -0.098216526 -0.0006485538 -0.60051256 -1.7549938 -2.5713198 1.4274899 1.1352779 -2.1291997 -0.9111368 -0.5856575 1.4631026 2.4189377 -0.08479711 -0.024939459 -1.0150869 1.3347425 0.58837396 3.8132482 0.009813914 -0.96439004 -0.8418891 -0.41821375 3.5274825 -2.1971984 3.5181506 2.17284 -1.7331865 -0.8429701 0.9678242 -0.7235955 1.8942924 2.8601625 -0.7579442 1.4842092 -2.7157056 -2.6206098 0.33786267 -1.9263496 -0.2154929 2.0366337 -1.2993523 -1.053599 -0.07807148 -0.89568406 -2.7759507 -2.4200327 2.921899 1.7058957 0.13307835 2.9824772 1.9482079 4.31919 -2.8932803 1.8816658 -3.5344498 1.4026406 1.9231232 2.6261852 0.5103734 2.085943 -1.7685318 2.4242795 -1.845008 -1.7209437 0.53693545 2.5410814 -0.010035208 -1.221315 -1.3439287 -1.0430229 -2.7995818 1.6335703 2.216713 2.6414018 2.6203094 3.6601956 0.39707294 1.318986 -0.060826994 1.5229034 -1.4913157 0.31527385 -1.1720625 0.39818883 -1.3698535 -2.2213247 0.6966927 2.4152002 -2.8519104 -1.9369773 -0.54290533 2.64557 0.7888172
4 -1.3200417 1.4178376 -3.5213962 -0.6485507 -0.42544028 2.021961 -1.2433224 0.80698967 0.07696991 -0.90906006 -2.25163 -0.692776 0.8381836 0.84025264 -3.096525 -2.4034023 -1.3135746 -0.39019343 -1.884797 2.62076 0.23005822 1.5543087 -0.4575048 1.4630986 -1.7942079 -3.8108416 -0.9949392 -0.49457428 -0.26497287 -3.4827304 -2.570486 1.476413 0.22150354 -0.28258112 -4.132712 3.9068732 -2.5977862 1.8322803 -2.6007915 1.3110479 0.7931611 1.3497229 4.651067 -4.617977 0.23611555 1.6596172 1.1303358 -1.0542731 2.1845863 0.83524483 -0.06312311 -0.7113432 -2.164859 -0.3422901 4.1287036 1.1399758 -1.5418116 1.3085637 2.673772 -4.4589634 0.046157885 -0.12644209 0.051264364 0.3708893 0.6740832 1.6309321 -1.7238115 0.79927075 1.1488355 0.39319116 -0.9150566 -1.6116967 1.0866827 1.1236606 -1.837871 -0.6167656 2.9780397 -3.3968794 -3.6679647 -2.25127 0.29870707 1.5478536 -1.7610288 2.326626 1.1733857 -0.7375311 -3.3977656 -0.3364538 -0.37203223 3.1562457 3.0560129 -1.2247331 0.7250774 0.32754272 -1.9255172 -0.093187235 -4.1021996 1.1415709 -0.47905684 1.28417
regency -1.3669446 1.8838027 -2.5343187 -1.4644873 -3.328793 1.3189605 1.0519934 1.8510319 1.0474441 1.0936196 -1.0136135 1.2224659 0.83197147 -1.0119781 -1.50903 -3.1413643 -1.1059949 1.532759 0.86082804 2.395558 0.38321033 1.0271038 2.7888715 -1.498431 -0.6834749 -0.78940225 0.5784866 -1.3516384 1.1996574 0.157655 2.2862945 1.209613 0.96272653 1.9328018 -0.0862394 -2.9046419 0.5970423 1.4304941 -3.184094 1.1429282 0.05610932 1.1905663 2.493609 1.117571 1.0921638 -0.570424 -2.1850622 -0.5592163 -0.37984544 1.8816301 -0.58304155 0.86863995 -2.9467525 0.7166391 1.2640196 1.7092065 2.9978535 0.49282363 3.8586078 0.97248757 1.5303077 1.5372297 0.8172074 0.5616157 2.161698 -0.27559656 -1.7241019 0.9683491 0.07697211 1.8167847 -2.6504383 3.6193247 -0.41006452 0.8608728 -0.2074222 -3.0306206 1.4359266 -1.0001079 0.2721951 -1.7317234 2.139241 -1.3917263 0.17801192 -1.9822062 3.9173706 1.9710428 -1.1729339 1.2184577 -3.3816535 0.9101607 -1.1379076 -0.44254294 0.8312564 0.8323567 0.9529424 -0.6155289 -0.34756157 -1.3170731 -0.53647166 -2.7946038
green 1.4593399 0.5953495 0.4316733 -1.2694482 1.4672825 -2.1606045 0.50512975 3.8847618 -2.5935001 -2.3033185 -1.6101059 -2.172427 -2.2698083 1.923669 -0.2579689 1.4991559 -2.1465957 -0.20470287 -3.3729537 -0.25945598 3.4962735 0.7096571 0.54177 -1.6337976 -0.84269613 -2.5692198 2.4250135 0.5851209 -2.9385653 0.88872874 -0.22616374 -1.876196 2.6918232 0.81448984 -0.009402123 0.50987387 0.5083889 -0.08914305 0.08136359 0.38273683 -2.447582 1.7697871 -0.32470402 0.79204893 3.7057636 1.2428243 -0.9116519 -1.8260158 -0.47654408 0.010647962 -0.5547655 1.2785262 -0.71710736 1.6958473 -0.6801328 0.90986544 -2.8636153 3.6242733 1.5703655 -2.5078814 1.5535843 -1.9993585 0.28594562 -1.2183876 0.76759046 -1.6876941 0.7374698 0.48356804 0.8762198 -0.54888815 -1.3461021 -0.05119438 -0.5259852 -1.946615 0.1540626 0.8139288 -2.3250813 1.012693 -3.3384905 3.2418108 0.46728393 -0.1333862 2.419659 -2.5461547 -0.22730084 1.1234726 -1.7420748 0.18970414 1.7199154 -3.9065537 -0.055741444 -0.20988014 -0.8854953 1.4506313 3.550535 -1.3158042 0.45961 4.1811743 0.77872825 0.5347064
dolly -0.3116461 -0.5974803 -0.84997505 -0.058949795 1.1593783 -1.2090237 -0.6172031 2.7969084 0.75092965 -0.06909183 3.0976121 3.2565358 0.27048352 1.2718282 1.355374 0.030734943 0.04462368 -2.0771375 -1.8611876 -0.74695903 0.31264544 -1.069459 1.055988 -2.9567301 0.27989918 1.4347247 1.5129732 0.08239481 1.8800524 1.8598171 0.75325596 0.09182869 -1.7760985 -3.5565343 1.3331821 -0.991445 -0.15608123 -2.9146087 0.41536316 1.082554 1.7324021 -1.0942262 -0.07275807 2.9402525 -0.079373 2.4353414 3.0143468 2.025015 -1.7080033 1.6158358 1.0055319 0.4593688 -3.475271 -0.10581582 -1.61963 -0.6100639 -1.266001 -1.7464488 2.7427936 -2.2837808 -0.16961059 2.8637247 0.22354381 -0.18153279 -0.30736917 1.6363413 1.6965789 1.9915206 0.7355068 0.41434085 -1.3889598 0.87135947 1.9843509 0.6990491 -1.1183099 -2.9729111 -2.9325395 0.037634198 1.6692998 0.57397515 -0.64001435 2.3880773 0.6546005 -0.8399852 -0.85805494 2.2556221 -1.2627956 -1.1363388 -0.56322694 -0.22338808 -1.829404 0.9861019 -0.89911586 -2.281842 4.257235 -0.36172515 -0.05839606 0.8382631 0.72652936 1.4235468
doormat -0.8455144 -0.48179272 -0.57246524 0.9341933 -2.1225548 -1.2173108 2.066914 -1.056034 -0.33831766 0.19944151 -1.0673975 -2.2794023 1.956614 -2.2307863 -0.8955859 1.4933267 2.752028 0.31858054 1.3779452 -1.092449 -1.1314131 -0.22519818 1.4764996 -0.533227 0.82678854 -1.5014453 -1.9130898 1.5404084 1.8619931 -1.0982773 -0.9246722 0.7818036 0.9850941 -2.254722 -0.9091335 -2.523935 0.7072983 -0.7441446 0.110731184 -1.8730203 -2.2164338 0.6911018 1.7843412 -2.3366928 0.37319544 -0.55846125 -1.5456346 -2.4115193 -1.9928164 1.7525365 -0.040031414 1.7912432 1.6994299 0.74393815 1.8181994 -0.7405143 -0.6481667 -4.088124 1.6092199 0.92279404 1.8392763 -2.6539984 0.9818586 1.2270266 -1.6742634 0.29624295 3.462093 -0.6554312 1.9199493 -0.17261072 3.1246583 -2.7473204 0.2760332 0.8694418 0.8470299 -0.59192234 0.50755924 0.95229363 -2.1808147 0.27376816 0.0033709428 1.9337809 0.55798984 0.34554777 0.6995675 2.0453162 -0.2561915 -1.3371172 -0.30785823 -0.6008058 1.1947874 -3.434064 -1.4654537 2.048254 -0.4652346 -0.48246524 -1.3402746 1.5846432 0.8763108 -1.4291129
mug -0.5860331 -2.0116415 3.9652214 4.1174374 1.2502851 -2.6890728 0.4190792 -1.3798455 0.23093073 -0.41058907 -0.746677 -0.46355286 -4.0128713 -1.9538423 1.7985433 1.7338481 1.3851007 0.20015286 -0.40225863 3.7011414 -1.0508823 0.69038504 -0.7883073 -2.6958146 -0.24714042 0.8816111 -1.9680879 2.1444812 1.901264 -3.3933387 0.4913894 -0.90706164 0.9754945 -0.42944154 0.99986947 -0.8565786 0.12203335 -1.4754131 2.2413898 -3.2140539 0.08567961 1.2726425 -1.3697127 -0.38671273 -2.682532 2.4087229 0.048976347 -1.1701891 -1.7992926 -0.9189792 -1.1906425 1.6652623 0.65189064 -1.208389 0.6683484 -1.2463894 -1.0253923 -3.1029308 2.5664213 2.6534173 0.089704506 -0.56427217 0.8241075 2.4333808 -0.9033235 -1.2573698 1.2945743 0.3271115 -0.34477988 2.1669645 2.4451735 0.8822562 -2.7217453 -2.490106 2.6475568 -2.1729927 -1.4751077 1.0685315 0.9765326 1.0135481 -0.019289318 1.0900182 2.8373008 3.7007165 0.21910006 0.58614916 2.6276937 -1.1812341 0.80434704 -2.0787945 1.258105 -1.1051788 -0.7559584 1.2983929 -3.191992 -1.1456997 -1.9474587 3.6112041 1.0299183 -0.26780704
ivory 0.9077056 0.20183648 -1.4881989 1.1816593 0.8550746 -4.92126 -0.3619088 2.0362096 -1.0754545 -2.2883072 -1.8159496 -1.9241191 -0.88656676 0.9251468 2.1787615 1.2148913 -1.970981 0.30221424 -2.6712115 0.6862343 1.9982998 0.87303966 -1.3585695 -0.07422734 3.7584846 0.7034099 3.4578447 -4.0906525 -0.30171624 -0.6013035 -3.142334 -3.8192055 2.7706125 1.6639696 -1.77071 1.8322113 0.5563716 -3.4769132 3.5346766 1.7464315 -0.40403578 0.9182655 -1.4629669 3.5823429 0.80311626 0.906326 1.0765171 -1.2968526 0.3386795 -1.4677743 3.3371775 -0.35530913 -0.44541916 2.4930744 -3.3016567 -4.2750297 -1.4271667 1.6310134 -0.79353726 -2.2445824 1.5169587 -2.2055578 -1.0459645 -1.4253826 0.05150193 1.2270045 -0.09582577 1.3245282 -0.38640162 -1.6671185 -2.1518443 1.1297703 -0.47248983 -0.50118816 -3.0374281 3.6800776 0.12472608 2.1586187 -1.3961447 1.1769482 -0.054550022 0.2862947 1.4675927 -4.07435 -1.2505082 -0.093385294 0.6827345 -0.6046008 0.20727096 0.16089347 -1.2728798 1.4071348 0.42329386 1.8262362 1.3852463 -0.06582752 1.6929678 -2.0819314 1.5356667 0.30004698
mini -2.4429858 1.6449032 2.029019 0.54989934 -0.84019023 1.6843926 -0.28330168 1.4984779 -2.7528605 -0.00666602 -0.34646553 -0.84421307 -0.42587712 -1.3393472 -0.8534997 -1.5785558 -1.2364911 1.5958656 -0.074802175 1.1645275 -3.251233 -0.20359358 -0.9387501 0.06509051 0.080965884 1.6121911 -0.40237758 -1.1225852 3.020661 1.3898982 1.5265888 -0.80185544 0.7161269 3.345218 -2.0469882 -3.348583 -1.5200166 0.8520452 2.2938976 -3.4808176 -1.6628903 0.6626603 1.3271956 1.681933 -0.7835232 -3.142213 3.015411 1.8714583 2.27766 -1.8394635 -0.25426778 -1.8768877 -0.5365957 -0.163664 -0.84749776 -0.74255085 1.1517439 4.617847 -0.009335816 -0.93380344 2.5746672 -2.0839138 0.7797523 -2.0084417 0.18757486 1.1903132 -1.3786864 -2.0232112 3.7065923 -2.8065794 -1.8246095 0.51923317 2.5531225 -2.5705342 -0.9905442 0.6028958 0.19634825 -0.043626975 0.43690115 -1.3942801 -0.8145309 4.4654317 -1.4223949 2.3808844 -1.6985326 -0.54872566 2.3969357 4.224604 -0.81914103 -1.6377712 1.0196722 0.67002463 -0.19199291 -2.7660675 0.8003775 -1.0627536 -0.9235032 -2.7720978 0.33748972 1.6033431
cream -0.59791654 0.45763493 1.5960497 -0.9776215 2.8649619 -3.0463204 0.912795 1.5391817 0.83175504 -3.1953068 -2.9797535 -2.363339 -1.9605875 -2.1191838 0.4121586 1.9085428 -0.6538974 1.8759987 0.118080996 -0.7953698 3.1466784 0.26867142 2.0083203 1.2294472 1.3512348 0.57630277 -1.9140545 2.5742974 -1.2178054 -0.4967344 1.5042292 -2.2830765 -2.2986681 0.59139854 1.4731777 -2.6787364 -1.3061152 -1.5233797 -0.5483179 0.25548774 -3.3701653 0.38796774 1.6683432 -1.9740404 0.7226014 2.176971 1.5298296 -2.56146 -0.36973777 -0.22878812 1.5246695 2.4330304 -1.9977429 1.4125577 0.30074117 -0.35888392 3.757127 0.40428504 2.5487742 0.024877591 1.1855959 2.5646203 -1.3472008 -1.1556277 2.8516982 -1.912217 -1.6430256 -1.0737176 -1.2795305 -1.4243588 -1.3932688 -0.23803148 -2.2461236 -0.9776798 0.63031656 1.5047821 -0.5243765 -1.0872986 -3.3389103 -1.2444028 -1.071869 1.1203779 0.40595526 -3.6238883 2.7382119 0.57978904 -5.5031266 -3.1137545 -1.4816583 -2.8386269 2.1186438 0.6906062 -1.7885909 1.8818097 0.8803676 -0.4278885 -1.506978 -1.1881273 3.6140065 -1.9537569
bunting 0.72501785 -0.46899408 0.05393143 0.47796038 -1.5187328 -2.7323608 -1.1413308 -0.57254845 -0.5737709 -0.34763765 0.5333909 0.0963349 1.4620658 0.6219357 0.31625202 -1.7134492 1.2358853 1.1604211 0.19416212 1.3180777 1.0110371 -1.2908736 -2.5495174 1.3928809 1.8045713 -0.5837264 0.4951318 3.7118914 1.2852182 -2.5903296 -0.5755708 1.9240735 0.8752652 0.12724692 1.4164065 -1.5820735 -1.1030912 0.71054703 2.15337 -0.8514034 -1.9086187 -2.5370326 2.017724 -1.5160975 -1.2293963 -0.9470795 0.7608869 1.4632357 -0.60427594 -0.8908565 -2.3241732 -0.6513026 0.6924575 0.8903785 0.48027793 -0.7499861 -2.5384064 -3.424541 -1.9068562 1.7586195 0.45563024 -1.5087724 1.3698317 -0.16660294 0.8582895 -0.10222585 1.3222901 -0.33859736 0.6819474 1.156899 0.673929 -1.0935409 -1.2350923 -1.0543331 1.2914598 1.1412573 -0.10179625 0.8416234 -1.5522972 0.81599855 1.4082181 -0.6846842 -3.2364838 1.0369904 0.1574521 -0.7951438 1.4224684 -1.2048674 -0.28636163 0.8347624 0.020277057 -0.9341811 -1.3186404 0.65326905 -1.0839972 -0.26915193 0.65311164 -1.3454362 0.93958914 -2.4260352
love -0.7484644 1.3218302 0.45416886 0.23770274 -0.15111358 0.7151179 -1.59628 1.2887998 1.4099914 -2.6245484 0.26968297 1.3854154 -1.6354738 -0.047335673 -0.9275891 1.5165577 0.19577573 2.473203 0.9745483 -0.98952645 -0.08535096 0.124865316 1.4440173 -2.7630546 -1.668692 -1.3934349 -2.7564766 1.996112 0.508652 1.5238664 0.66983753 -2.7766972 -0.89956564 -0.120738946 -1.2439257 -2.9239554 0.16746253 1.6608881 0.21753716 2.0966525 -0.6866878 1.0001583 -2.4651127 3.8198369 -1.0361068 3.2285514 -2.731406 0.9245424 -0.9375027 -0.80866885 2.9054098 0.37606642 0.34578696 -0.72442967 -1.5082612 -2.0604844 6.010066 2.6853197 -1.4307858 -3.502361 -0.04193106 -0.38905102 2.253097 0.92614484 1.7325844 0.47045672 -5.039282 2.4070377 -0.2481898 -2.0408802 -2.4017496 0.1558715 3.6188228 -0.3525267 -0.96827364 -1.857779 -0.44880652 1.6243713 -0.27249455 -0.19613251 -3.2142901 0.32351884 2.6740599 -4.398672 0.45331112 1.5996932 0.4043881 0.34634528 1.877569 1.8402123 -0.02491984 -0.042781428 1.1230077 -0.14579196 1.0431259 0.41539454 -4.188436 -1.5538751 0.32368237 -0.30347013
girl -1.6395302 -0.9910729 -0.7441551 0.92935294 -0.100538045 0.42853042 1.2732332 -1.0311304 0.8964945 1.1986307 3.6997905 -0.17842974 -0.42045838 -0.8172423 1.4720287 0.77362806 -1.0907701 -1.8520263 -3.232989 -0.01360164 0.5104613 0.06425019 2.6847925 -1.2576216 -0.3807822 -0.3643903 -0.07300231 -1.5775106 0.27960914 -2.1574197 2.3250356 -1.6951324 -1.2043767 -4.8998814 -0.85619074 -1.5780925 0.9563529 -4.559341 -1.1899575 4.406656 3.963299 -1.5377359 1.1058372 2.8357673 2.2480102 3.4071136 0.27498415 2.201318 -1.5997474 -0.9845933 1.5206286 -1.1178057 -1.945501 1.0423894 -1.1508067 -0.3557859 -0.0408357 0.55108297 -1.6715406 -1.771267 0.56593984 2.2156963 -0.6010733 0.25237358 1.3669957 -1.6315038 -0.40990433 0.27855647 0.11728108 -0.95621634 -1.9547658 0.37161964 4.0205326 -0.57518846 0.30720884 -2.6188126 -1.1813439 -0.6101394 0.28993386 -1.1882241 3.0215397 0.9964916 1.392648 -1.3614188 -0.080554195 2.8415658 -0.113969244 2.5167036 0.7688726 -2.0399358 1.0254072 -0.51054573 -1.9350857 2.5856934 0.94051135 0.82273513 0.74291277 0.8358056 2.1420178 -1.249653
assorted -0.62944466 -2.7876244 0.7457062 -1.441595 0.8838498 0.27652782 0.10432463 1.2639365 -1.0155379 2.091845 1.2932398 -1.5426391 2.000908 2.7008674 0.93179995 0.16934551 -1.2752167 -0.5480193 0.8708686 0.46119726 1.6380692 2.8946693 -2.7169144 -1.4328767 -1.820714 -0.41030997 1.1399734 1.3780482 -3.9397225 0.5374118 -0.13890716 -0.23910546 2.00012 2.9840195 0.34600288 0.3510426 -0.11017077 -0.48153663 -1.0179386 1.5374374 2.0168316 -0.38237146 1.9459587 2.6218288 -0.9859161 4.954016 -1.0547358 -0.52744985 0.0087749 1.211322 2.362321 -0.7835426 0.9889952 -0.18594113 1.1211418 1.0438824 -0.4165437 0.5421317 -1.7938734 -1.8410187 1.5448325 -1.9487834 0.29693204 1.9715465 1.1565068 1.598164 -0.55639195 3.167157 -1.7342534 -0.7620727 -1.60904 -1.7801384 -0.14560369 1.3962015 1.7615145 0.3158431 -1.1350697 1.2589791 -1.2679796 -1.3262509 0.72948366 1.0454985 -1.3393413 -0.9471512 2.7989707 0.084001005 1.7224454 1.8297812 0.087813124 -2.0679438 3.635536 -0.5230649 -4.6825666 2.0741534 -0.4247838 2.2719305 -1.943204 3.6780324 -4.171161 2.6361678
party 1.3989608 0.86369026 -0.22082898 -1.6815612 0.13279898 2.348644 0.12742893 1.4692563 2.3142385 2.0302708 -1.8880202 -0.70044494 -1.773628 -2.264561 -0.7468281 -0.43320188 2.6636257 -1.8222599 -1.3032174 1.0452724 2.44979 -0.07996255 0.3216849 0.3256319 1.5536889 -1.194836 0.36481518 0.71807206 1.6312151 1.7332011 0.14925514 -1.8733171 -1.183759 -1.4096972 1.7578527 -2.9673896 -0.31600237 1.6717671 0.5917951 -0.21936704 -0.33746374 -0.29921782 0.71921074 -0.43648767 -1.6021922 0.174049 2.2774422 1.56267 -0.28454697 -1.4259497 -1.2098101 0.9392499 -3.952311 0.6926473 -1.930483 2.0581856 -2.43505 -3.2883458 0.850379 -1.9221573 0.6916732 -2.531603 -1.1329122 2.0863016 0.7043042 -0.8046742 -0.05217757 0.028242502 1.8704435 3.2417836 -1.8130746 -1.8521748 -1.6242133 0.52951604 -2.0624845 -1.066622 -0.42731968 0.33527833 0.30640015 2.1315868 1.8972926 -3.6520538 -0.99859416 1.6237198 0.33942273 -0.991975 0.8682256 1.9882205 1.5330884 0.3216532 -0.5599156 -0.75844514 -0.37757227 0.7450451 -2.3754818 -0.9324633 0.48441324 -1.9566869 0.4735108 -2.462236
clock 0.41656008 1.7211492 0.20576724 1.0552963 0.022681385 -0.10524258 -0.9708616 0.76751524 0.3102082 -0.4198689 0.3775768 0.16639236 -0.19351965 -0.6654623 -2.8651273 -1.1382127 -0.054374516 -1.5305624 1.9710749 -1.7443155 -0.5428828 0.9840424 1.3643436 2.3542638 0.34737974 -1.8082169 -2.9820638 0.90291756 3.5323956 -1.5826557 -0.73489296 3.5150752 -0.33400384 0.8526797 -1.7512892 -1.981177 0.060178433 4.0293384 0.8105787 -1.3686109 2.5510442 0.57300895 0.26574335 0.7309891 -3.2612321 1.1765765 -0.93465906 -2.886483 1.4621062 -2.333537 -2.2133074 2.4494386 2.2481923 -1.433348 2.1923056 0.017765947 2.9939058 -1.6452427 -1.0451522 -0.56174165 0.34816745 0.7467115 -0.48040184 -1.6163402 1.0436984 -1.040864 0.3223151 -0.973249 -3.1761324 0.0054808087 -0.07085177 1.7355391 0.7467995 0.58425343 2.121992 2.0505474 0.28383958 0.012619645 -2.4365973 -3.1732867 -0.9598633 0.17378409 0.050196834 1.0156192 2.127238 -2.5786648 3.5993326 -0.17448452 -1.1686063 0.080428384 0.9511601 -2.0621068 0.6815387 -0.991319 -1.1800212 -0.78680354 0.10878069 -0.5254045 -0.07817104 -2.3976297
feltcraft 0.3614366 0.35417706 -1.0249223 -2.2785354 -0.327477 -0.46028143 -2.211943 -0.60583425 -0.6428246 -1.3446765 0.25063282 2.0575035 -0.29346728 -0.2574426 -0.24352318 0.7481554 0.91085976 -1.8713611 2.4737854 -1.137836 -1.6703993 -2.6434429 1.5052515 2.338025 -2.3087184 -0.9232151 -0.14960556 0.6961729 0.40312377 0.56902814 -0.2719286 -1.9998138 -0.5158584 -0.8628971 0.7732811 -4.9872847 -3.5588272 1.2936118 1.1814464 0.14249015 1.5039488 -3.3331916 1.4892033 -1.9261166 -0.4354027 0.7534037 -1.4464983 -0.9630289 -0.40255085 1.6189654 0.006301332 1.5866046 -1.2886466 2.3491526 0.5882972 1.9412336 2.0625057 -5.4367537 0.25631145 0.66055197 0.87078214 0.31364086 -0.8608613 0.69663197 -0.9274809 -1.6591812 1.2282166 -0.5811496 -1.6499288 1.1474112 0.25396627 -1.1210595 -0.2301207 2.4749007 -1.1741128 -1.900966 -1.4886009 1.3373146 -1.7755408 2.0253534 -1.25705 -1.5865886 -1.0135165 1.3321071 0.9531112 -1.2059115 0.6944021 1.5008343 1.7755325 -0.22851014 -2.8917413 -1.4964347 -1.1799848 2.923544 -2.7559326 0.929313 2.7453818 -0.51864386 -4.9656396 -0.9946993
black -1.110592 -1.7124817 -1.6532124 -0.44853207 -1.0910332 -0.7716283 1.150164 1.7732762 -3.2208633 -1.3865067 1.85151 -2.3099754 -2.7794979 0.6854481 3.5781085 0.7501874 -1.8306588 1.4076644 -2.438775 -0.4561368 1.7130893 -0.05313666 0.64351773 -0.019522844 0.73685986 -1.3194891 2.368989 -3.9626148 -1.5438577 2.8839643 2.2427957 -3.6218364 -0.5976167 -0.06652992 -1.375314 0.8983903 -0.40527588 -1.6450884 -0.9931903 0.69354236 0.79496616 -0.6546161 -1.9112959 0.8427947 0.86335486 0.84611666 1.9430135 -0.43406674 0.4024628 1.0730321 0.628384 1.1239839 -1.7570642 -1.049135 -1.9227965 0.87731516 -0.42460284 -1.5937495 1.8133081 0.15653794 -2.123752 -0.14408192 2.585859 -1.11789 0.3223537 1.0501925 -1.9300475 -0.44725603 -2.1492217 -0.888324 0.59493256 2.4778326 -2.079784 -1.0313308 -1.0492551 -2.309763 -1.4196159 -1.1390221 0.22680615 -0.22348088 0.8859767 -0.8845684 1.7008653 -4.527695 -1.0996686 -0.6969539 -1.0796577 -1.20921 0.25941008 0.56883496 0.09040373 -2.8085847 1.9564378 -1.0519966 1.2943234 0.833394 -1.7869208 -0.61981606 0.95332205 0.9299516
wicker -2.5564756 0.8561901 0.39865506 0.1698865 -0.60145205 2.1992404 -1.8226522 0.9149151 -1.2901989 -2.9911132 0.31082284 -0.9712277 -0.8514489 1.9856468 -1.4955425 -0.08998233 -1.9859543 0.9984223 -0.087849654 1.1053232 -0.40662655 -0.52929896 1.7781848 0.69326365 1.0801774 -0.46547374 -1.9708438 -0.36805475 -2.7679803 -0.8140269 -1.4098153 2.7043676 -0.7042102 5.3416095 -2.038223 2.8261545 1.725188 0.5592431 -1.4666812 2.1728404 0.31241855 -2.604757 -2.8107476 0.98788434 -0.07352386 1.4641416 -1.5716581 -0.7038505 4.6011024 1.2091494 1.7227364 -1.6684308 -2.1302779 -0.6958002 2.2269068 -0.6943075 2.247871 -0.7682387 0.8747606 -1.7310035 0.67433006 1.6441436 1.4329427 -0.5388928 0.9841967 0.025402565 -0.3218022 -1.1666628 0.71348435 1.64156 0.004936654 1.8643467 -1.1643767 -0.50961185 1.4113377 -1.7469426 1.6242142 -2.1714087 2.9232244 3.2939754 0.3851278 1.2610637 2.074037 -1.3509918 -0.56392336 -2.898393 0.2299363 -0.5381515 -0.3904281 1.5252839 -2.5714755 1.074361 3.7593305 -1.8324676 1.0663475 1.1677947 -3.0728748 -1.7639719 -2.9814312 1.0597484
bowl 2.0267575 0.235182 2.7390072 3.9508412 1.589147 -2.3310866 0.96799076 2.311998 0.8168097 1.0096931 -2.5339446 -1.8935041 1.5418253 -1.8333452 1.360899 -1.0357562 2.6938393 0.06967379 -0.87750083 0.5013634 -1.0531858 0.906695 -0.54056793 0.87104887 0.9152039 -0.096702196 -1.3667274 0.19984375 1.0669843 -2.276987 -2.8188784 -1.9513654 0.26757154 0.7533204 0.05333533 2.157119 3.051384 -1.2666233 1.9142246 -3.7029219 1.3373101 3.3466048 -1.0670992 0.015231613 -0.55402696 -2.5791998 -3.0953763 0.35478416 1.5132996 -3.1513126 -3.4809175 0.6776439 -0.22281107 2.2339327 0.5598264 -4.2921987 -1.5501132 1.2837939 0.35266954 2.091357 1.3214036 -0.5221478 -0.13851 -1.40626 -2.980387 -2.4308653 2.68556 1.1211075 0.56389207 3.3316529 4.0859766 1.1709286 -1.6472063 -1.6631603 -1.2352222 3.6136172 -0.4506909 -0.6014883 -1.231033 0.30010292 0.9648837 3.1228533 0.46533522 0.59024125 1.8945636 -1.483685 2.473882 1.8408272 1.6717391 2.1333559 2.8030932 -2.1568618 -0.6500906 -0.37567082 -1.2612152 -0.86283237 0.5167899 -1.6920353 3.4170976 -1.2456263
garden -0.25531054 -3.9778621 0.68961734 -3.9264677 0.042259146 0.74655694 -0.72384286 1.0331999 -0.29761636 0.9805706 -0.17013526 0.74972606 -0.9802796 -0.76792717 -0.03893136 -1.0192868 1.8940538 -3.4900749 2.6053514 1.2977191 -0.14830732 1.6147124 0.20541301 3.152848 1.333069 0.58182967 -0.9304049 -0.26282534 -1.0137669 -2.8394713 0.93638515 0.21705948 2.054017 0.43832436 6.8570905 -0.108710356 -2.772741 1.1255224 -2.3736742 1.7461671 3.3821652 1.1110041 -2.0638537 1.1097248 1.2648178 -0.93579906 -3.5699725 -0.8435348 2.547709 -1.7776995 -0.08849401 -1.2816793 0.40985516 1.4512995 -1.1664844 -1.3711929 -1.1288195 -0.4241635 -0.27429467 -2.7790701 -2.0087807 -0.68847555 -2.121628 -1.9962133 -1.260854 -0.20904705 -0.9071336 0.62457466 0.22491142 1.1638917 -1.3089371 2.177017 -0.36394206 1.1101936 -1.4788537 -3.7480829 -1.5442016 -0.6295321 -0.9453982 -1.8123456 -0.40886727 -0.063231125 -0.74055845 0.7052424 -2.67649 1.3022662 -0.24054597 -0.15730564 1.0854803 -0.66758686 0.95052654 -4.371104 0.04095652 -0.83090603 1.1115364 0.1092262 0.8984281 -2.9243593 1.6445125 -1.0647495
kit -1.1929215 1.1314689 -0.95915717 -1.5832665 -0.13111721 0.47666866 2.0614195 -1.4138215 -2.9055912 2.5234497 -0.713226 1.2950195 1.2039925 0.91179544 1.5780097 -0.5551523 -1.114561 1.1212547 -0.66166943 -0.049775403 2.7564957 -0.095069006 -3.8040702 -1.3625153 -2.6847568 0.36202112 2.7827618 1.2973127 -1.8585583 -0.31204048 0.43551898 1.3264848 -3.0239336 1.4149661 -1.3689523 -0.78757685 -1.8694545 1.6677468 2.9539435 -1.5275329 -4.6207695 -2.9047742 1.927514 1.6959262 -0.17909549 1.0632333 1.8493277 0.17179726 -2.1670084 2.9270532 -0.859391 -2.592295 -1.3888882 -1.8403497 0.29490748 2.4440105 -1.275675 -1.9779402 -0.2578964 -1.9448594 -3.0869093 1.8147019 -0.97030425 -2.825693 4.2649207 -0.122929744 1.6354734 2.7806547 -2.2829945 -0.9777669 0.2891299 -1.2886534 -0.8394065 1.9195144 1.8772427 1.2713338 -1.2645073 1.6075629 -0.6025019 2.0431957 -0.8878129 -1.6431835 -1.7555388 1.4404861 -0.18574066 2.2885358 -3.579245 -1.7875508 -0.14689441 3.8127866 2.2218823 1.4376415 2.353447 -2.4559374 -1.449395 -0.93148243 0.641679 -3.1442893 2.202983 -0.48485032
tins -2.1387715 -1.8613338 -1.7287502 2.6568863 -1.904504 2.2188659 1.2291243 0.87088263 -0.6121055 2.8835196 -2.4183846 0.6747086 -2.7635298 0.05855753 -4.2781587 0.31673044 0.19070269 -2.9253848 -2.786947 2.0862422 1.5174941 -1.9839135 0.6153037 -3.521049 -3.841993 0.17721808 -1.475912 -0.58076197 -2.9466105 1.5470363 1.9404924 1.6622603 -0.78062487 2.6937346 -2.0003407 -0.7073446 -1.1244929 0.55481046 -0.1457052 1.3950858 -0.7282133 3.1468327 -1.0592282 0.088248245 0.030782638 0.55334383 -0.72225946 -0.0553357 -0.52047044 3.6472871 -1.1188408 1.4499207 -3.1526241 -1.5447441 1.19187 -1.3736391 0.013552278 -1.4181337 5.5135727 2.8532574 -0.2973663 -1.5437942 0.36285305 -0.088700876 3.02661 1.6529026 2.3071146 -3.4997206 -1.1370381 -0.06967111 -2.5763628 0.4637405 1.2567065 4.433211 1.7675135 0.94377047 -2.9540412 -1.6395953 -0.52025014 -2.956376 1.2826939 1.6926404 3.2418804 1.7547661 0.7283475 3.288808 -1.8054268 -0.8375703 0.21366327 2.6192896 0.05727943 0.5430304 -0.9568985 -1.0448083 -1.76764 -2.455336 -3.455764 3.803027 -0.14565323 4.761205
woodland -0.017699022 -1.7255896 -0.038285736 1.0898374 0.21509969 -1.1694816 0.14415303 2.0651672 0.8594491 0.6015125 3.298891 2.0447567 -1.4680164 2.6338618 -0.0947824 3.7565188 0.37280536 0.6725846 -1.0160123 1.7895715 -1.1637866 0.11540322 2.259799 1.0453309 2.6517315 -0.66026837 -2.2299964 -1.1463892 -0.37915635 -0.8226967 1.3183275 1.7645344 0.12977585 -3.1419852 0.14062129 -0.9311829 3.1033258 -2.5195758 1.122308 3.8461869 2.891165 -2.3640788 -0.6694289 2.1029003 1.8994195 3.0180523 0.6016218 2.0409508 0.35544375 -0.6639072 2.6094074 -1.277554 -1.0673711 0.30961546 -1.8275232 -0.6967758 1.6607552 -0.3536119 0.62042356 -1.2970378 0.44099832 0.6392377 2.0492184 -0.18418105 1.1609553 0.8927718 1.1551824 -0.83834726 -1.8004178 0.2414714 -2.6190155 -2.7121313 0.6631839 0.55459625 -1.3121507 -2.6928165 -0.7523726 -1.0248643 0.3323511 0.70447206 -1.5954593 -1.6108912 0.8977534 -1.3343847 -0.07924495 -0.8367242 -0.40566975 1.1519364 -0.34843096 -0.76354015 -1.7661097 2.7104297 0.7934867 1.9688202 0.60558426 3.6477962 -0.36422047 0.15130712 -1.1135362 0.4559705
fairy 2.0490031 0.78472596 1.1598268 0.63918453 -1.5747383 -0.45116353 -3.1707156 1.3582685 1.7752502 2.5164473 -3.1435945 0.5274286 -0.48298606 -1.1063175 0.48780242 -1.5377942 -1.6383468 1.7038164 -0.85589755 2.6070044 1.1259859 0.50020266 -0.5569168 0.6548049 0.9307649 -0.7933015 -0.5868322 2.9153533 0.48807076 4.039977 2.582592 -0.3132768 -0.69838345 1.3195504 -1.6518967 1.7456032 -0.55838406 -1.1907673 0.6432293 0.61975425 0.8159428 1.9268439 -0.47121796 1.2320243 2.3803427 0.6888406 -1.5960058 1.7446333 1.559059 -2.8748431 -0.37782958 -2.7477565 1.9124184 3.670511 -2.473294 -3.5377102 1.9319768 0.61981314 2.424876 0.27377883 2.3703966 2.3335488 -1.2641062 0.4970719 3.2209003 2.2716053 -1.3831998 -2.0092018 -0.90408325 -0.22258876 -2.232627 3.1494758 -1.4360539 1.1095477 0.23239301 -3.2600756 -1.9814057 -0.5986346 2.134452 1.0358188 3.3497117 2.7605863 2.2964325 -2.575724 0.7767449 3.0383215 1.6161019 4.015106 -2.0671287 0.32342863 -0.5559394 1.0057825 4.1269293 -0.6132817 3.2230892 -2.550079 -2.2872627 -2.0946429 0.8752767 1.6385635
wrap -1.0118756 0.28500798 -1.062946 -1.3251815 -1.7125609 -1.0782977 -0.3876616 -1.4867715 0.6870046 -0.27174887 -1.0607456 -0.009164681 0.6516402 -2.3704553 -0.6879997 -0.37695712 1.5189164 -0.79031277 3.051064 -0.22040097 -0.6280174 -0.7488341 -0.6657392 -1.6408684 0.6699642 -2.5005186 -0.20002097 1.3859771 -0.491617 -1.0453528 0.32414067 2.6700048 0.5114152 -0.25756893 0.561301 -1.9932524 -1.8235917 -0.8602288 0.93125904 -1.7711055 -2.0783103 2.8773742 1.7405971 -3.560891 0.6138648 -0.7959974 0.2983433 0.17891397 -0.6340104 1.5192009 0.570534 0.1310128 2.0340445 -0.35875922 0.9782911 0.52955437 -1.9132593 -0.09799994 -0.23404315 -1.7867216 -1.3889254 0.18063793 -0.47309867 -0.16210377 0.14606395 -0.78727853 0.69852304 -2.6831737 2.6313407 0.7960073 2.1496346 1.1115212 -0.7018793 -0.45400175 0.889303 0.9573353 -3.2087808 -3.37964 -0.5141634 -0.92027694 -1.0703896 -1.2873958 -2.922157 3.9100714 -0.5614409 0.3922259 -0.8811181 -1.8936554 0.90276873 2.9471085 0.0024332807 -1.7986481 -0.8904902 -0.18522312 -3.3893213 -2.7070312 -1.1505018 2.3268971 1.7185209 -1.9001374
frame 0.23061708 -1.8732765 2.6477823 0.58098 0.7247594 -2.9872923 -1.8900908 -1.0391665 -1.4183956 0.33248848 -0.9310998 -0.33121294 -0.9253422 -1.267249 1.8121339 -2.4224737 -0.93733764 4.090347 -0.07488518 0.6235992 0.30552644 -0.3285744 4.9838047 2.8321624 2.7496438 -1.7496759 -2.0272412 -1.711998 -0.28097603 -0.6820017 2.0312195 2.1110168 1.5806824 2.2924976 0.8273358 0.0931154 4.3517632 4.1458855 -1.7335374 -1.1872895 0.031906072 -3.6628363 -4.363172 -1.2652355 0.21292682 -1.1030567 -2.4580433 1.8376987 0.729926 -0.0022440844 1.0349882 0.025188074 -2.547675 -0.0723921 -1.1509037 -0.18329434 -0.55830747 -1.4278079 -0.6415303 -0.001850203 2.8450308 0.37862974 0.562599 -1.6669532 0.066441245 -0.2980129 1.0915084 -2.717145 -1.7934843 -1.3159374 -0.027234832 3.8069344 -3.8207765 1.5950147 -1.3844798 2.9319253 0.19575372 2.5235276 0.6347199 -0.314471 0.18412016 -0.93709636 1.4532522 -1.0838237 -1.4022027 -0.51432836 2.6899488 -3.233851 0.7033686 1.5663029 0.34056687 -1.4876258 2.5672739 -0.32231453 1.0803394 -0.6507333 -0.95794165 0.15157317 -2.5085344 -1.111194
antique 1.1978282 0.22703819 1.0016941 -0.9241097 2.8326368 2.529598 -1.6534668 2.9384737 -0.88810474 -4.3270006 -0.781275 -0.73208106 -1.0870748 -0.32269573 -2.6510017 -3.6869926 -4.80231 0.29134762 0.2120388 0.90944123 1.3515749 4.180638 -0.68586516 -0.66454357 2.9697776 -0.5636509 -0.24637803 -1.9568973 1.731325 0.6577951 1.5621593 -0.52765334 1.649277 1.0785203 0.44703284 0.32709187 0.62651306 1.6623856 -4.04478 -0.94874 0.9168981 -4.6968703 -1.2726448 4.606525 -1.4377203 -2.86459 -2.011656 -2.07151 4.7868104 2.039339 3.0826607 -0.5411832 1.3477062 1.3409795 1.5378956 3.6994078 -0.07573059 -1.4856161 1.2987343 -2.9022236 -3.4776201 -0.6105039 3.3316684 -1.5836776 -1.4046712 0.06343329 -1.1840519 -2.375807 0.11608654 -0.9231224 -0.7673931 2.6119962 -2.619358 -1.0221244 1.3935353 0.7795113 2.9128907 0.6222986 -0.40216908 0.382694 2.2743936 -1.5986716 0.23070426 -0.7383226 -3.3304067 0.6072946 0.7383219 0.69817954 -0.25223517 0.0760139 -2.9002166 -4.6407123 0.44606057 0.29986572 1.1421064 1.8863705 2.8948114 2.550138 -0.14955044 -0.42118067
drawer 0.59077185 -1.0068735 1.1493454 2.229368 -0.029877394 -0.53523755 -2.3065996 0.03561222 2.0748243 -1.422923 0.94556147 0.9402424 1.5445704 -3.021017 -0.27326062 -2.6263158 0.53122616 -1.9532353 3.5032337 -3.694991 0.7620813 1.4765346 -1.4931712 0.10264027 -0.011696659 -1.2259521 -1.0366435 1.7260362 1.9372021 -2.514955 1.6211171 -0.06441102 0.56649715 1.48467 5.481284 -0.48482636 -1.2884578 0.65137625 0.501899 -3.1253197 1.4406651 1.0953777 -1.4405032 -4.7679605 -2.9366038 -2.3971996 -3.3999782 -2.0227108 0.4229478 0.60959554 -1.4477279 1.9161135 0.3108412 0.7366511 3.4405496 1.473979 3.3493474 -2.3909967 -1.7148898 3.2742803 0.79663503 -0.20359091 1.5107276 -3.2811978 -0.9867681 1.2787511 2.001292 -1.1075213 -1.1104473 -1.3187356 0.79638785 0.21147937 0.18945286 2.790738 -1.5257311 -1.2468241 0.28693855 0.8071926 -1.7419587 -1.0787554 -1.2391092 -2.282425 2.6706092 -1.9264878 1.6165559 1.1449862 1.1452917 1.4743837 3.1446447 0.5598548 -1.0622978 -5.166768 3.281683 -0.9033228 0.77506596 -4.4076643 3.672707 -1.7618843 0.31365293 1.2336982
charlotte 0.432972 -1.3103615 1.6414557 -0.004662688 1.4284356 -2.473624 0.009116478 0.88552207 0.56055063 -0.7016483 0.35765108 0.4984975 -2.4589565 -0.8676808 -0.50729936 1.7071203 1.6557122 -1.012896 -0.053493705 1.6261249 -0.62476903 -3.5624182 1.6623875 0.80995363 1.156732 0.2012496 0.45506185 -0.13458712 2.0561368 1.103018 2.434019 -1.9491595 -1.4157603 -3.0292895 -0.5890764 -2.318337 -0.8667975 -0.6384276 -0.40287217 -0.06327468 -0.8872593 -0.1356233 1.8677999 -1.3116108 -1.9051036 0.2875303 0.25544688 0.3954672 -1.3239506 -0.09073077 -0.77179474 1.7511073 -0.68764305 -1.1601821 -1.8861423 0.72743344 0.08301028 -3.397722 -0.81594247 0.19501267 -1.46409 -0.11070622 -1.2916847 1.217909 2.3131216 -2.31693 -0.38892984 -0.7365728 1.1618414 1.8671441 0.45757416 -3.579267 -0.40573508 0.11033901 1.9006714 0.13346249 -0.13140695 -0.5992238 1.5316918 0.13423024 1.0813607 -0.52060413 -1.8962193 0.8994007 -0.808312 0.042099997 1.4646348 0.96985203 0.5780993 1.0603483 -0.40400276 -1.2618645 -1.7002686 -0.035039604 -0.27766272 -2.8340142 0.5715317 1.6504157 1.1191497 0.08093754
silver 1.2826601 4.349389 -1.5073698 1.2344118 -2.27005 -0.57771724 2.708773 2.911006 1.484523 -1.2630228 2.5621188 -0.41748267 -0.77458775 3.3284223 2.4007218 0.535139 -2.3618162 1.4430085 -0.008820495 -3.4456172 3.53132 1.6578621 -0.5627908 -2.726084 0.68528587 -0.24593964 2.0074186 1.0068244 1.3430345 1.6393348 0.668426 -0.9123183 -0.0625779 -0.28976202 -2.563624 -1.6609815 2.434007 -1.083149 -2.1007888 -0.5363257 1.7680906 1.540265 -0.8047699 1.8029531 -1.5395544 1.3227175 -1.458674 -0.3734136 -0.5475471 0.95457536 -1.3312396 -0.39878267 -2.7898948 0.7983373 -1.7538323 0.54397464 3.0480096 1.2194676 -1.5619668 0.46124467 -0.9898684 -3.3687558 0.80006605 2.9938421 -0.0073016863 -1.8039325 -1.228539 -1.0690681 -3.5125332 0.9955086 0.0626653 0.23641668 0.215983 -1.6833068 -0.99790794 0.4162756 -1.0040505 0.39247534 -3.6337802 1.2054539 2.0337057 0.34547743 0.22934145 -1.5237502 -1.1420015 -2.980979 -1.8369719 2.818011 -1.0000447 -2.356972 3.5503535 -0.8455199 2.3162386 0.613642 1.7391677 0.98699754 0.1718843 -1.0527834 -0.3009514 -2.6175241
colour 1.5876268 2.1088526 0.65825075 0.39461038 0.90289915 1.9126849 2.2390995 -0.27746013 0.22158492 -4.0609875 -2.198881 1.4062042 1.4217355 -0.3565194 -0.29386204 4.6383815 -0.4837734 2.7050843 -2.906465 -2.427713 -0.6983324 2.627244 -3.0139759 -2.9265177 -3.1825612 4.87389 -0.014694122 -1.4130265 1.2183051 3.1383626 -0.40839216 -3.4684393 0.97811824 -1.3281438 0.8780179 -1.6386132 -1.1309136 0.55461115 0.8906792 -1.0770987 -0.2579857 0.71783686 0.31844452 0.693757 1.1460572 1.007791 0.024707656 -1.5547899 0.40556848 -0.46994466 1.3545989 0.098553784 0.88288367 -0.34694928 0.76294506 3.6643703 -3.7891326 4.500945 3.7220807 -1.6714747 1.7647761 0.39198035 -0.8555791 1.8023229 0.064685784 2.7496524 -0.48401433 -2.324551 -3.1064112 -0.24340175 0.023587262 2.537407 2.7407432 -0.9575473 -0.33492556 0.54025054 -0.27746356 -0.28435567 1.3285944 -2.5794382 -2.3903925 -0.10327568 -4.41315 -0.92763156 -1.0468516 1.9487138 -1.5161219 1.4421407 -0.09443605 3.5887659 -1.2836398 -1.8958329 -0.39610627 2.2775764 -1.2710673 0.89791775 2.1274946 0.2926373 4.7960143 2.1584141
childrens -0.1373209 0.74326414 0.7873297 -1.7056159 -0.39549768 -0.9896022 1.5442677 -0.81444365 1.3195897 -0.5847739 -2.199109 1.0374261 3.1745307 -3.0362003 2.16721 -2.1844933 -1.3946614 -2.780532 4.8893733 0.43166474 0.120393336 1.5994442 2.2599378 0.3752477 3.0696087 -0.33370468 0.81869847 0.32332796 1.8661473 0.40664393 -1.5964669 1.1813788 -1.0555366 1.3853458 -0.37377635 -1.6640699 -1.8899117 -2.306756 2.2253206 0.67303526 -0.34078392 -0.39353493 2.18007 -1.9199697 -4.205193 -0.7231655 -1.8072978 0.5015553 -2.541029 -0.469931 2.6785946 1.0260277 -0.60813665 -0.14312463 1.2610853 0.08871779 -0.980375 0.63428515 1.1559886 1.4422702 0.5533564 -0.59563404 -2.5216496 1.8229765 -0.98572886 -0.6016816 -1.9961102 0.5510881 1.137624 -2.760568 0.21879396 0.5119313 0.36542034 0.790371 1.1845375 1.5491408 -1.3031164 -1.0011079 1.9217604 -0.5168356 -1.8007647 -0.15194161 -3.988783 2.3556702 1.1617247 1.166527 0.63323015 1.8284652 -0.74140185 0.9082744 -0.7776292 -1.6325443 -2.4775083 2.012551 0.41372624 -2.9394276 1.4983413 0.87812054 3.5764968 -1.4886125
wall 2.75323 0.6238745 4.335557 1.2919226 0.3725919 0.9297731 -2.2686832 -0.03245759 -1.9480832 -1.191856 1.5651208 -2.2420368 -1.6811163 3.2722766 0.99607676 -0.11005106 0.83162767 3.7717783 4.9544826 -0.5702388 -0.37373897 -2.8399713 0.6644769 0.3491453 0.9038338 2.7004983 -0.95563924 -1.1184955 -4.049332 -1.8020002 -0.8477148 2.3817706 1.601604 0.6160615 -2.9156456 -1.4987857 0.26407987 0.11600094 -1.6199104 -0.48511294 0.4022319 -0.19988385 -3.6068995 -1.6200665 -1.922369 -2.0618849 -1.8007869 1.0980693 2.6096287 -0.681915 -0.05695402 0.36056367 4.3835745 1.1800728 4.5037656 -0.77728355 0.22533818 -0.6723899 0.22545092 1.5699085 0.693012 -0.14551312 -0.010461902 -1.6250746 -0.5625485 1.0664548 -0.20132911 2.4364598 -0.9168239 2.1400614 2.383386 0.13501555 -2.1897736 -0.8205871 -0.7069987 1.717582 -0.9056585 0.5754776 0.36577338 -0.028156295 -0.46018264 -3.4793012 2.057137 4.4710875 -2.4143343 -0.18513212 -1.7269735 -1.3417745 3.1146655 1.7197602 -1.5187315 -3.8562336 0.18101008 2.015411 -0.46189773 -0.8321081 -1.3215675 -0.12063474 -1.7673773 -3.794719
birthday 0.12558639 1.5087228 -0.95044905 -2.3158932 -4.7729483 2.5596888 1.9069026 2.636058 2.0084002 1.5635709 1.1637474 -2.295384 -0.2394399 -0.8070346 3.4536028 -1.412048 -0.898739 1.0553709 3.6306725 0.53886116 4.4325867 1.404127 -1.2177972 0.009194245 -1.4108046 -1.2835988 -0.4970134 -0.67493814 0.96555537 0.21802251 -1.0141249 0.20977733 1.6727415 1.7932823 -1.1677903 -0.6284494 -0.11974169 1.2316563 0.31310478 -0.6913435 -1.9253893 3.4681203 -0.7260308 1.9104233 -2.783364 1.5836589 -0.65381193 -0.17021553 -1.156147 2.3635805 -1.1924883 2.0640833 -1.3837093 -0.11008404 1.0680414 3.058869 1.2713927 1.6976533 -1.4498725 0.5404422 -0.59599304 -1.7900137 -0.7547033 1.483229 -3.452535 1.075204 -0.61428756 0.2833649 0.40373713 -1.0900716 -1.900678 2.4682393 1.3973609 0.4248243 1.4276292 -2.462148 0.7684227 0.11822275 -0.78238887 -2.096033 1.0479095 -0.93971777 0.09765007 1.3921742 1.5375298 2.9340835 -4.222317 -0.6347259 0.7696863 3.015534 -0.15321024 -1.0554619 -1.0306865 2.3375425 0.3403469 2.6721187 0.513318 0.483103 2.3400679 -5.669219
strawberry -0.9476139 -0.5473269 -1.036198 -1.0882941 1.193946 -1.4103777 3.3504298 1.0751858 0.10899463 1.0880876 1.3907679 2.8795362 1.4700689 0.93416715 -0.81239974 -1.333981 -1.5305135 2.0802183 -3.2683218 -0.8037013 0.10230671 0.4156764 3.1858106 -1.6497078 -1.2990204 -0.15721451 1.3301557 -0.62337005 2.5420895 1.009 0.79635495 -2.5968637 1.1504077 -2.2010038 0.5279663 0.18873203 1.9312798 -2.5883174 -0.89235294 2.9248912 2.830531 -0.93387574 0.4875757 4.4822917 2.153218 3.450322 -0.15050103 1.1565477 -0.5375938 -0.8769198 0.45190513 1.3175247 -0.9751483 1.2764038 -2.8053267 -0.41421056 -0.24920058 -0.9619625 -0.3982814 -0.22904733 0.088011205 0.7365018 -0.21305095 0.7746273 -0.02206654 -0.0023551132 0.39967027 2.9554956 -0.875143 -1.048193 -2.622563 -0.25035548 3.4725783 1.7467886 -0.2858876 -3.4661653 -0.21576585 -2.0596552 0.47809175 -0.5698128 0.40995842 -2.4082506 1.7058281 -2.2389414 1.3593065 -0.3632351 -0.6430845 2.9802637 -1.1570084 1.4547228 0.7743773 2.9157686 1.3925099 -0.6909387 0.962115 1.3592005 1.4899527 1.4781439 0.34556633 2.4823983
star 1.5080847 2.1698523 1.3755896 -1.1246791 1.0562656 0.5488939 0.9745588 1.7983909 -0.06230029 1.077006 -0.010369556 -1.6509588 1.7646475 1.5673983 2.786915 -1.1501096 1.3928685 -2.0567427 -0.519153 -0.9511948 0.89963907 -0.30206904 -1.5631928 -0.6710484 0.9168658 -0.35813877 0.29264605 0.8813565 -0.82018375 3.1135974 0.04420929 0.36707103 0.19784385 -1.0519404 3.186378 -1.6846946 0.12076687 1.188556 1.747798 -2.2762473 -2.2161844 -2.9897022 0.86270076 2.2174852 -0.64872575 -0.080184855 -1.7068161 -1.9378275 -1.3860782 -0.4056632 -0.88676995 -0.22559217 2.876501 -0.42827255 1.6591481 -0.51754713 -0.38877153 0.08825829 -1.1862423 -1.6490808 0.20948623 -1.2879083 4.004247 -1.9866347 2.0044336 -1.0061066 2.0739894 1.1271275 0.9390905 0.6172171 -0.568013 3.0956392 -2.9172518 1.8493297 -0.9705422 1.3144525 -1.5068777 3.5810266 -3.009218 0.15729962 -0.16472615 0.66565895 0.58190733 -0.6255141 -2.6703496 -0.29380617 2.209617 0.7643437 0.26949134 -0.8777724 4.8717504 0.30818295 -0.51609796 -0.522348 0.45532438 1.4552319 2.5723543 -0.03412458 0.8934261 3.3884692
wood 0.27617565 2.127849 2.3402545 2.911705 0.9861489 0.07399148 -3.0923629 -2.4036438 -1.5971642 2.004754 -2.6281776 0.45697322 2.5818925 3.5922043 0.44278535 -0.95747435 3.122102 -1.096552 1.2903502 0.04906901 -2.6525629 -2.7253509 2.4990482 -0.25231 1.0327711 2.1152177 1.4956697 1.930701 -2.079763 2.8742685 0.12651706 0.33840385 1.0328566 0.21931112 -1.5445051 -2.8783658 3.2073953 -0.3765115 -0.11589081 1.5765103 -3.1466875 -4.8720717 -3.0699332 -1.9723508 1.9931577 0.25869805 0.75514036 -5.174608 0.05750397 3.8617318 0.6756735 -3.263214 1.815078 1.0902121 -1.0909487 0.7184029 -0.5790676 1.3394303 2.3930612 3.9900463 2.1951158 -3.8868132 -1.102564 2.0823867 -0.45773685 2.9356155 4.216214 -3.6457798 -1.9185615 0.6079044 -2.7606435 -1.8532857 0.08329194 -2.1558685 0.32704964 -0.38625157 -2.6922126 1.7583898 0.68483496 0.17386387 -3.6762984 -0.45023414 0.42607796 -2.3045108 -0.8312216 -1.99274 0.23368469 -4.6067343 0.5276918 -2.5874848 -1.9352111 1.016311 3.1354632 -1.6220348 0.09741732 0.8124314 -1.510322 0.10331521 -1.3018186 -0.74730617
60 -0.8935737 2.1277337 -1.9471674 -0.5579636 -3.2051733 1.191519 0.29079333 -1.6046494 -3.1895275 -0.2986404 -2.2989635 -0.3104527 -0.8664957 -1.8935368 1.5541228 -3.5103428 -3.3751853 1.6221493 1.1748213 3.5346944 1.6609161 1.4189776 -2.6136048 1.6522863 0.5913293 0.60703045 1.9646101 1.2337102 -0.48435622 -0.64671206 -0.590852 3.7378595 1.5901815 3.7309263 -3.5682223 2.6549149 -3.1873565 -1.4313502 -0.52524656 -0.15041333 2.030667 3.1216638 2.7217464 -0.532132 -0.2808976 3.3530934 -0.18211393 -0.66418767 -0.71340907 1.7457535 -2.3807724 1.0298207 0.1021458 -2.9059596 4.6481476 -1.1385615 -0.09868447 1.755966 6.416646 2.0181918 0.65395665 0.5815769 1.1795084 1.2014322 2.3697221 2.055688 -1.8035681 -3.263406 1.0520527 0.448326 -1.3458296 3.0473802 0.9347812 3.048383 -1.194155 -1.9112501 0.603679 -0.17132449 2.1085188 -1.2723358 -0.6607139 3.720343 -4.9965296 4.9801035 3.1303442 1.3585721 -0.42347425 0.55449194 -1.8658934 2.8906598 2.6348495 2.758765 -3.6614542 -0.387856 -3.0691059 0.76539946 0.4289647 2.1547353 0.8942036 3.5210392
bird 1.0263172 2.4586194 -1.0935493 -0.79596525 2.2583196 0.23230495 -0.42134947 2.2989683 3.0533538 1.1436843 2.7289267 -2.806518 -1.6998193 -1.5259612 0.26286614 -2.2536342 2.2619176 -0.59167343 2.5367937 1.711634 -0.28015503 1.2387608 1.9670268 1.5085093 -1.3317435 1.5998464 -2.27303 -4.9274073 -0.83946514 0.22294709 0.5221772 0.6934919 -2.261043 0.86897033 0.69926363 -3.074974 3.1049306 -0.2708035 -0.7680616 -2.011379 0.44551852 -2.1810637 -0.31628513 1.5660967 0.33526996 -2.550876 -0.36618692 4.3649697 -2.115774 0.07817911 2.0009096 -2.2249198 -1.7687197 -1.5356967 2.2054577 -1.2558206 0.21380454 -1.8362783 3.4973588 0.012616419 2.8537757 -2.812289 2.9502468 -2.954755 0.93044174 -2.5982845 2.1196537 -0.5670587 4.2413445 -1.1924204 -2.266531 -0.13477597 0.24025951 2.0763748 -2.6138172 0.7106197 4.6211467 0.49564475 -3.0421164 -0.5026779 1.9211073 2.5136867 2.334485 0.32571855 1.408986 -2.1009417 2.6519663 1.4279679 -1.2031313 1.5075659 0.86976475 0.5503491 3.8482258 0.0850983 -0.06423369 -2.5613945 -0.9622552 0.47005454 3.3866956 0.3444049
zinc 1.2104889 0.21856691 0.3056653 -2.4821901 0.36167264 -2.5796776 -0.7322436 2.8205907 -2.1686285 -1.7576858 1.1460172 -2.6780822 -0.2387682 2.59044 0.5467118 2.8114367 -0.82838064 -0.7220976 0.84169894 0.112975344 3.7661672 2.4978666 1.7724934 -2.7266035 1.6615185 3.5305178 1.6629663 0.49980623 -3.6174817 4.0492578 -0.20507413 -1.0819807 -1.4695313 1.7275229 -2.7211485 0.7979801 1.6180673 0.3483255 -1.2065173 -0.591151 -0.41075444 0.353083 1.3678031 1.0643458 2.5380547 -0.11024693 -1.8064094 -1.5578809 0.7419628 0.7872273 -1.7899793 -2.7736602 3.168403 1.6762793 -0.15922096 -1.2170784 0.823313 1.8118204 -1.6722729 -1.6892799 1.5129925 -2.0969503 1.2396251 2.1800861 -0.97455275 -0.9926212 -0.30247575 -2.2562048 -2.0240228 -2.4913652 -0.479432 -3.0196488 0.42225894 -1.8173403 1.688132 1.6093498 1.3928499 -0.42075756 -0.084951945 3.1083877 -0.43382096 1.338199 0.16572358 -1.1285882 -3.4065392 -0.9028507 1.0643442 -2.3151453 0.07361493 0.27330145 2.4460707 -0.73691297 0.98828983 2.024233 -0.42085412 3.0977125 -0.7308428 -0.044556316 0.077563286 2.4468098
union 0.09846799 2.4182818 -0.39522713 -3.418788 0.2536371 1.461 0.1191486 3.083376 1.0951158 -2.6210594 -4.098999 -1.6792791 -2.6466913 -2.6155522 0.7950145 -0.047789868 1.7014477 -0.27197993 0.60038763 0.38391107 2.51998 -3.8781707 -0.13706517 -1.3514551 -0.9201672 0.27477044 0.36999696 -0.4711033 1.616284 2.4519188 2.1987586 -1.5094565 0.52486366 1.1557307 -1.4314171 0.7274652 -0.49128065 2.6081238 -2.0035849 0.16681738 0.64356965 1.0676234 4.9294 1.4028656 0.16357459 1.8736215 -0.9926352 1.9849447 -4.247639 4.8059998 -0.41931236 -1.0010355 2.2069051 1.3299347 -0.15270153 -0.89524984 -1.1933255 -0.060776576 -1.2660663 0.55514205 0.18787031 3.9759705 -1.4911852 -0.7452715 -0.45792535 -1.0128046 1.9463061 0.9893596 1.8259132 2.2879038 3.061486 -0.6899348 0.9392234 1.8848895 1.7204232 -0.0051448396 0.483706 1.4051672 -0.5495724 -0.5249324 -2.0885174 0.38737538 -0.411455 -5.5439944 4.381261 0.5352818 1.3398908 1.3333256 -4.7988377 0.9227053 0.9563807 1.2262118 1.6074258 -1.7195126 -1.098048 -0.8638332 -4.3210697 0.04260813 2.9595265 -2.0001264
gift -2.696218 -1.1233175 1.6898952 -1.0097988 -0.29329675 -1.5675361 0.35232067 -1.3849393 -1.1226013 0.737667 1.3034482 -1.9571034 0.7206185 -0.2904088 -1.6113367 6.190144 0.5961032 5.698048 0.005543673 2.9746044 -1.0689508 -0.3507183 1.0035124 0.71760356 -2.154463 2.1380782 2.7461483 1.0572267 2.8460548 -1.9342189 1.8573714 -2.0569406 1.387253 0.91135377 -2.6889968 -0.42894983 -2.6642118 1.0294684 1.5744683 -1.0833844 -0.30844703 -2.0866694 4.5500693 0.7775347 -0.5244633 1.3639005 4.502558 1.698009 -2.4046724 -0.40911818 -0.26169574 0.5401436 -1.2382319 0.9221928 0.08587517 2.4576788 0.14200935 2.218219 1.1707306 -1.8408327 2.2756474 -2.7074294 0.24459532 0.51946324 1.6067153 1.6749396 1.6431913 1.4899546 1.1894811 3.9107745 -0.08376228 -2.803545 -2.2287037 0.3659082 2.1244662 -1.2533084 -2.539949 -0.6461387 0.1940814 -0.25184894 -1.3345227 -1.225065 -2.7592776 0.1551047 1.019319 -2.2590077 0.7235068 0.8090041 -0.14357552 0.48404187 -2.361083 0.15874545 0.5058069 1.192927 -4.46528 3.5086641 2.4129574 -0.2065145 -1.6200389 1.9063672
cutlery 1.7004938 -2.1905065 0.22369157 -1.2661877 0.82797647 1.6172589 -0.22356904 -0.9826081 0.33667672 1.4086195 0.4143924 0.011636718 -3.1913805 -1.3098896 -2.5851388 1.7099737 2.478727 1.571681 -2.534725 -4.374208 -3.3929374 0.44871783 1.534661 -0.5099282 -0.77387106 1.2871684 -0.31414995 1.1183544 0.05760087 -2.680924 -3.2949219 3.0078013 1.6033225 -2.0480616 0.47436565 -1.780299 -1.8978823 1.4585155 1.0847257 -1.7353796 0.5570165 4.0581656 0.8578607 -0.38019773 1.6256467 2.1383963 -0.95027804 1.2768322 -0.7179589 -1.947365 -2.2241805 -1.7502859 -3.8615046 -0.54577297 1.8425329 -1.0057145 -0.8626054 2.2032907 -0.26004872 -1.5327488 1.2305421 -1.4678605 1.8383453 -1.578564 -0.93114954 -0.785122 3.2636395 1.159674 2.2035089 4.380428 0.86043745 1.9482015 3.9857624 -0.6560643 -0.9046457 -0.5019299 0.72375655 -0.6123958 0.4398229 -3.5163279 -0.5604595 -0.6370237 -0.36414096 3.8102653 2.512584 1.5996242 -0.77925855 -0.04422214 -1.2581153 -1.2220994 1.0935166 0.98852426 1.8910711 -1.5507225 -0.17384174 -0.79369855 -3.211048 -1.6452492 -0.27882332 -2.4647336
jar 0.6817693 3.6778467 -2.639099 1.8224707 2.434705 -1.8659452 1.6442232 3.4625235 -0.21732429 -2.2514343 2.7700882 2.1219327 0.9147873 1.848406 0.59155077 1.764424 1.430928 1.2029359 -1.1350651 -2.9546816 -1.9229419 1.9705814 2.1705182 2.877027 -0.31092417 -0.40906236 -2.0432482 2.4646578 -1.2665815 1.1967797 -2.8796082 0.6305627 0.969493 2.504676 0.6116556 -2.270064 1.2626747 -0.37819684 -0.04865089 -0.5385963 0.23440269 0.60185784 -0.90679604 1.6662633 -1.330654 -0.4144042 -4.161531 -0.5030372 -0.23440129 -2.6147914 1.2013704 -0.708447 -0.5033931 -1.3310125 -0.51220536 -2.6632423 0.83061606 2.1848114 1.8625445 0.52242136 -1.3615564 2.0854576 2.5026395 -2.5773394 -3.0186763 2.2538435 -2.4078727 0.81530076 -0.91358745 3.7414734 1.9541208 4.1633067 -2.0466123 2.0469313 -1.0504339 3.1503248 4.566016 -3.1591818 2.0548284 1.7372808 1.1062275 -1.165063 -1.2303218 0.48274332 -3.853167 0.08776076 -0.8893543 1.5828311 -1.9602195 3.338019 0.8162896 0.35024762 1.09647 -0.70385003 -1.09808 1.0291091 -2.068554 0.019856002 0.30841485 1.5064187
flower 1.5027546 4.140333 1.669119 -1.4113718 0.002610968 -0.20715432 4.2792325 -1.6014607 4.030739 4.1530514 -0.029456114 0.11763903 -0.50570273 -1.1900767 3.4923267 -1.9982872 -0.4575513 -0.1330795 1.653966 -1.4019271 -2.3242588 0.047817104 -0.5280829 1.7310153 -0.9140503 0.7549144 -1.3832486 -0.5947099 -0.47428763 -2.9279025 1.5512843 -0.9092332 2.188721 4.4894323 -0.7759072 0.5319216 2.0878234 0.12568185 -2.7582853 -0.53192574 0.8537915 -0.07227205 -1.9959692 2.4548306 -1.4023654 -2.1992671 2.156566 -2.8242583 -1.2728463 -3.4372165 1.8843839 1.0093372 -3.370346 2.1889808 -1.4307005 0.19992243 1.7597646 2.41729 0.35393792 -2.197129 1.7124184 -3.2347407 3.2355707 -0.702018 -2.5773797 -1.0916266 0.69968843 2.2071574 0.55789244 2.537872 -2.0961976 2.3502834 3.0098069 -3.2444124 -0.35278776 0.8713017 1.2004033 -1.3576876 1.0224835 0.8533583 -4.4027047 -0.92134345 -0.5820018 -0.06419622 -1.2273054 -1.3057715 2.2861776 -0.7607709 -1.1979237 1.0808641 -0.260883 0.91289264 -0.42595387 -5.250771 0.96186733 -0.9304872 3.055675 -0.21568206 0.29370123 0.66010433
